{"learner":{"attributes":{"scikit_learn":"{\"_estimator_type\": \"regressor\"}"},"feature_names":["num_fish","num_chicken","num_vegetarian","num_meat","num_vegan"],"feature_types":["float","float","float","float","float"],"gradient_booster":{"model":{"gbtree_model_param":{"num_parallel_tree":"1","num_trees":"100"},"iteration_indptr":[0,1,2,3,4,5,6,7,8,9,10,11,12,13,14,15,16,17,18,19,20,21,22,23,24,25,26,27,28,29,30,31,32,33,34,35,36,37,38,39,40,41,42,43,44,45,46,47,48,49,50,51,52,53,54,55,56,57,58,59,60,61,62,63,64,65,66,67,68,69,70,71,72,73,74,75,76,77,78,79,80,81,82,83,84,85,86,87,88,89,90,91,92,93,94,95,96,97,98,99,100],"tree_info":[0,0,0,0,0,0,0,0,0,0,0,0,0,0,0,0,0,0,0,0,0,0,0,0,0,0,0,0,0,0,0,0,0,0,0,0,0,0,0,0,0,0,0,0,0,0,0,0,0,0,0,0,0,0,0,0,0,0,0,0,0,0,0,0,0,0,0,0,0,0,0,0,0,0,0,0,0,0,0,0,0,0,0,0,0,0,0,0,0,0,0,0,0,0,0,0,0,0,0,0],"trees":[{"base_weights":[3.1831248E-6,-4.954973E1,3.1604696E1,-6.2202526E1,-1.9001617E1,1.4806715E1,5.4973206E1,-2.127877E1,-4.820792E1,-3.535665E1,-5.635803E0,-2.938461E0,2.7329704E1,2.287347E1,5.8363415E1,-1.4736142E1,-2.5771637E0,-1.189461E1,-3.770496E0,-1.0355773E1,2.613594E1,-2.5316984E1,3.1892066E0,1.6360758E1,3.7787376E1,5.2159348E0,8.152004E0,5.026149E1,2.0731462E1,-1.5323503E1,-1.6097069E0,9.526337E0,2.2348366E0,-8.902139E0,-3.4089966E0,-4.053449E0,1.6872066E1,-2.7406645E0,1.7443003E1,2.0550014E1,1.3091687E1,2.650335E0,-3.031643E-1,6.8595386E0,5.248509E1,-5.065625E0,-2.3934965E0,-3.0612183E0,8.867264E-1,-2.8231199E0,1.476905E0,-1.2751637E0,5.695949E0,2.3547268E0,5.678684E0,1.5328366E0,6.5093746E0,3.602836E0,1.5970261E1],"categories":[],"categories_nodes":[],"categories_segments":[],"categories_sizes":[],"default_left":[0,0,0,0,0,0,0,0,0,0,0,0,0,0,0,0,0,0,0,0,0,0,0,0,0,0,0,0,0,0,0,0,0,0,0,0,0,0,0,0,0,0,0,0,0,0,0,0,0,0,0,0,0,0,0,0,0,0,0],"id":0,"left_children":[1,3,5,7,9,11,13,-1,15,17,19,21,23,25,27,-1,-1,-1,-1,29,31,33,35,37,39,41,-1,43,-1,45,47,-1,-1,-1,-1,49,51,-1,53,55,-1,-1,-1,-1,57,-1,-1,-1,-1,-1,-1,-1,-1,-1,-1,-1,-1,-1,-1],"loss_changes":[4.7449925E5,4.4427312E4,7.180664E4,6.7171875E3,7.6702764E3,2.430258E4,7.044547E3,0E0,8.433828E2,1.0666191E3,3.419853E3,6.388636E3,6.7231836E3,5.415928E2,2.5315E3,0E0,0E0,0E0,0E0,8.008474E2,7.841748E1,2.707417E2,3.7350994E3,1.0699277E3,2.3309258E3,7.651949E1,0E0,1.4194141E3,0E0,2.9533691E0,3.4405823E2,0E0,0E0,0E0,0E0,1.2484895E3,6.6131274E2,0E0,3.0761816E2,6.637793E1,0E0,0E0,0E0,0E0,5.431953E2,0E0,0E0,0E0,0E0,0E0,0E0,0E0,0E0,0E0,0E0,0E0,0E0,0E0,0E0],"parents":[2147483647,0,0,1,1,2,2,3,3,4,4,5,5,6,6,8,8,9,9,10,10,11,11,12,12,13,13,14,14,19,19,20,20,21,21,22,22,23,23,24,24,25,25,27,27,29,29,30,30,35,35,36,36,38,38,39,39,44,44],"right_children":[2,4,6,8,10,12,14,-1,16,18,20,22,24,26,28,-1,-1,-1,-1,30,32,34,36,38,40,42,-1,44,-1,46,48,-1,-1,-1,-1,50,52,-1,54,56,-1,-1,-1,-1,58,-1,-1,-1,-1,-1,-1,-1,-1,-1,-1,-1,-1,-1,-1],"split_conditions":[3.7E1,2.9E1,5.9E1,2E1,2.5E1,4.6E1,2.6E1,-2.127877E1,2.4E1,2.8E1,3.3E1,2.9E1,3.7E1,6.2E1,7.5E1,-1.4736142E1,-2.5771637E0,-1.189461E1,-3.770496E0,3.5E1,1E0,1.7E1,4.1E1,4.7E1,4.7E1,1E0,8.152004E0,7E0,2.0731462E1,5E1,1.4E1,9.526337E0,2.2348366E0,-8.902139E0,-3.4089966E0,7E0,8E0,-2.7406645E0,3.9E1,2E0,1.3091687E1,2.650335E0,-3.031643E-1,6.8595386E0,2.3E1,-5.065625E0,-2.3934965E0,-3.0612183E0,8.867264E-1,-2.8231199E0,1.476905E0,-1.2751637E0,5.695949E0,2.3547268E0,5.678684E0,1.5328366E0,6.5093746E0,3.602836E0,1.5970261E1],"split_indices":[2,1,2,4,4,1,1,0,3,2,3,1,4,2,2,0,0,0,0,4,0,3,4,1,2,0,0,3,0,1,3,0,0,0,0,0,3,0,2,3,0,0,0,0,4,0,0,0,0,0,0,0,0,0,0,0,0,0,0],"split_type":[0,0,0,0,0,0,0,0,0,0,0,0,0,0,0,0,0,0,0,0,0,0,0,0,0,0,0,0,0,0,0,0,0,0,0,0,0,0,0,0,0,0,0,0,0,0,0,0,0,0,0,0,0,0,0,0,0,0,0],"sum_hessian":[3.01E2,1.17E2,1.84E2,8.2E1,3.5E1,1.08E2,7.6E1,4.8E1,3.4E1,1.5E1,2E1,4.5E1,6.3E1,8E0,6.8E1,3.3E1,1E0,1.2E1,3E0,1.8E1,2E0,9E0,3.6E1,3.2E1,3.1E1,2E0,6E0,4.2E1,2.6E1,1.1E1,7E0,1E0,1E0,6E0,3E0,2.4E1,1.2E1,1E0,3.1E1,9E0,2.2E1,1E0,1E0,4E0,3.8E1,8E0,3E0,2E0,5E0,1.5E1,9E0,1E0,1.1E1,5E0,2.6E1,1E0,8E0,1E0,3.7E1],"tree_param":{"num_deleted":"0","num_feature":"5","num_nodes":"59","size_leaf_vector":"1"}},{"base_weights":[7.5246684E-2,-3.5126587E1,2.25279E1,-4.4006733E1,-1.3677176E1,7.138569E0,3.5824303E1,-4.809963E1,-2.7688568E1,-2.115405E1,3.039409E0,-3.7633154E0,1.5669893E1,2.4490131E1,4.3414146E1,-1.4685261E1,-6.864167E0,-9.604942E0,-4.7086573E0,-8.31581E0,-6.402448E0,-3.0173745E0,2.2215551E1,-8.289359E0,1.2244535E1,1.1561323E1,2.3421238E1,-5.0211053E0,2.6969913E1,1.8292027E1,4.6503616E1,-2.5429E0,5.707677E-1,-2.0141232E0,2.0217438E0,8.097386E0,1.8996117E0,-1.2387089E1,1.554583E0,5.738659E0,5.6826653E0,9.164656E0,1.9496372E1,1.2614285E0,7.326606E0,2.247173E1,1.1465188E1,8.572886E0,7.760384E0,5.4718595E0,1.436704E1,-2.2198106E-1,4.7882655E-1,7.98436E-1,2.1243592E-1,-5.502557E0,-2.5156224E0,-6.0071754E-1,3.1564968E0,6.594025E-1,2.0878448E0,1.3663813E0,4.240078E0,2.2370453E0,6.8462496E0,2.0545099E0,7.5638475E0,1.5896607E-2,4.270547E0],"categories":[],"categories_nodes":[],"categories_segments":[],"categories_sizes":[],"default_left":[0,0,0,0,0,0,0,0,0,0,0,0,0,0,0,0,0,0,0,0,0,0,0,0,0,0,0,0,0,0,0,0,0,0,0,0,0,0,0,0,0,0,0,0,0,0,0,0,0,0,0,0,0,0,0,0,0,0,0,0,0,0,0,0,0,0,0,0,0],"id":1,"left_children":[1,3,5,7,9,11,13,15,17,19,21,23,25,27,29,-1,-1,-1,-1,-1,31,33,35,37,39,41,43,-1,45,47,49,-1,51,-1,53,-1,-1,55,57,59,-1,61,63,-1,-1,65,-1,67,-1,-1,-1,-1,-1,-1,-1,-1,-1,-1,-1,-1,-1,-1,-1,-1,-1,-1,-1,-1,-1],"loss_changes":[2.3948444E5,2.1874031E4,3.7599484E4,4.2116562E3,4.5638574E3,8.150624E3,7.453211E3,2.7534375E2,4.8367383E2,2.243751E3,1.4607816E3,2.9271362E3,1.2897197E3,4.74524E3,3.650961E3,0E0,0E0,0E0,0E0,0E0,1.3499286E2,1.9983788E2,5.6656494E1,1.2697292E3,2.834657E2,4.6792383E2,2.0501562E2,0E0,1.1649023E3,3.6728833E2,1.1251328E3,0E0,5.2126822E0,0E0,2.3170624E0,0E0,0E0,3.704358E2,3.4002496E2,1.0638046E1,0E0,5.770244E2,1.10004395E2,0E0,0E0,1.1549111E3,0E0,2.404555E2,0E0,0E0,0E0,0E0,0E0,0E0,0E0,0E0,0E0,0E0,0E0,0E0,0E0,0E0,0E0,0E0,0E0,0E0,0E0,0E0,0E0],"parents":[2147483647,0,0,1,1,2,2,3,3,4,4,5,5,6,6,7,7,8,8,9,9,10,10,11,11,12,12,13,13,14,14,20,20,21,21,22,22,23,23,24,24,25,25,26,26,28,28,29,29,30,30,32,32,34,34,37,37,38,38,39,39,41,41,42,42,45,45,47,47],"right_children":[2,4,6,8,10,12,14,16,18,20,22,24,26,28,30,-1,-1,-1,-1,-1,32,34,36,38,40,42,44,-1,46,48,50,-1,52,-1,54,-1,-1,56,58,60,-1,62,64,-1,-1,66,-1,68,-1,-1,-1,-1,-1,-1,-1,-1,-1,-1,-1,-1,-1,-1,-1,-1,-1,-1,-1,-1,-1],"split_conditions":[3.7E1,2.9E1,5.4E1,2.6E1,2.3E1,4.7E1,4.7E1,1.6E1,2.4E1,4.8E1,3.3E1,2.8E1,4.2E1,1.6E1,3.4E1,-1.4685261E1,-6.864167E0,-9.604942E0,-4.7086573E0,-8.31581E0,3.3E1,3.5E1,1E0,7E0,1.1E1,1.3E1,5.1E1,-5.0211053E0,6.8E1,7.7E1,7E0,-2.5429E0,1E0,-2.0141232E0,7E0,8.097386E0,1.8996117E0,3.1E1,4.7E1,4.1E1,5.6826653E0,4.7E1,5.2E1,1.2614285E0,7.326606E0,5.5E1,1.1465188E1,1.9E1,7.760384E0,5.4718595E0,1.436704E1,-2.2198106E-1,4.7882655E-1,7.98436E-1,2.1243592E-1,-5.502557E0,-2.5156224E0,-6.0071754E-1,3.1564968E0,6.594025E-1,2.0878448E0,1.3663813E0,4.240078E0,2.2370453E0,6.8462496E0,2.0545099E0,7.5638475E0,1.5896607E-2,4.270547E0],"split_indices":[2,1,2,2,3,1,4,0,1,1,3,3,4,1,1,0,0,0,0,0,4,4,0,0,0,0,1,0,1,2,3,0,0,0,0,0,0,1,2,2,0,2,1,0,0,2,0,3,0,0,0,0,0,0,0,0,0,0,0,0,0,0,0,0,0,0,0,0,0],"split_type":[0,0,0,0,0,0,0,0,0,0,0,0,0,0,0,0,0,0,0,0,0,0,0,0,0,0,0,0,0,0,0,0,0,0,0,0,0,0,0,0,0,0,0,0,0,0,0,0,0,0,0,0,0,0,0,0,0,0,0,0,0,0,0,0,0,0,0,0,0],"sum_hessian":[3.01E2,1.17E2,1.84E2,8.2E1,3.5E1,8.6E1,9.8E1,6.4E1,1.8E1,2.4E1,1.1E1,3.8E1,4.8E1,4.1E1,5.7E1,6.1E1,3E0,1.2E1,6E0,1.6E1,8E0,9E0,2E0,3E1,8E0,3.3E1,1.5E1,2E0,3.9E1,7E0,5E1,6E0,2E0,5E0,4E0,1E0,1E0,2.1E1,9E0,5E0,3E0,2.7E1,6E0,1E0,1.4E1,3E1,9E0,4E0,3E0,3E0,4.7E1,1E0,1E0,2E0,2E0,7E0,1.4E1,7E0,2E0,2E0,3E0,1.5E1,1.2E1,2E0,4E0,5E0,2.5E1,2E0,2E0],"tree_param":{"num_deleted":"0","num_feature":"5","num_nodes":"69","size_leaf_vector":"1"}},{"base_weights":[1.742711E-1,-2.490616E1,1.6170578E1,-3.3276592E1,-1.2856838E1,7.52899E0,2.8193466E1,-3.9638542E1,-2.7673216E1,-2.0951868E1,-3.2142298E0,-1.579909E0,1.395837E1,2.3563581E1,3.86971E1,-1.2141068E1,-2.3279538E0,-8.748899E0,-1.6483824E1,-7.550077E0,-1.2532978E1,-6.081417E0,1.8883219E1,-8.165215E0,5.975207E0,1.1070277E1,2.5550919E1,1.888636E1,1.0222872E1,8.741008E0,1.3682618E1,-5.2773385E0,-1.4760007E0,-1.352802E1,-3.873848E-1,-8.958351E0,1.363205E0,6.882779E0,1.6146699E0,-1.7395693E1,-4.334764E0,1.6003957E0,1.5121175E1,7.4740067E0,1.8246262E1,3.1714623E0,2.9369429E1,1.4977528E1,8.851798E0,-4.3195167E0,-8.5420537E-1,-3.4135334E0,-1.5347855E0,5.4001623E-1,-1.8868333E-1,-6.011823E0,-2.15728E0,-2.2328246E0,2.607176E-1,-1.4036111E0,1.4639604E0,4.966275E0,9.784081E-1,-3.606804E-1,2.660174E0,2.833322E0,6.0684094E0,2.5539563E0,9.273693E0,3.855796E0,7.9915442E0],"categories":[],"categories_nodes":[],"categories_segments":[],"categories_sizes":[],"default_left":[0,0,0,0,0,0,0,0,0,0,0,0,0,0,0,0,0,0,0,0,0,0,0,0,0,0,0,0,0,0,0,0,0,0,0,0,0,0,0,0,0,0,0,0,0,0,0,0,0,0,0,0,0,0,0,0,0,0,0,0,0,0,0,0,0,0,0,0,0,0,0],"id":2,"left_children":[1,3,5,7,9,11,13,15,17,19,21,23,25,27,29,-1,-1,-1,31,-1,33,35,37,39,41,43,45,47,-1,-1,-1,-1,-1,49,-1,51,53,-1,-1,55,57,59,61,63,65,-1,67,69,-1,-1,-1,-1,-1,-1,-1,-1,-1,-1,-1,-1,-1,-1,-1,-1,-1,-1,-1,-1,-1,-1,-1],"loss_changes":[1.2156341E5,1.1473414E4,1.9008645E4,1.3628203E3,3.8355156E3,6.405592E3,2.8327148E3,4.8134375E2,1.8607227E2,6.4270703E2,1.6354172E3,2.3374153E3,1.8598877E3,2.1099453E3,1.24828125E2,0E0,0E0,0E0,3.0841064E0,0E0,1.0557715E2,4.8340112E2,4.093445E1,8.085161E2,8.560615E2,1.2313867E3,3.7590674E2,1.259998E3,0E0,0E0,0E0,0E0,0E0,5.1963867E1,0E0,9.05719E1,7.2240114E0,0E0,0E0,4.474756E1,3.1376282E2,3.5230557E2,6.4982666E1,4.5792114E2,1.05493164E2,0E0,2.644629E1,4.5052246E2,0E0,0E0,0E0,0E0,0E0,0E0,0E0,0E0,0E0,0E0,0E0,0E0,0E0,0E0,0E0,0E0,0E0,0E0,0E0,0E0,0E0,0E0,0E0],"parents":[2147483647,0,0,1,1,2,2,3,3,4,4,5,5,6,6,7,7,8,8,9,9,10,10,11,11,12,12,13,13,14,14,18,18,20,20,21,21,22,22,23,23,24,24,25,25,26,26,27,27,33,33,35,35,36,36,39,39,40,40,41,41,42,42,43,43,44,44,46,46,47,47],"right_children":[2,4,6,8,10,12,14,16,18,20,22,24,26,28,30,-1,-1,-1,32,-1,34,36,38,40,42,44,46,48,-1,-1,-1,-1,-1,50,-1,52,54,-1,-1,56,58,60,62,64,66,-1,68,70,-1,-1,-1,-1,-1,-1,-1,-1,-1,-1,-1,-1,-1,-1,-1,-1,-1,-1,-1,-1,-1,-1,-1],"split_conditions":[3.7E1,2.5E1,5.9E1,1.7E1,1.3E1,4.6E1,7.9E1,1.6E1,2.2E1,2.6E1,3.3E1,2.1E1,3.7E1,6.8E1,4.9E1,-1.2141068E1,-2.3279538E0,-8.748899E0,1.6E1,-7.550077E0,1.2E1,3.5E1,1E0,2.9E1,1.2E1,4.3E1,4.8E1,4.8E1,1.0222872E1,8.741008E0,1.3682618E1,-5.2773385E0,-1.4760007E0,5E1,-3.873848E-1,3.9E1,6.3E1,6.882779E0,1.6146699E0,3.2E1,3E0,3.1E1,4.1E1,3.9E1,5.5E1,3.1714623E0,3E1,2E1,8.851798E0,-4.3195167E0,-8.5420537E-1,-3.4135334E0,-1.5347855E0,5.4001623E-1,-1.8868333E-1,-6.011823E0,-2.15728E0,-2.2328246E0,2.607176E-1,-1.4036111E0,1.4639604E0,4.966275E0,9.784081E-1,-3.606804E-1,2.660174E0,2.833322E0,6.0684094E0,2.5539563E0,9.273693E0,3.855796E0,7.9915442E0],"split_indices":[2,1,2,2,3,1,2,3,1,2,3,3,3,1,1,0,0,0,3,0,0,4,0,1,0,4,2,3,0,0,0,0,0,1,0,1,1,0,0,4,0,1,1,2,1,0,4,0,0,0,0,0,0,0,0,0,0,0,0,0,0,0,0,0,0,0,0,0,0,0,0],"split_type":[0,0,0,0,0,0,0,0,0,0,0,0,0,0,0,0,0,0,0,0,0,0,0,0,0,0,0,0,0,0,0,0,0,0,0,0,0,0,0,0,0,0,0,0,0,0,0,0,0,0,0,0,0,0,0,0,0,0,0,0,0,0,0,0,0,0,0,0,0,0,0],"sum_hessian":[3.01E2,1.17E2,1.84E2,6.8E1,4.9E1,1.08E2,7.6E1,2.9E1,3.9E1,2.6E1,2.3E1,4.5E1,6.3E1,5.5E1,2.1E1,2.8E1,1E0,3.3E1,6E0,1.6E1,1E1,2.1E1,2E0,2.4E1,2.1E1,5.2E1,1.1E1,4E1,1.5E1,1.1E1,1E1,5E0,1E0,9E0,1E0,1.5E1,6E0,1E0,1E0,6E0,1.8E1,1.5E1,6E0,3.6E1,1.6E1,3E0,8E0,3.1E1,9E0,8E0,1E0,8E0,7E0,5E0,1E0,4E0,2E0,1.1E1,7E0,5E0,1E1,5E0,1E0,5E0,3.1E1,4E0,1.2E1,1E0,7E0,2.8E1,3E0],"tree_param":{"num_deleted":"0","num_feature":"5","num_nodes":"71","size_leaf_vector":"1"}},{"base_weights":[2.4195059E-1,-1.7766361E1,1.1727026E1,-2.4796894E1,-1.0065865E1,4.7884755E0,2.0196226E1,-9.862878E0,-6.27844E0,-1.25631895E1,4.926592E0,-3.157127E0,8.579362E0,1.645816E1,2.733969E1,-1.4854982E1,-3.08729E0,-5.4469734E-1,1.6050735E1,-6.1972504E0,7.4979305E0,6.3104115E0,1.8042418E1,1.2912942E1,2.4735723E1,2.2022337E1,9.9215975E0,-6.076351E0,-1.1817527E1,-4.6222553E0,7.544632E-1,-1.9565163E0,1.0032959E0,5.850362E0,1.3724694E0,-8.620061E0,3.719265E0,4.4788668E-1,9.250763E0,4.813319E0,5.544898E0,1.8013092E0,5.9055915E0,1.0064365E1,6.007743E0,2.1776712E0,7.625076E0,4.706972E0,7.7723517E0,-8.89666E-1,-3.6106627E0,-1.490694E0,-3.2927743E-1,-1.6038094E-1,4.0870592E-1,-8.951706E-1,-1.8582611E-1,5.090584E-1,6.1946105E-2,-3.4106216E0,-1.2554326E0,5.6991577E-3,2.2239602E0,3.970894E-1,3.171439E0,9.36482E-1,3.5326571E0,1.9864548E0,5.8695674E0],"categories":[],"categories_nodes":[],"categories_segments":[],"categories_sizes":[],"default_left":[0,0,0,0,0,0,0,0,0,0,0,0,0,0,0,0,0,0,0,0,0,0,0,0,0,0,0,0,0,0,0,0,0,0,0,0,0,0,0,0,0,0,0,0,0,0,0,0,0,0,0,0,0,0,0,0,0,0,0,0,0,0,0,0,0,0,0,0,0],"id":3,"left_children":[1,3,5,7,9,11,13,-1,-1,15,17,19,21,23,25,27,29,31,33,35,37,39,41,43,45,47,-1,-1,49,51,53,55,57,-1,-1,59,61,-1,63,65,-1,-1,-1,67,-1,-1,-1,-1,-1,-1,-1,-1,-1,-1,-1,-1,-1,-1,-1,-1,-1,-1,-1,-1,-1,-1,-1,-1,-1],"loss_changes":[6.2670047E4,6.138758E3,1.0774623E4,1.2186445E3,2.2334731E3,3.129536E3,1.7663711E3,0E0,0E0,1.039978E3,5.565134E2,1.147818E3,1.3891289E3,1.3532979E3,9.46543E1,4.1667383E2,6.835386E1,1.7261368E1,2.9575073E1,6.8075793E2,7.0394714E1,9.679971E2,1.3890527E2,6.49438E2,5.9833984E0,1.1788086E1,0E0,0E0,1.8344482E1,4.3227844E0,3.8627596E0,3.6465635E0,1.8601766E0,0E0,0E0,2.2063013E2,8.1870476E1,0E0,4.8823547E1,5.87478E2,0E0,0E0,0E0,9.1716895E2,0E0,0E0,0E0,0E0,0E0,0E0,0E0,0E0,0E0,0E0,0E0,0E0,0E0,0E0,0E0,0E0,0E0,0E0,0E0,0E0,0E0,0E0,0E0,0E0,0E0],"parents":[2147483647,0,0,1,1,2,2,3,3,4,4,5,5,6,6,9,9,10,10,11,11,12,12,13,13,14,14,15,15,16,16,17,17,18,18,19,19,20,20,21,21,22,22,23,23,24,24,25,25,28,28,29,29,30,30,31,31,32,32,35,35,36,36,38,38,39,39,43,43],"right_children":[2,4,6,8,10,12,14,-1,-1,16,18,20,22,24,26,28,30,32,34,36,38,40,42,44,46,48,-1,-1,50,52,54,56,58,-1,-1,60,62,-1,64,66,-1,-1,-1,68,-1,-1,-1,-1,-1,-1,-1,-1,-1,-1,-1,-1,-1,-1,-1,-1,-1,-1,-1,-1,-1,-1,-1,-1,-1],"split_conditions":[3.7E1,2.3E1,4.4E1,1.2E1,2.5E1,4.1E1,6.5E1,-9.862878E0,-6.27844E0,4.8E1,5E1,2.8E1,3.7E1,7.8E1,3.4E1,1.5E1,3.4E1,3.5E1,1E0,1.6E1,5E1,7.4E1,3.9E1,1.5E1,4.6E1,8.6E1,9.9215975E0,-6.076351E0,1.6E1,1.1E1,1E0,3.2E1,1E0,5.850362E0,1.3724694E0,1.7E1,3.5E1,4.4788668E-1,3.9E1,1.3E1,5.544898E0,1.8013092E0,5.9055915E0,4.8E1,6.007743E0,2.1776712E0,7.625076E0,4.706972E0,7.7723517E0,-8.89666E-1,-3.6106627E0,-1.490694E0,-3.2927743E-1,-1.6038094E-1,4.0870592E-1,-8.951706E-1,-1.8582611E-1,5.090584E-1,6.1946105E-2,-3.4106216E0,-1.2554326E0,5.6991577E-3,2.2239602E0,3.970894E-1,3.171439E0,9.36482E-1,3.5326571E0,1.9864548E0,5.8695674E0],"split_indices":[2,2,4,1,3,1,1,0,0,1,1,3,3,2,3,1,4,4,0,0,2,1,2,0,4,1,0,0,1,0,0,1,0,0,0,3,1,0,3,0,0,0,0,3,0,0,0,0,0,0,0,0,0,0,0,0,0,0,0,0,0,0,0,0,0,0,0,0,0],"split_type":[0,0,0,0,0,0,0,0,0,0,0,0,0,0,0,0,0,0,0,0,0,0,0,0,0,0,0,0,0,0,0,0,0,0,0,0,0,0,0,0,0,0,0,0,0,0,0,0,0,0,0,0,0,0,0,0,0,0,0,0,0,0,0,0,0,0,0,0,0],"sum_hessian":[3.01E2,1.17E2,1.84E2,6E1,5.7E1,1.02E2,8.2E1,1.7E1,4.3E1,4.9E1,8E0,3.3E1,6.9E1,5.6E1,2.6E1,3.9E1,1E1,6E0,2E0,2.6E1,7E0,5.7E1,1.2E1,4.1E1,1.5E1,1.6E1,1E1,1.2E1,2.7E1,7E0,3E0,3E0,3E0,1E0,1E0,2.1E1,5E0,2E0,5E0,5.2E1,5E0,2E0,1E1,3.1E1,1E1,1E0,1.4E1,8E0,8E0,1E0,2.6E1,6E0,1E0,1E0,2E0,1E0,2E0,1E0,2E0,1.2E1,9E0,3E0,2E0,1E0,4E0,4.3E1,9E0,2.4E1,7E0],"tree_param":{"num_deleted":"0","num_feature":"5","num_nodes":"69","size_leaf_vector":"1"}},{"base_weights":[3.1437108E-1,-1.26193075E1,8.562261E0,-1.660485E1,-4.729265E0,2.3989205E0,1.3892042E1,-8.017262E0,-1.4169838E1,-6.0212626E0,1.3643127E1,-1.5980507E0,6.164939E0,8.719507E0,1.7871534E1,-1.5823269E1,-8.973475E0,-7.7687025E0,-1.7681733E-1,4.9728084E0,1.1665993E0,-3.8719785E0,4.598928E0,4.1134267E0,1.1463813E1,6.432673E0,6.0644403E0,1.5426769E1,7.8744473E0,-1.6177713E1,-1.5342088E0,-2.977499E0,-5.4162674E0,-3.0365903E0,-4.3562593E0,-1.8773079E0,8.201512E-1,-2.8279574E0,-1.6276916E0,8.13165E-1,7.1868777E0,3.0552588E0,9.63975E0,2.7454643E0,1.4064877E1,1.9794555E0,1.1518124E1,1.1948629E1,1.9557455E1,-5.1619544E0,-3.548671E0,-1.8379021E0,-2.798859E-1,-5.05221E-1,-1.5770185E0,-7.6089483E-1,-2.4365997E-1,3.3249438E-1,-1.3632432E-1,-1.6907777E0,-8.287968E-2,-3.1658554E-1,6.0336345E-1,7.3314744E-1,2.5786004E0,-8.229324E-1,1.0702188E0,3.3356783E0,5.584557E-1,1.8005449E-1,9.781495E-1,4.5469513E0,7.9977953E-1,-2.6747584E0,1.2507074E0,2.2405279E0,5.044505E0,2.497902E-1,3.703243E0,1.2850227E0,6.0504136E0],"categories":[],"categories_nodes":[],"categories_segments":[],"categories_sizes":[],"default_left":[0,0,0,0,0,0,0,0,0,0,0,0,0,0,0,0,0,0,0,0,0,0,0,0,0,0,0,0,0,0,0,0,0,0,0,0,0,0,0,0,0,0,0,0,0,0,0,0,0,0,0,0,0,0,0,0,0,0,0,0,0,0,0,0,0,0,0,0,0,0,0,0,0,0,0,0,0,0,0,0,0],"id":4,"left_children":[1,3,5,7,9,11,13,-1,15,17,19,21,23,25,27,29,31,33,35,-1,-1,37,39,41,43,45,-1,47,-1,49,-1,-1,51,-1,53,55,57,-1,59,61,63,65,67,69,71,73,75,77,79,-1,-1,-1,-1,-1,-1,-1,-1,-1,-1,-1,-1,-1,-1,-1,-1,-1,-1,-1,-1,-1,-1,-1,-1,-1,-1,-1,-1,-1,-1,-1,-1],"loss_changes":[3.2324068E4,3.6321133E3,6.043788E3,1.5433008E3,1.0553695E3,1.3194338E3,1.8819902E3,0E0,4.164795E2,3.9692627E2,2.1367981E1,6.2374066E2,4.4202612E2,1.0529172E3,7.2141406E2,9.946777E1,7.1693115E0,1.968175E2,1.8493032E1,0E0,0E0,3.835683E2,1.11724304E2,1.693725E2,2.3350916E2,8.6041846E2,0E0,4.1283496E2,0E0,2.272461E0,0E0,0E0,1.3385284E1,0E0,2.4834442E1,7.476635E-1,3.0746155E0,0E0,1.2844695E2,1.5553341E1,2.5757172E1,9.88725E1,3.6828827E1,2.462679E0,7.158435E1,5.620035E2,2.605327E2,1.0842798E2,9.081055E1,0E0,0E0,0E0,0E0,0E0,0E0,0E0,0E0,0E0,0E0,0E0,0E0,0E0,0E0,0E0,0E0,0E0,0E0,0E0,0E0,0E0,0E0,0E0,0E0,0E0,0E0,0E0,0E0,0E0,0E0,0E0,0E0],"parents":[2147483647,0,0,1,1,2,2,3,3,4,4,5,5,6,6,8,8,9,9,10,10,11,11,12,12,13,13,14,14,15,15,16,16,17,17,18,18,21,21,22,22,23,23,24,24,25,25,27,27,29,29,32,32,34,34,35,35,36,36,38,38,39,39,40,40,41,41,42,42,43,43,44,44,45,45,46,46,47,47,48,48],"right_children":[2,4,6,8,10,12,14,-1,16,18,20,22,24,26,28,30,32,34,36,-1,-1,38,40,42,44,46,-1,48,-1,50,-1,-1,52,-1,54,56,58,-1,60,62,64,66,68,70,72,74,76,78,80,-1,-1,-1,-1,-1,-1,-1,-1,-1,-1,-1,-1,-1,-1,-1,-1,-1,-1,-1,-1,-1,-1,-1,-1,-1,-1,-1,-1,-1,-1,-1,-1],"split_conditions":[3.7E1,1.2E1,5.4E1,9E0,3.3E1,4.9E1,5.2E1,-8.017262E0,2.3E1,3.1E1,1E0,2.8E1,1.3E1,5.3E1,7.9E1,1.6E1,1E0,2.9E1,3.5E1,4.9728084E0,1.1665993E0,4.1E1,4.1E1,7.3E1,3.4E1,7.1E1,6.0644403E0,3.7E1,7.8744473E0,8E0,-1.5342088E0,-2.977499E0,4.6E1,-3.0365903E0,1.8E1,3.2E1,6.3E1,-2.8279574E0,3.2E1,3.9E1,3.8E1,1.2E1,1E0,4.6E1,6.7E1,1.6E1,2E0,1E0,3E1,-5.1619544E0,-3.548671E0,-1.8379021E0,-2.798859E-1,-5.05221E-1,-1.5770185E0,-7.6089483E-1,-2.4365997E-1,3.3249438E-1,-1.3632432E-1,-1.6907777E0,-8.287968E-2,-3.1658554E-1,6.0336345E-1,7.3314744E-1,2.5786004E0,-8.229324E-1,1.0702188E0,3.3356783E0,5.584557E-1,1.8005449E-1,9.781495E-1,4.5469513E0,7.9977953E-1,-2.6747584E0,1.2507074E0,2.2405279E0,5.044505E0,2.497902E-1,3.703243E0,1.2850227E0,6.0504136E0],"split_indices":[2,3,2,1,3,1,1,0,4,4,0,3,0,3,2,0,0,2,4,0,0,2,2,1,4,2,0,3,0,3,0,0,1,0,3,1,1,0,1,2,1,3,0,2,1,1,0,3,4,0,0,0,0,0,0,0,0,0,0,0,0,0,0,0,0,0,0,0,0,0,0,0,0,0,0,0,0,0,0,0,0],"split_type":[0,0,0,0,0,0,0,0,0,0,0,0,0,0,0,0,0,0,0,0,0,0,0,0,0,0,0,0,0,0,0,0,0,0,0,0,0,0,0,0,0,0,0,0,0,0,0,0,0,0,0,0,0,0,0,0,0,0,0,0,0,0,0,0,0,0,0,0,0,0,0,0,0,0,0,0,0,0,0,0,0],"sum_hessian":[3.01E2,1.17E2,1.84E2,7.7E1,4E1,8.6E1,9.8E1,1.3E1,6.4E1,3.8E1,2E0,4.2E1,4.4E1,4.4E1,5.4E1,4.7E1,1.7E1,2.9E1,9E0,1E0,1E0,3.1E1,1.1E1,3.3E1,1.1E1,3.8E1,6E0,4.4E1,1E1,4.5E1,2E0,1.2E1,5E0,1.6E1,1.3E1,3E0,6E0,8E0,2.3E1,5E0,6E0,2.9E1,4E0,3E0,8E0,2.1E1,1.7E1,2.6E1,1.8E1,3.4E1,1.1E1,4E0,1E0,4E0,9E0,1E0,2E0,5E0,1E0,5E0,1.8E1,2E0,3E0,2E0,4E0,2E0,2.7E1,3E0,1E0,1E0,2E0,7E0,1E0,3E0,1.8E1,1.1E1,6E0,1E0,2.5E1,1E0,1.7E1],"tree_param":{"num_deleted":"0","num_feature":"5","num_nodes":"81","size_leaf_vector":"1"}},{"base_weights":[2.7829263E-1,-8.971275E0,6.3420625E0,-1.2619975E1,-3.4268343E0,1.2676853E0,1.0184448E1,-6.271293E0,-1.0946626E1,-6.8950105E0,-7.9722965E-1,2.3296015E-1,1.3990468E1,7.3096237E0,1.3791226E1,-1.2801096E1,-8.068568E0,-2.4090486E0,-3.4775417E0,-2.9891288E0,7.08327E-1,-2.8249862E0,4.0035715E0,6.739495E-1,4.766989E0,3.6951447E-1,8.370227E0,7.170783E0,1.5247149E1,-4.401487E0,-2.9542415E0,-8.734838E0,-3.3900146E0,-1.1524371E0,-1.9410783E-1,-3.8897495E0,-9.5030975E-1,-1.9057451E0,1.8603351E0,-5.19543E0,6.2424046E-1,1.9206537E0,8.810509E0,-1.2395575E0,1.2002534E0,6.055205E0,1.2406646E1,1.7059947E0,4.4824405E0,7.1963825E0,1.6942287E1,-2.943878E0,-1.7902457E0,-1.1523039E0,-2.3790322E-1,-4.860077E-2,-1.3197426E0,-4.2770234E-1,1.4267236E-1,-8.372967E-1,-2.7051546E-2,8.368206E-3,1.1980603E0,-1.7359827E0,3.206253E-1,-2.3923226E-1,8.916694E-1,1.1576935E-1,1.1516694E0,1.6576539E-1,2.8999996E0,-8.6498946E-1,-1.6204835E-3,1.9544107E-1,2.2148616E0,2.0334811E0,5.1845646E0,-5.902916E-1,1.0706928E0,5.4135895E-1,2.6078737E0,4.233888E0,8.310139E0],"categories":[],"categories_nodes":[],"categories_segments":[],"categories_sizes":[],"default_left":[0,0,0,0,0,0,0,0,0,0,0,0,0,0,0,0,0,0,0,0,0,0,0,0,0,0,0,0,0,0,0,0,0,0,0,0,0,0,0,0,0,0,0,0,0,0,0,0,0,0,0,0,0,0,0,0,0,0,0,0,0,0,0,0,0,0,0,0,0,0,0,0,0,0,0,0,0,0,0,0,0,0,0],"id":5,"left_children":[1,3,5,7,9,11,13,-1,15,17,19,21,23,25,27,29,31,-1,33,35,37,39,41,-1,-1,43,45,47,49,-1,-1,51,53,-1,-1,55,57,59,61,63,65,67,69,71,-1,73,75,77,-1,79,81,-1,-1,-1,-1,-1,-1,-1,-1,-1,-1,-1,-1,-1,-1,-1,-1,-1,-1,-1,-1,-1,-1,-1,-1,-1,-1,-1,-1,-1,-1,-1,-1],"loss_changes":[1.6995246E4,2.3843535E3,3.5551729E3,7.692744E2,4.4137982E2,1.0499075E3,9.7755176E2,0E0,2.2762451E2,5.3540955E1,9.78181E1,8.760845E2,9.81488E1,4.3854907E2,3.2441406E2,5.4415527E1,5.455237E1,0E0,4.7249527E0,1.8337967E1,5.7751106E1,3.4664346E2,3.2350153E2,0E0,0E0,5.7546913E1,4.107837E2,3.9916144E2,3.69375E2,0E0,0E0,1.0060913E1,2.810257E0,0E0,0E0,1.4478409E1,4.06709E0,9.39168E0,5.0705105E1,9.876575E1,6.2455875E1,7.211949E1,6.535974E1,1.418485E1,0E0,2.4629285E2,3.767727E2,5.4929817E1,0E0,4.8865906E1,4.9177734E2,0E0,0E0,0E0,0E0,0E0,0E0,0E0,0E0,0E0,0E0,0E0,0E0,0E0,0E0,0E0,0E0,0E0,0E0,0E0,0E0,0E0,0E0,0E0,0E0,0E0,0E0,0E0,0E0,0E0,0E0,0E0,0E0],"parents":[2147483647,0,0,1,1,2,2,3,3,4,4,5,5,6,6,8,8,9,9,10,10,11,11,12,12,13,13,14,14,15,15,16,16,18,18,19,19,20,20,21,21,22,22,25,25,26,26,27,27,28,28,31,31,32,32,35,35,36,36,37,37,38,38,39,39,40,40,41,41,42,42,43,43,45,45,46,46,47,47,49,49,50,50],"right_children":[2,4,6,8,10,12,14,-1,16,18,20,22,24,26,28,30,32,-1,34,36,38,40,42,-1,-1,44,46,48,50,-1,-1,52,54,-1,-1,56,58,60,62,64,66,68,70,72,-1,74,76,78,-1,80,82,-1,-1,-1,-1,-1,-1,-1,-1,-1,-1,-1,-1,-1,-1,-1,-1,-1,-1,-1,-1,-1,-1,-1,-1,-1,-1,-1,-1,-1,-1,-1,-1],"split_conditions":[2.9E1,1.2E1,5.1E1,1E1,3.4E1,2.4E1,5.2E1,-6.271293E0,2E0,5E0,3.8E1,5E1,1.3E1,3.6E1,1.6E1,2.2E1,3.8E1,-2.4090486E0,1.4E1,2E0,2E1,2.4E1,3.3E1,6.739495E-1,4.766989E0,4.6E1,6.8E1,7.4E1,3.8E1,-4.401487E0,-2.9542415E0,1.1E1,8E0,-1.1524371E0,-1.9410783E-1,1.4E1,2.3E1,3E0,4.5E1,1.6E1,3.8E1,4.1E1,5.1E1,1.9E1,1.2002534E0,1.9E1,2.9E1,5.4E1,4.4824405E0,7.6E1,1.6E1,-2.943878E0,-1.7902457E0,-1.1523039E0,-2.3790322E-1,-4.860077E-2,-1.3197426E0,-4.2770234E-1,1.4267236E-1,-8.372967E-1,-2.7051546E-2,8.368206E-3,1.1980603E0,-1.7359827E0,3.206253E-1,-2.3923226E-1,8.916694E-1,1.1576935E-1,1.1516694E0,1.6576539E-1,2.8999996E0,-8.6498946E-1,-1.6204835E-3,1.9544107E-1,2.2148616E0,2.0334811E0,5.1845646E0,-5.902916E-1,1.0706928E0,5.4135895E-1,2.6078737E0,4.233888E0,8.310139E0],"split_indices":[4,3,2,4,1,0,4,0,0,0,2,1,3,1,3,1,1,0,0,0,3,3,3,0,0,3,2,2,1,0,0,0,0,0,0,3,3,0,2,0,4,4,1,3,0,3,3,4,0,2,0,0,0,0,0,0,0,0,0,0,0,0,0,0,0,0,0,0,0,0,0,0,0,0,0,0,0,0,0,0,0,0,0],"split_type":[0,0,0,0,0,0,0,0,0,0,0,0,0,0,0,0,0,0,0,0,0,0,0,0,0,0,0,0,0,0,0,0,0,0,0,0,0,0,0,0,0,0,0,0,0,0,0,0,0,0,0,0,0,0,0,0,0,0,0,0,0,0,0,0,0,0,0,0,0,0,0,0,0,0,0,0,0,0,0,0,0,0,0],"sum_hessian":[3.01E2,1.19E2,1.82E2,7.1E1,4.8E1,7.9E1,1.03E2,1E1,6.1E1,2E1,2.8E1,7.4E1,5E0,5.9E1,4.4E1,3.5E1,2.6E1,1.4E1,6E0,1.1E1,1.7E1,4.1E1,3.3E1,1E0,4E0,8E0,5.1E1,9E0,3.5E1,1.9E1,1.6E1,2.2E1,4E0,5E0,1E0,7E0,4E0,5E0,1.2E1,2.4E1,1.7E1,2.4E1,9E0,6E0,2E0,3.4E1,1.7E1,6E0,3E0,7E0,2.8E1,1.4E1,8E0,3E0,1E0,1E0,6E0,3E0,1E0,3E0,2E0,7E0,5E0,2.2E1,2E0,1.1E1,6E0,1.4E1,1E1,1E0,8E0,2E0,4E0,7E0,2.7E1,9E0,8E0,2E0,4E0,2E0,5E0,2.4E1,4E0],"tree_param":{"num_deleted":"0","num_feature":"5","num_nodes":"83","size_leaf_vector":"1"}},{"base_weights":[2.4384871E-1,-6.486712E0,4.6559987E0,-9.108307E0,-2.5021899E0,2.4378586E0,9.394441E0,-1.5159709E1,-7.5180035E0,-5.0053444E0,-6.0327804E-1,-3.3335934E0,3.6238976E0,5.485607E0,1.1630795E1,-4.7411237E0,-1.018087E0,-9.557439E0,-5.8464637E0,-6.007057E0,-3.002277E0,-1.0570089E0,1.1044174E0,-4.3235354E0,2.2020302E0,-1.0154158E0,4.7274466E0,1.690062E0,8.275252E0,9.747017E0,1.8042585E1,-3.0603254E0,-1.0884093E0,-7.0483737E0,-3.7740257E0,-1.884187E0,-4.0863994E-1,-1.4338114E0,-1.3171679E0,-1.5114398E0,1.2447754E0,-7.7544622E0,-2.8916576E0,1.0027703E0,2.1229859E-1,-2.8139713E0,2.2589836E0,3.3399973E0,8.796816E0,-6.466553E-1,2.2901719E0,-2.0219193E-1,9.077186E0,7.4388304E0,4.291875E0,6.0370135E0,8.3367467E-1,-2.205225E0,-8.351601E-1,-1.1841913E0,-2.0221825E-1,4.8032686E-1,-6.6631126E-1,-7.7898055E-1,-2.7471649E-2,8.605843E-2,7.614647E-1,-6.63279E-1,-2.576284E0,-1.8173142E-1,-9.590204E-1,-9.972611E-1,5.728569E-1,-1.3845338E-1,1.5284569E0,7.1319735E-1,2.5190902E0,6.092068E-1,2.9435062E0,9.3341404E-1,3.672409E-1,2.02707E0,4.1357226E0,4.9697688E-1,3.0080311E0],"categories":[],"categories_nodes":[],"categories_segments":[],"categories_sizes":[],"default_left":[0,0,0,0,0,0,0,0,0,0,0,0,0,0,0,0,0,0,0,0,0,0,0,0,0,0,0,0,0,0,0,0,0,0,0,0,0,0,0,0,0,0,0,0,0,0,0,0,0,0,0,0,0,0,0,0,0,0,0,0,0,0,0,0,0,0,0,0,0,0,0,0,0,0,0,0,0,0,0,0,0,0,0,0,0],"id":6,"left_children":[1,3,5,7,9,11,13,15,17,19,21,23,25,27,29,-1,-1,31,33,35,37,39,-1,41,43,45,47,49,51,53,55,-1,-1,57,59,-1,-1,-1,61,63,65,67,69,-1,-1,71,73,75,77,-1,79,-1,81,83,-1,-1,-1,-1,-1,-1,-1,-1,-1,-1,-1,-1,-1,-1,-1,-1,-1,-1,-1,-1,-1,-1,-1,-1,-1,-1,-1,-1,-1,-1,-1],"loss_changes":[8.998467E3,1.230706E3,1.9005239E3,5.789263E2,2.2989056E2,8.7457166E2,4.4320703E2,5.2456787E1,1.4525366E2,2.4101624E1,6.0269768E1,1.300794E2,5.423699E2,2.2954346E2,2.5896045E2,0E0,0E0,5.840088E1,6.05802E1,7.9639893E0,2.0656143E1,3.0123459E1,0E0,7.091745E1,4.4521217E0,1.300297E2,4.5053235E2,3.0321974E1,9.941461E1,2.0928516E2,1.6640259E2,0E0,0E0,6.6157227E0,5.396652E0,0E0,0E0,0E0,1.938242E1,3.5200306E1,5.4669065E0,4.1063843E0,8.524078E0,0E0,0E0,4.0088745E1,6.407115E1,2.964712E2,1.2427722E2,0E0,4.945614E0,0E0,3.795343E1,3.1259973E2,0E0,0E0,0E0,0E0,0E0,0E0,0E0,0E0,0E0,0E0,0E0,0E0,0E0,0E0,0E0,0E0,0E0,0E0,0E0,0E0,0E0,0E0,0E0,0E0,0E0,0E0,0E0,0E0,0E0,0E0,0E0],"parents":[2147483647,0,0,1,1,2,2,3,3,4,4,5,5,6,6,7,7,8,8,9,9,10,10,11,11,12,12,13,13,14,14,17,17,18,18,19,19,20,20,21,21,23,23,24,24,25,25,26,26,27,27,28,28,29,29,30,30,33,33,34,34,38,38,39,39,40,40,41,41,42,42,45,45,46,46,47,47,48,48,50,50,52,52,53,53],"right_children":[2,4,6,8,10,12,14,16,18,20,22,24,26,28,30,-1,-1,32,34,36,38,40,-1,42,44,46,48,50,52,54,56,-1,-1,58,60,-1,-1,-1,62,64,66,68,70,-1,-1,72,74,76,78,-1,80,-1,82,84,-1,-1,-1,-1,-1,-1,-1,-1,-1,-1,-1,-1,-1,-1,-1,-1,-1,-1,-1,-1,-1,-1,-1,-1,-1,-1,-1,-1,-1,-1,-1],"split_conditions":[2.9E1,1.2E1,5E1,9E0,3.4E1,3.2E1,5E1,1.1E1,1.7E1,2.9E1,5.3E1,3.3E1,1.4E1,7.4E1,3E0,-4.7411237E0,-1.018087E0,1.5E1,2E0,1.3E1,2.1E1,3.2E1,1.1044174E0,1.3E1,2.3E1,4.1E1,6.5E1,1.4E1,5.1E1,4.5E1,7.3E1,-3.0603254E0,-1.0884093E0,2.7E1,4.6E1,-1.884187E0,-4.0863994E-1,-1.4338114E0,1E0,3E0,4.1E1,2.5E1,1.6E1,1.0027703E0,2.1229859E-1,1.6E1,5.1E1,4.3E1,1.7E1,-6.466553E-1,3.7E1,-2.0219193E-1,5.3E1,6.4E1,4.291875E0,6.0370135E0,8.3367467E-1,-2.205225E0,-8.351601E-1,-1.1841913E0,-2.0221825E-1,4.8032686E-1,-6.6631126E-1,-7.7898055E-1,-2.7471649E-2,8.605843E-2,7.614647E-1,-6.63279E-1,-2.576284E0,-1.8173142E-1,-9.590204E-1,-9.972611E-1,5.728569E-1,-1.3845338E-1,1.5284569E0,7.1319735E-1,2.5190902E0,6.092068E-1,2.9435062E0,9.3341404E-1,3.672409E-1,2.02707E0,4.1357226E0,4.9697688E-1,3.0080311E0],"split_indices":[4,3,4,1,1,1,1,0,2,2,2,3,3,2,0,0,0,0,0,0,4,3,0,1,1,4,1,1,4,3,1,0,0,4,1,0,0,0,0,0,2,2,1,0,0,0,2,3,3,0,1,0,3,1,0,0,0,0,0,0,0,0,0,0,0,0,0,0,0,0,0,0,0,0,0,0,0,0,0,0,0,0,0,0,0],"split_type":[0,0,0,0,0,0,0,0,0,0,0,0,0,0,0,0,0,0,0,0,0,0,0,0,0,0,0,0,0,0,0,0,0,0,0,0,0,0,0,0,0,0,0,0,0,0,0,0,0,0,0,0,0,0,0,0,0,0,0,0,0,0,0,0,0,0,0,0,0,0,0,0,0,0,0,0,0,0,0,0,0,0,0,0,0],"sum_hessian":[3.01E2,1.19E2,1.82E2,7.1E1,4.8E1,1.25E2,5.7E1,1.3E1,5.8E1,2E1,2.8E1,2.1E1,1.04E2,2.2E1,3.5E1,1.2E1,1E0,2.4E1,3.4E1,1.2E1,8E0,2.6E1,2E0,1.8E1,3E0,2E1,8.4E1,1E1,1.2E1,2.9E1,6E0,2.1E1,3E0,2E1,1.4E1,1.1E1,1E0,3E0,5E0,2.2E1,4E0,4E0,1.4E1,1E0,2E0,1.3E1,7E0,6.4E1,2E1,1E0,9E0,1E0,1.1E1,2.1E1,8E0,5E0,1E0,1.8E1,2E0,1.3E1,1E0,1E0,4E0,1.2E1,1E1,3E0,1E0,1E0,3E0,2E0,1.2E1,1.2E1,1E0,4E0,3E0,5.5E1,9E0,3E0,1.7E1,4E0,5E0,9E0,2E0,7E0,1.4E1],"tree_param":{"num_deleted":"0","num_feature":"5","num_nodes":"85","size_leaf_vector":"1"}},{"base_weights":[1.9971994E-1,-4.445448E0,3.6424036E0,-1.1247208E1,-3.5196059E0,2.1497242E0,7.630075E0,-1.3166974E1,-4.7742796E0,-4.2837505E0,1.8602753E0,1.6934894E0,4.76089E0,3.6076279E0,8.906124E0,-4.25473E0,-1.7194817E0,-1.6454264E0,-2.8985712E-1,-4.9282494E0,-1.8837878E0,4.9405342E-1,3.1481073E0,-9.197231E-1,2.8454642E0,1.8066621E0,2.7025878E0,5.600253E0,1.11055155E1,-2.778448E0,-4.5103073E0,-7.908434E-1,-9.744485E-1,-1.131937E0,1.0404087E0,-5.285348E0,3.4188934E-2,-4.5022583E-1,3.6522777E0,4.6291895E-2,1.1729544E0,-1.2176995E0,6.514803E0,1.4736308E1,8.91283E0,-1.5667311E0,-9.231751E-1,-4.8441783E-1,7.346558E-2,-4.3146974E-1,-3.1957626E-2,4.2753167E-2,6.268154E-1,-2.351893E0,-8.087105E-1,-1.3491914E-1,8.502251E-1,-3.1502238E-1,8.697129E-1,8.4454525E-1,1.8904905E0,6.591965E-1,-3.760753E-1,8.313904E-2,2.082167E0,1.687587E0,5.3656483E0,4.4507542E-1,3.4438512E0],"categories":[],"categories_nodes":[],"categories_segments":[],"categories_sizes":[],"default_left":[0,0,0,0,0,0,0,0,0,0,0,0,0,0,0,0,0,0,0,0,0,0,0,0,0,0,0,0,0,0,0,0,0,0,0,0,0,0,0,0,0,0,0,0,0,0,0,0,0,0,0,0,0,0,0,0,0,0,0,0,0,0,0,0,0,0,0,0,0],"id":7,"left_children":[1,3,5,7,9,11,13,15,17,19,21,23,-1,25,27,-1,-1,-1,-1,29,31,33,-1,35,37,39,-1,41,43,-1,45,-1,47,49,51,53,55,57,59,61,-1,-1,63,65,67,-1,-1,-1,-1,-1,-1,-1,-1,-1,-1,-1,-1,-1,-1,-1,-1,-1,-1,-1,-1,-1,-1,-1,-1],"loss_changes":[4.845729E3,7.727732E2,1.0193003E3,1.2353479E2,4.80735E2,7.74341E2,2.0911353E2,1.7653809E0,8.228447E0,1.469403E2,1.7174295E2,3.789114E2,0E0,1.1017563E2,1.9228809E2,0E0,0E0,0E0,0E0,1.0130029E2,1.3166611E1,1.3614835E1,0E0,1.6259317E2,2.3297803E2,4.0545246E1,0E0,1.6778546E2,2.7881348E1,0E0,5.9447998E1,0E0,9.763968E0,1.1031075E0,1.0062848E1,2.5169724E1,4.598704E1,3.920719E1,1.3750934E2,2.2327032E1,0E0,0E0,3.791217E1,7.15426E1,2.6899585E2,0E0,0E0,0E0,0E0,0E0,0E0,0E0,0E0,0E0,0E0,0E0,0E0,0E0,0E0,0E0,0E0,0E0,0E0,0E0,0E0,0E0,0E0,0E0,0E0],"parents":[2147483647,0,0,1,1,2,2,3,3,4,4,5,5,6,6,7,7,8,8,9,9,10,10,11,11,13,13,14,14,19,19,20,20,21,21,23,23,24,24,25,25,27,27,28,28,30,30,32,32,33,33,34,34,35,35,36,36,37,37,38,38,39,39,42,42,43,43,44,44],"right_children":[2,4,6,8,10,12,14,16,18,20,22,24,-1,26,28,-1,-1,-1,-1,30,32,34,-1,36,38,40,-1,42,44,-1,46,-1,48,50,52,54,56,58,60,62,-1,-1,64,66,68,-1,-1,-1,-1,-1,-1,-1,-1,-1,-1,-1,-1,-1,-1,-1,-1,-1,-1,-1,-1,-1,-1,-1,-1],"split_conditions":[3.9E1,1.3E1,6.8E1,1.4E1,5E1,3.2E1,4E1,1.6E1,2.7E1,1.8E1,4.1E1,1.9E1,4.76089E0,6.3E1,2.9E1,-4.25473E0,-1.7194817E0,-1.6454264E0,-2.8985712E-1,5E0,2.4E1,2.7E1,3.1481073E0,2.3E1,4.5E1,1E0,2.7025878E0,4.7E1,3.9E1,-2.778448E0,2E0,-7.908434E-1,9E0,5.6E1,7E0,1.3E1,5.6E1,4.7E1,1E1,4.7E1,1.1729544E0,-1.2176995E0,3.7E1,5.6E1,4.3E1,-1.5667311E0,-9.231751E-1,-4.8441783E-1,7.346558E-2,-4.3146974E-1,-3.1957626E-2,4.2753167E-2,6.268154E-1,-2.351893E0,-8.087105E-1,-1.3491914E-1,8.502251E-1,-3.1502238E-1,8.697129E-1,8.4454525E-1,1.8904905E0,6.591965E-1,-3.760753E-1,8.313904E-2,2.082167E0,1.687587E0,5.3656483E0,4.4507542E-1,3.4438512E0],"split_indices":[2,2,2,4,1,0,1,1,1,3,3,3,0,4,3,0,0,0,0,1,3,4,0,1,2,0,0,1,3,0,0,0,0,1,0,1,4,4,0,4,0,0,4,1,3,0,0,0,0,0,0,0,0,0,0,0,0,0,0,0,0,0,0,0,0,0,0,0,0],"split_type":[0,0,0,0,0,0,0,0,0,0,0,0,0,0,0,0,0,0,0,0,0,0,0,0,0,0,0,0,0,0,0,0,0,0,0,0,0,0,0,0,0,0,0,0,0,0,0,0,0,0,0,0,0,0,0,0,0,0,0,0,0,0,0,0,0,0,0,0,0],"sum_hessian":[3.01E2,1.28E2,1.73E2,1.4E1,1.14E2,1.27E2,4.6E1,1E1,4E0,1E2,1.4E1,1.24E2,3E0,1.2E1,3.4E1,8E0,2E0,3E0,1E0,7.8E1,2.2E1,1.3E1,1E0,3.8E1,8.6E1,1E1,2E0,1.5E1,1.9E1,5E0,7.3E1,1.1E1,1.1E1,3E0,1E1,6E0,3.2E1,1.7E1,6.9E1,6E0,4E0,1E0,1.4E1,5E0,1.4E1,4.7E1,2.6E1,7E0,4E0,2E0,1E0,6E0,4E0,2E0,4E0,2.8E1,4E0,1.5E1,2E0,5.4E1,1.5E1,2E0,4E0,1E0,1.3E1,2E0,3E0,4E0,1E1],"tree_param":{"num_deleted":"0","num_feature":"5","num_nodes":"69","size_leaf_vector":"1"}},{"base_weights":[1.749975E-1,-3.4799829E0,2.5707498E0,-7.9223785E0,-2.6698556E0,1.3257895E0,5.681596E0,-2.8517032E0,-4.076384E0,-4.1296463E0,-1.3709304E0,5.554084E-1,4.3011446E0,4.7388573E0,9.659252E0,-3.2407457E-1,-1.5176365E0,-5.181706E0,-2.397678E0,-2.7691247E0,-5.1723564E-1,-2.755974E-1,3.740867E0,1.3560053E0,5.469835E0,3.2855086E0,8.340661E0,3.1330261E0,1.1076314E1,-1.7857021E0,-4.0656247E0,-3.3644838E0,-1.4727672E0,-3.1686385E0,-1.2422339E0,-6.758497E-1,7.5513846E-1,-1.4478691E0,1.4404441E0,2.5539443E0,3.1220186E0,1.5498988E-1,8.455582E-1,3.3170507E0,8.686457E0,2.3738232E0,3.4833267E0,4.2109833E0,3.5305529E0,-6.50734E-2,1.4749352E0,6.194298E-1,3.6702335E0,-1.2728745E0,-2.375353E-1,-6.134058E-1,-1.3509178E0,3.3453026E-1,-5.428202E-1,-9.79158E-1,-2.6104775E-1,-4.5701268E-1,-1.3599014E-1,-2.9397678E-1,2.0412926E-1,-6.4484537E-1,1.6798048E-1,1.960636E-1,1.0923275E0,2.923622E-1,1.3128133E0,-2.6255494E-1,4.430672E-1,3.0838493E-1,1.5396862E0,7.4962236E-2,3.0152726E0,5.859532E-1,1.6946381E0,1.486741E0,-3.8690187E-2],"categories":[],"categories_nodes":[],"categories_segments":[],"categories_sizes":[],"default_left":[0,0,0,0,0,0,0,0,0,0,0,0,0,0,0,0,0,0,0,0,0,0,0,0,0,0,0,0,0,0,0,0,0,0,0,0,0,0,0,0,0,0,0,0,0,0,0,0,0,0,0,0,0,0,0,0,0,0,0,0,0,0,0,0,0,0,0,0,0,0,0,0,0,0,0,0,0,0,0,0,0],"id":8,"left_children":[1,3,5,7,9,11,13,-1,15,17,19,21,23,25,27,-1,-1,29,31,33,35,37,39,41,43,45,47,49,51,-1,53,55,57,59,61,63,-1,65,67,69,-1,71,-1,73,75,77,-1,79,-1,-1,-1,-1,-1,-1,-1,-1,-1,-1,-1,-1,-1,-1,-1,-1,-1,-1,-1,-1,-1,-1,-1,-1,-1,-1,-1,-1,-1,-1,-1,-1,-1],"loss_changes":[2.6533872E3,4.1071704E2,7.0120447E2,7.085962E1,1.89643E2,3.0017578E2,1.4922058E2,0E0,1.513916E1,7.503833E1,6.541106E1,2.8162723E2,8.5515656E1,2.0292242E2,4.853015E1,0E0,0E0,7.4261475E-1,1.2929085E1,8.8741E0,1.9027737E1,1.7307724E2,1.4748273E2,1.53717575E1,1.027558E2,2.2291754E2,1.203139E2,1.8989515E1,4.777423E1,0E0,5.3468018E0,4.3168564E0,1.2471622E1,6.617584E-1,6.4026546E-1,1.5101054E1,0E0,7.304757E1,5.8229416E1,5.3291992E1,0E0,9.463268E0,0E0,4.874263E1,7.806769E1,3.1672623E1,0E0,2.3266495E1,0E0,0E0,0E0,0E0,0E0,0E0,0E0,0E0,0E0,0E0,0E0,0E0,0E0,0E0,0E0,0E0,0E0,0E0,0E0,0E0,0E0,0E0,0E0,0E0,0E0,0E0,0E0,0E0,0E0,0E0,0E0,0E0,0E0],"parents":[2147483647,0,0,1,1,2,2,3,3,4,4,5,5,6,6,8,8,9,9,10,10,11,11,12,12,13,13,14,14,17,17,18,18,19,19,20,20,21,21,22,22,23,23,24,24,25,25,26,26,27,27,28,28,30,30,31,31,32,32,33,33,34,34,35,35,37,37,38,38,39,39,41,41,43,43,44,44,45,45,47,47],"right_children":[2,4,6,8,10,12,14,-1,16,18,20,22,24,26,28,-1,-1,30,32,34,36,38,40,42,44,46,48,50,52,-1,54,56,58,60,62,64,-1,66,68,70,-1,72,-1,74,76,78,-1,80,-1,-1,-1,-1,-1,-1,-1,-1,-1,-1,-1,-1,-1,-1,-1,-1,-1,-1,-1,-1,-1,-1,-1,-1,-1,-1,-1,-1,-1,-1,-1,-1,-1],"split_conditions":[2.9E1,1.4E1,5.2E1,1.4E1,2.3E1,6.6E1,5.2E1,-2.8517032E0,1.6E1,2E0,2.9E1,1.3E1,1.7E1,7.2E1,3.6E1,-3.2407457E-1,-1.5176365E0,1.6E1,1.4E1,5E0,2.5E1,2.8E1,4.1E1,5E1,1E0,9E1,2.2E1,7.6E1,5.4E1,-1.7857021E0,1.6E1,2.8E1,3E0,1.8E1,7E0,2.7E1,7.5513846E-1,5.5E1,4.8E1,2E1,3.1220186E0,1E1,8.455582E-1,7.7E1,3.9E1,2.4E1,3.4833267E0,2E1,3.5305529E0,-6.50734E-2,1.4749352E0,6.194298E-1,3.6702335E0,-1.2728745E0,-2.375353E-1,-6.134058E-1,-1.3509178E0,3.3453026E-1,-5.428202E-1,-9.79158E-1,-2.6104775E-1,-4.5701268E-1,-1.3599014E-1,-2.9397678E-1,2.0412926E-1,-6.4484537E-1,1.6798048E-1,1.960636E-1,1.0923275E0,2.923622E-1,1.3128133E0,-2.6255494E-1,4.430672E-1,3.0838493E-1,1.5396862E0,7.4962236E-2,3.0152726E0,5.859532E-1,1.6946381E0,1.486741E0,-3.8690187E-2],"split_indices":[4,2,4,4,1,1,3,0,4,0,2,0,3,1,1,0,0,1,1,0,0,3,3,2,0,2,3,2,4,0,3,2,0,3,3,3,0,1,3,0,0,0,0,1,2,0,0,3,0,0,0,0,0,0,0,0,0,0,0,0,0,0,0,0,0,0,0,0,0,0,0,0,0,0,0,0,0,0,0,0,0],"split_type":[0,0,0,0,0,0,0,0,0,0,0,0,0,0,0,0,0,0,0,0,0,0,0,0,0,0,0,0,0,0,0,0,0,0,0,0,0,0,0,0,0,0,0,0,0,0,0,0,0,0,0,0,0,0,0,0,0,0,0,0,0,0,0,0,0,0,0,0,0,0,0,0,0,0,0,0,0,0,0,0,0],"sum_hessian":[3.01E2,1.19E2,1.82E2,1.7E1,1.02E2,1.31E2,5.1E1,1.1E1,6E0,4.7E1,5.5E1,1.05E2,2.6E1,4.3E1,8E0,2E0,4E0,2.8E1,1.9E1,2E1,3.5E1,8.4E1,2.1E1,8E0,1.8E1,3.2E1,1.1E1,2E0,6E0,1.4E1,1.4E1,8E0,1.1E1,1.5E1,5E0,3.4E1,1E0,5E1,3.4E1,1.9E1,2E0,5E0,3E0,1.2E1,6E0,3E1,2E0,6E0,5E0,1E0,1E0,1E0,5E0,1.3E1,1E0,5E0,3E0,1E0,1E1,1.4E1,1E0,3E0,2E0,2.8E1,6E0,3.7E1,1.3E1,2.6E1,8E0,1.1E1,8E0,3E0,2E0,6E0,6E0,1E0,5E0,2.8E1,2E0,5E0,1E0],"tree_param":{"num_deleted":"0","num_feature":"5","num_nodes":"81","size_leaf_vector":"1"}},{"base_weights":[1.7751507E-1,-2.5304058E0,1.9522308E0,-6.174077E0,-1.9909201E0,1.6411465E0,9.539327E0,-8.04732E0,-3.529074E0,-2.6691453E0,-5.980057E-1,1.1104639E0,6.267152E0,1.4388795E0,3.569267E0,-2.5879483E0,-5.9896606E-1,-1.1534632E0,-1.9776765E-1,-1.7006179E0,-2.3560145E0,-1.6997187E0,2.3672422E-2,8.142861E-1,3.0387352E0,1.9202347E0,7.7913327E0,-2.592696E0,-9.3690836E-1,-7.72431E-1,-8.309655E-1,-3.7298286E-1,1.0402614E0,3.8630295E-1,5.127665E0,-1.9184875E-1,1.2288804E0,4.13427E-1,2.4632788E0,-8.494062E-1,-4.4450095E-1,-3.7106782E-1,8.2604215E-2,-2.8387773E-1,-3.5865784E-3,6.8738484E-1,-1.9934572E-1,-1.3290864E-1,5.1665497E-1,-1.8651378E-1,3.849386E-1,1.0980172E0,2.7866626E0,1.71064E-1,-1.9078217E-1],"categories":[],"categories_nodes":[],"categories_segments":[],"categories_sizes":[],"default_left":[0,0,0,0,0,0,0,0,0,0,0,0,0,0,0,0,0,0,0,0,0,0,0,0,0,0,0,0,0,0,0,0,0,0,0,0,0,0,0,0,0,0,0,0,0,0,0,0,0,0,0,0,0,0,0],"id":9,"left_children":[1,3,5,7,9,11,13,15,17,19,21,23,25,-1,-1,-1,-1,-1,-1,-1,27,29,31,33,-1,35,37,39,41,-1,43,45,47,49,51,53,-1,-1,-1,-1,-1,-1,-1,-1,-1,-1,-1,-1,-1,-1,-1,-1,-1,-1,-1],"loss_changes":[1.4562885E3,2.235929E2,4.162658E2,4.5921448E1,9.854306E1,4.2756512E2,2.1232788E1,1.0812317E1,4.7158203E0,5.333188E1,2.4697033E1,4.1913184E2,1.0429755E2,0E0,0E0,0E0,0E0,0E0,0E0,0E0,1.9738708E1,7.743099E0,1.006565E1,2.8600348E2,0E0,2.8361643E1,2.3667236E1,1.0653564E1,4.34081E0,0E0,7.441001E-1,1.5502061E1,7.843391E0,1.3007176E2,5.150049E1,1.7163237E0,0E0,0E0,0E0,0E0,0E0,0E0,0E0,0E0,0E0,0E0,0E0,0E0,0E0,0E0,0E0,0E0,0E0,0E0,0E0],"parents":[2147483647,0,0,1,1,2,2,3,3,4,4,5,5,6,6,7,7,8,8,9,9,10,10,11,11,12,12,20,20,21,21,22,22,23,23,25,25,26,26,27,27,28,28,30,30,31,31,32,32,33,33,34,34,35,35],"right_children":[2,4,6,8,10,12,14,16,18,20,22,24,26,-1,-1,-1,-1,-1,-1,-1,28,30,32,34,-1,36,38,40,42,-1,44,46,48,50,52,54,-1,-1,-1,-1,-1,-1,-1,-1,-1,-1,-1,-1,-1,-1,-1,-1,-1,-1,-1],"split_conditions":[2.9E1,1.3E1,9.7E1,6E0,1.6E1,5E1,2E1,1.1E1,2.5E1,4E0,3.4E1,3.2E1,3.6E1,1.4388795E0,3.569267E0,-2.5879483E0,-5.9896606E-1,-1.1534632E0,-1.9776765E-1,-1.7006179E0,3.8E1,2.3E1,1.1E1,8.2E1,3.0387352E0,7.6E1,3.6E1,6E0,2.7E1,-7.72431E-1,2.6E1,1.8E1,2E1,5.1E1,6.1E1,3E1,1.2288804E0,4.13427E-1,2.4632788E0,-8.494062E-1,-4.4450095E-1,-3.7106782E-1,8.2604215E-2,-2.8387773E-1,-3.5865784E-3,6.8738484E-1,-1.9934572E-1,-1.3290864E-1,5.1665497E-1,-1.8651378E-1,3.849386E-1,1.0980172E0,2.7866626E0,1.71064E-1,-1.9078217E-1],"split_indices":[4,2,1,3,3,3,3,0,1,1,2,0,1,0,0,0,0,0,0,0,1,4,0,2,0,2,4,0,4,0,4,3,3,1,4,1,0,0,0,0,0,0,0,0,0,0,0,0,0,0,0,0,0,0,0],"split_type":[0,0,0,0,0,0,0,0,0,0,0,0,0,0,0,0,0,0,0,0,0,0,0,0,0,0,0,0,0,0,0,0,0,0,0,0,0,0,0,0,0,0,0,0,0,0,0,0,0,0,0,0,0,0,0],"sum_hessian":[3.01E2,1.19E2,1.82E2,1.4E1,1.05E2,1.76E2,6E0,7E0,7E0,7E1,3.5E1,1.59E2,1.7E1,3E0,3E0,6E0,1E0,6E0,1E0,5E0,6.5E1,1.2E1,2.3E1,1.55E2,4E0,5E0,1.2E1,5.5E1,1E1,5E0,7E0,1.7E1,6E0,1.42E2,1.3E1,3E0,2E0,1E0,1.1E1,4.4E1,1.1E1,8E0,2E0,6E0,1E0,1E0,1.6E1,2E0,4E0,6.7E1,7.5E1,1.1E1,2E0,1E0,2E0],"tree_param":{"num_deleted":"0","num_feature":"5","num_nodes":"55","size_leaf_vector":"1"}},{"base_weights":[1.5143566E-1,-1.5549444E0,1.7164589E0,-1.7111943E0,6.41128E0,1.4437475E0,7.3929834E0,-4.9607816E0,-1.3756536E0,5.0925756E-1,2.3758187E0,3.480237E-1,2.6247635E0,1.1151329E0,2.7661836E0,-6.197484E0,-1.7425606E0,-1.6130811E0,2.476429E0,-1.6527272E0,6.574557E-1,1.6519618E0,6.60643E0,-6.812205E-1,-2.0985067E0,-1.23973094E-1,-7.4730724E-1,-2.5736358E0,-1.1250355E0,1.1579503E0,1.7558671E0,-2.3697808E0,8.276711E-1,2.9777443E-1,1.7612987E0,7.7265537E-1,3.135643E0,1.496563E0,7.863979E0,-8.962482E-1,-3.9735624E-1,-3.95505E-1,8.331591E-2,7.827683E-2,4.3937305E-1,-1.3314434E0,-2.5479552E-1,-1.7751017E-1,2.930384E-1,5.6408387E-2,6.692755E-1,8.953413E-2,1.1812748E0,4.9946922E-1,1.5225195E0,5.2637637E-1,1.0837326E-1,8.770638E-1,2.8053596E0],"categories":[],"categories_nodes":[],"categories_segments":[],"categories_sizes":[],"default_left":[0,0,0,0,0,0,0,0,0,0,0,0,0,0,0,0,0,0,0,0,0,0,0,0,0,0,0,0,0,0,0,0,0,0,0,0,0,0,0,0,0,0,0,0,0,0,0,0,0,0,0,0,0,0,0,0,0,0,0],"id":10,"left_children":[1,3,5,7,9,11,13,15,17,-1,-1,19,21,-1,-1,23,25,27,29,31,33,35,37,-1,-1,-1,-1,39,41,43,-1,45,-1,47,49,51,53,55,57,-1,-1,-1,-1,-1,-1,-1,-1,-1,-1,-1,-1,-1,-1,-1,-1,-1,-1,-1,-1],"loss_changes":[8.091674E2,1.9145557E2,2.3391873E2,1.4909839E2,7.883278E0,1.9578473E2,1.2752869E1,4.0940277E1,1.23806E2,0E0,0E0,5.06143E1,2.718426E2,0E0,0E0,1.2301727E1,3.9453259E0,5.5235107E1,2.8836979E1,4.133512E1,2.7267746E1,7.585385E1,7.8193726E1,0E0,0E0,0E0,0E0,1.723822E1,2.314466E1,1.5432253E0,0E0,2.7679298E1,0E0,3.319243E1,1.2140789E1,5.735739E1,5.4303253E1,5.379267E-1,5.3483948E1,0E0,0E0,0E0,0E0,0E0,0E0,0E0,0E0,0E0,0E0,0E0,0E0,0E0,0E0,0E0,0E0,0E0,0E0,0E0,0E0],"parents":[2147483647,0,0,1,1,2,2,3,3,4,4,5,5,6,6,7,7,8,8,11,11,12,12,15,15,16,16,17,17,18,18,19,19,20,20,21,21,22,22,27,27,28,28,29,29,31,31,33,33,34,34,35,35,36,36,37,37,38,38],"right_children":[2,4,6,8,10,12,14,16,18,-1,-1,20,22,-1,-1,24,26,28,30,32,34,36,38,-1,-1,-1,-1,40,42,44,-1,46,-1,48,50,52,54,56,58,-1,-1,-1,-1,-1,-1,-1,-1,-1,-1,-1,-1,-1,-1,-1,-1,-1,-1,-1,-1],"split_conditions":[4.2E1,2.4E1,9.7E1,8E0,4.4E1,2.8E1,2E1,1E0,3.6E1,5.0925756E-1,2.3758187E0,3.2E1,9E0,1.1151329E0,2.7661836E0,7E0,2.8E1,2E1,5.9E1,7.7E1,1.6E1,4.8E1,3.9E1,-6.812205E-1,-2.0985067E0,-1.23973094E-1,-7.4730724E-1,6E0,3.7E1,1E0,1.7558671E0,1.4E1,8.276711E-1,5.7E1,2.7E1,8.3E1,5.4E1,1.8E1,5.1E1,-8.962482E-1,-3.9735624E-1,-3.95505E-1,8.331591E-2,7.827683E-2,4.3937305E-1,-1.3314434E0,-2.5479552E-1,-1.7751017E-1,2.930384E-1,5.6408387E-2,6.692755E-1,8.953413E-2,1.1812748E0,4.9946922E-1,1.5225195E0,5.2637637E-1,1.0837326E-1,8.770638E-1,2.8053596E0],"split_indices":[2,0,1,1,0,3,3,0,3,0,0,1,0,0,0,4,2,2,1,2,0,3,1,0,0,0,0,0,4,0,0,1,0,1,4,2,4,0,2,0,0,0,0,0,0,0,0,0,0,0,0,0,0,0,0,0,0,0,0],"split_type":[0,0,0,0,0,0,0,0,0,0,0,0,0,0,0,0,0,0,0,0,0,0,0,0,0,0,0,0,0,0,0,0,0,0,0,0,0,0,0,0,0,0,0,0,0,0,0,0,0,0,0,0,0,0,0,0,0,0,0],"sum_hessian":[3.01E2,1.44E2,1.57E2,1.42E2,2E0,1.51E2,6E0,1.2E1,1.3E2,1E0,1E0,7.9E1,7.2E1,3E0,3E0,8E0,4E0,1.23E2,7E0,1E1,6.9E1,5.9E1,1.3E1,2E0,6E0,2E0,2E0,4E1,8.3E1,6E0,1E0,9E0,1E0,5.3E1,1.6E1,3.8E1,2.1E1,3E0,1E1,2.9E1,1.1E1,7.3E1,1E1,2E0,4E0,3E0,6E0,2.3E1,3E1,4E0,1.2E1,3.4E1,4E0,1.3E1,8E0,2E0,1E0,3E0,7E0],"tree_param":{"num_deleted":"0","num_feature":"5","num_nodes":"59","size_leaf_vector":"1"}},{"base_weights":[1.4400342E-1,-8.1237394E-1,1.6215616E0,-2.2633169E0,-1.2651667E-1,1.3527336E0,5.729562E0,-4.3045073E0,-1.7589004E0,-2.841359E-1,4.7519035E0,7.914947E-1,3.7738044E0,3.4606707E-1,1.8899912E0,-5.012208E0,-5.4389364E-1,-1.4795386E0,-1.5189518E0,-4.2535374E-1,3.133676E0,5.5446476E-1,2.0194452E0,1.8649784E-1,1.938942E0,2.0658176E0,6.2910557E0,-1.6389453E0,-2.783415E-1,-1.321756E0,-1.1911718E0,-5.4056156E-1,2.309497E0,1.2916077E0,9.174347E-1,-8.671017E-2,9.9552345E-1,5.3715235E-1,2.551703E0,-3.8848117E-2,2.244649E0,1.0168457E0,2.3638957E0,-5.666167E-1,-1.9295026E-1,-3.1956083E-1,4.8832763E-2,1.2354889E-1,1.0311997E0,7.048416E-2,3.4236145E-1,-2.3431093E-1,2.0553148E-1,9.063263E-3,8.409851E-1,1.1559632E-1,9.035144E-1,7.4369496E-1,1.9116212E-1,3.654625E-1,9.211808E-2],"categories":[],"categories_nodes":[],"categories_segments":[],"categories_sizes":[],"default_left":[0,0,0,0,0,0,0,0,0,0,0,0,0,0,0,0,0,0,0,0,0,0,0,0,0,0,0,0,0,0,0,0,0,0,0,0,0,0,0,0,0,0,0,0,0,0,0,0,0,0,0,0,0,0,0,0,0,0,0,0,0],"id":11,"left_children":[1,3,5,7,9,11,13,15,17,19,21,23,25,-1,-1,27,-1,-1,29,31,33,-1,-1,35,37,39,41,-1,-1,43,-1,45,47,-1,49,51,-1,53,55,-1,57,59,-1,-1,-1,-1,-1,-1,-1,-1,-1,-1,-1,-1,-1,-1,-1,-1,-1,-1,-1],"loss_changes":[4.2807446E2,1.8281937E2,1.23666565E2,5.317581E1,9.823572E1,1.5055734E2,1.1003967E1,1.0308777E1,2.9814087E1,6.0699623E1,1.0551094E1,6.419917E1,7.72919E1,0E0,0E0,9.665924E0,0E0,0E0,1.7473984E1,3.8742496E1,9.033775E0,0E0,0E0,5.3338898E1,2.6116127E1,5.786934E0,5.9016327E1,0E0,0E0,1.6098396E1,0E0,4.2608353E1,9.2856865E0,0E0,1.900382E-1,3.1616793E1,0E0,1.2552066E1,2.0763855E1,0E0,3.3171997E0,5.4709196E-2,0E0,0E0,0E0,0E0,0E0,0E0,0E0,0E0,0E0,0E0,0E0,0E0,0E0,0E0,0E0,0E0,0E0,0E0,0E0],"parents":[2147483647,0,0,1,1,2,2,3,3,4,4,5,5,6,6,7,7,8,8,9,9,10,10,11,11,12,12,15,15,18,18,19,19,20,20,23,23,24,24,25,25,26,26,29,29,31,31,32,32,34,34,35,35,37,37,38,38,40,40,41,41],"right_children":[2,4,6,8,10,12,14,16,18,20,22,24,26,-1,-1,28,-1,-1,30,32,34,-1,-1,36,38,40,42,-1,-1,44,-1,46,48,-1,50,52,-1,54,56,-1,58,60,-1,-1,-1,-1,-1,-1,-1,-1,-1,-1,-1,-1,-1,-1,-1,-1,-1,-1,-1],"split_conditions":[5E1,2.2E1,9.7E1,5E0,2.7E1,1.3E1,5.5E1,2E0,7E0,4.3E1,4.4E1,4.1E1,3.7E1,3.4606707E-1,1.8899912E0,1.9E1,-5.4389364E-1,-1.4795386E0,3.1E1,7.3E1,4.8E1,5.5446476E-1,2.0194452E0,8.1E1,4.1E1,2.3E1,3.9E1,-1.6389453E0,-2.783415E-1,1.7E1,-1.1911718E0,5E0,4.1E1,1.2916077E0,3E1,5.8E1,9.9552345E-1,6.3E1,6E1,-3.8848117E-2,5.9E1,1.5E1,2.3638957E0,-5.666167E-1,-1.9295026E-1,-3.1956083E-1,4.8832763E-2,1.2354889E-1,1.0311997E0,7.048416E-2,3.4236145E-1,-2.3431093E-1,2.0553148E-1,9.063263E-3,8.409851E-1,1.1559632E-1,9.035144E-1,7.4369496E-1,1.9116212E-1,3.654625E-1,9.211808E-2],"split_indices":[2,1,1,3,0,0,2,0,2,3,0,3,3,0,0,1,0,0,4,1,2,0,0,2,1,4,1,0,0,4,0,0,2,0,1,1,0,4,2,0,4,0,0,0,0,0,0,0,0,0,0,0,0,0,0,0,0,0,0,0,0],"split_type":[0,0,0,0,0,0,0,0,0,0,0,0,0,0,0,0,0,0,0,0,0,0,0,0,0,0,0,0,0,0,0,0,0,0,0,0,0,0,0,0,0,0,0,0,0,0,0,0,0,0,0,0,0,0,0,0,0,0,0,0,0],"sum_hessian":[3.01E2,1.83E2,1.18E2,5.8E1,1.25E2,1.12E2,6E0,1E1,4.8E1,1.22E2,3E0,9.2E1,2E1,1E0,5E0,7E0,3E0,2E0,4.6E1,1.18E2,4E0,2E0,1E0,6.1E1,3.1E1,1.3E1,7E0,6E0,1E0,4.4E1,2E0,1.14E2,4E0,2E0,2E0,5.7E1,4E0,1E1,2.1E1,1E0,1.2E1,2E0,5E0,2.3E1,2.1E1,6.5E1,4.9E1,2E0,2E0,1E0,1E0,3E1,2.7E1,9E0,1E0,4E0,1.7E1,1E1,2E0,1E0,1E0],"tree_param":{"num_deleted":"0","num_feature":"5","num_nodes":"61","size_leaf_vector":"1"}},{"base_weights":[1.2749125E-1,-1.0986578E0,7.865994E-1,-2.8037474E0,-7.414637E-1,5.88852E-1,3.5401893E0,-4.1699243E0,-1.7731652E0,-8.4062946E-1,-6.1152685E-1,2.5068545E-1,2.558468E0,1.6244621E0,1.6513383E0,-4.525628E0,-3.0535528E-1,-6.432855E-1,-8.247406E-1,-1.1462852E0,-2.8330845E-1,-1.777098E-1,1.6194626E0,1.627903E0,5.5441284E0,2.6673982E-1,2.1375084E0,-1.4820526E0,-3.6793387E-1,-3.1935227E-1,2.0149041E-2,-1.3232703E0,1.005661E0,-4.5877457E-1,5.346199E-1,-5.9958136E-1,6.703677E-1,1.231511E0,1.7205186E0,5.060779E-1,3.1920862E0,7.8300476E-2,1.9645661E0,1.920891E-1,7.2694397E-1,-4.793309E-1,-1.5157256E-1,3.9301988E-1,5.952759E-2,-6.537488E-2,-7.0261735E-1,2.0535279E-2,4.798592E-1,-2.5291198E-1,4.4064257E-1,1.0669084E0,1.293538E-1,1.0498648E-1,5.757775E-1,-1.3809472E-1,3.2823282E-1,6.481968E-1,1.7165291E0],"categories":[],"categories_nodes":[],"categories_segments":[],"categories_sizes":[],"default_left":[0,0,0,0,0,0,0,0,0,0,0,0,0,0,0,0,0,0,0,0,0,0,0,0,0,0,0,0,0,0,0,0,0,0,0,0,0,0,0,0,0,0,0,0,0,0,0,0,0,0,0,0,0,0,0,0,0,0,0,0,0,0,0],"id":12,"left_children":[1,3,5,7,9,11,13,15,17,-1,19,21,23,25,-1,27,-1,-1,29,31,33,35,37,39,41,-1,43,-1,-1,-1,-1,45,47,49,51,53,55,57,-1,59,61,-1,-1,-1,-1,-1,-1,-1,-1,-1,-1,-1,-1,-1,-1,-1,-1,-1,-1,-1,-1,-1,-1],"loss_changes":[2.4492998E2,6.24802E1,1.05184845E2,1.794928E1,2.2116402E1,1.225794E2,3.997731E1,3.2420197E0,2.4552689E0,0E0,1.459424E1,9.352184E1,6.599017E1,1.1175365E0,0E0,2.1471405E0,0E0,0E0,1.1407413E0,1.3518356E1,7.9952807E0,4.4051075E1,5.361003E1,3.698884E1,3.0129868E1,0E0,1.5910912E-1,0E0,0E0,0E0,0E0,5.929188E0,4.7723007E-1,1.9901827E1,4.8547935E0,4.253076E1,2.676871E1,2.1154701E1,0E0,8.4594145E0,1.1119904E1,0E0,0E0,0E0,0E0,0E0,0E0,0E0,0E0,0E0,0E0,0E0,0E0,0E0,0E0,0E0,0E0,0E0,0E0,0E0,0E0,0E0,0E0],"parents":[2147483647,0,0,1,1,2,2,3,3,4,4,5,5,6,6,7,7,8,8,10,10,11,11,12,12,13,13,15,15,18,18,19,19,20,20,21,21,22,22,23,23,24,24,26,26,31,31,32,32,33,33,34,34,35,35,36,36,37,37,39,39,40,40],"right_children":[2,4,6,8,10,12,14,16,18,-1,20,22,24,26,-1,28,-1,-1,30,32,34,36,38,40,42,-1,44,-1,-1,-1,-1,46,48,50,52,54,56,58,-1,60,62,-1,-1,-1,-1,-1,-1,-1,-1,-1,-1,-1,-1,-1,-1,-1,-1,-1,-1,-1,-1,-1,-1],"split_conditions":[2.7E1,1.4E1,8.6E1,9E0,4E0,1.6E1,2E1,1.2E1,6E0,-8.4062946E-1,8E0,4.1E1,3.7E1,7E1,1.6513383E0,2E0,-3.0535528E-1,-6.432855E-1,1.1E1,3E1,4.1E1,4E0,7.2E1,2.4E1,3.7E1,2.6673982E-1,7E0,-1.4820526E0,-3.6793387E-1,-3.1935227E-1,2.0149041E-2,5E0,1E0,3.8E1,2.4E1,5.8E1,5E0,4.6E1,1.7205186E0,4.4E1,4.4E1,7.8300476E-2,1.9645661E0,1.920891E-1,7.2694397E-1,-4.793309E-1,-1.5157256E-1,3.9301988E-1,5.952759E-2,-6.537488E-2,-7.0261735E-1,2.0535279E-2,4.798592E-1,-2.5291198E-1,4.4064257E-1,1.0669084E0,1.293538E-1,1.0498648E-1,5.757775E-1,-1.3809472E-1,3.2823282E-1,6.481968E-1,1.7165291E0],"split_indices":[4,2,1,4,1,0,3,2,0,0,3,3,3,2,0,0,0,0,2,2,2,0,3,0,1,0,3,0,0,0,0,0,0,2,3,4,0,1,0,2,0,0,0,0,0,0,0,0,0,0,0,0,0,0,0,0,0,0,0,0,0,0,0],"split_type":[0,0,0,0,0,0,0,0,0,0,0,0,0,0,0,0,0,0,0,0,0,0,0,0,0,0,0,0,0,0,0,0,0,0,0,0,0,0,0,0,0,0,0,0,0,0,0,0,0,0,0,0,0,0,0,0,0,0,0,0,0,0,0],"sum_hessian":[3.01E2,1.05E2,1.96E2,1.7E1,8.8E1,1.84E2,1.2E1,6E0,1.1E1,4E0,8.4E1,1.58E2,2.6E1,7E0,5E0,5E0,1E0,7E0,4E0,3.1E1,5.3E1,1.21E2,3.7E1,2.1E1,5E0,4E0,3E0,4E0,1E0,3E0,1E0,2.9E1,2E0,4.4E1,9E0,8.1E1,4E1,3.5E1,2E0,1.3E1,8E0,1E0,4E0,1E0,2E0,2.1E1,8E0,1E0,1E0,4E1,4E0,7E0,2E0,7.3E1,8E0,2E0,3.8E1,1.6E1,1.9E1,5E0,8E0,7E0,1E0],"tree_param":{"num_deleted":"0","num_feature":"5","num_nodes":"63","size_leaf_vector":"1"}},{"base_weights":[1.1187985E-1,-1.1258122E0,5.1134413E-1,-1.2312849E0,5.342407E-1,4.4633257E-1,1.578032E0,-2.701476E0,-8.92222E-1,2.0784558E-1,1.6653781E0,-1.2478198E0,-1.5913548E0,-1.2243274E0,-3.4305E-1,1.1933536E-1,4.3158646E0,-5.4504776E-1,1.8764465E0,-1.737452E0,-6.338654E-2,-2.2806625E0,-9.8800445E-1,-1.2004782E0,-5.422793E-2,-1.8780917E-2,1.7135284E0,2.524704E-1,1.5580324E0,9.578247E-2,-2.818741E-1,1.3179083E0,2.7906075E0,-6.130995E-1,-1.6376267E-1,-7.551625E-1,-1.6469021E-1,-2.1706365E-1,-6.8141216E-1,-4.510032E-1,4.7077563E-2,8.928585E-2,-1.7256618E-1,-7.975743E-2,1.9635291E-1,-6.977349E-2,6.65831E-1,5.5498254E-1,-1.4935303E-1,4.6485904E-1,1.132029E0],"categories":[],"categories_nodes":[],"categories_segments":[],"categories_sizes":[],"default_left":[0,0,0,0,0,0,0,0,0,0,0,0,0,0,0,0,0,0,0,0,0,0,0,0,0,0,0,0,0,0,0,0,0,0,0,0,0,0,0,0,0,0,0,0,0,0,0,0,0,0,0],"id":13,"left_children":[1,3,5,7,-1,9,-1,11,13,15,17,-1,19,21,23,25,27,29,31,33,-1,35,37,39,41,43,45,-1,-1,-1,-1,47,49,-1,-1,-1,-1,-1,-1,-1,-1,-1,-1,-1,-1,-1,-1,-1,-1,-1,-1],"loss_changes":[1.4988864E2,2.4878723E1,6.835017E1,3.3480774E1,0E0,6.564877E1,0E0,1.4421043E1,1.0522972E1,6.893288E1,1.8285141E1,0E0,1.4475098E0,6.983242E0,5.8783617E0,4.1426777E1,7.8252106E0,1.6639981E0,1.3682434E1,1.803421E0,0E0,1.0758839E0,9.217312E0,2.7025776E0,3.6540856E0,2.9119732E1,1.5284462E1,0E0,0E0,0E0,0E0,2.3139912E1,8.790062E0,0E0,0E0,0E0,0E0,0E0,0E0,0E0,0E0,0E0,0E0,0E0,0E0,0E0,0E0,0E0,0E0,0E0,0E0],"parents":[2147483647,0,0,1,1,2,2,3,3,5,5,7,7,8,8,9,9,10,10,12,12,13,13,14,14,15,15,16,16,17,17,18,18,19,19,21,21,22,22,23,23,24,24,25,25,26,26,31,31,32,32],"right_children":[2,4,6,8,-1,10,-1,12,14,16,18,-1,20,22,24,26,28,30,32,34,-1,36,38,40,42,44,46,-1,-1,-1,-1,48,50,-1,-1,-1,-1,-1,-1,-1,-1,-1,-1,-1,-1,-1,-1,-1,-1,-1,-1],"split_conditions":[2.3E1,7.7E1,1.06E2,7E0,5.342407E-1,7.1E1,1.578032E0,6E0,2E0,3.2E1,3.4E1,-1.2478198E0,1.2E1,5E0,1.4E1,4.8E1,4.1E1,2.5E1,8.3E1,6E0,-6.338654E-2,1.9E1,3.1E1,1.7E1,9E0,1E1,3.9E1,2.524704E-1,1.5580324E0,9.578247E-2,-2.818741E-1,8E1,5.3E1,-6.130995E-1,-1.6376267E-1,-7.551625E-1,-1.6469021E-1,-2.1706365E-1,-6.8141216E-1,-4.510032E-1,4.7077563E-2,8.928585E-2,-1.7256618E-1,-7.975743E-2,1.9635291E-1,-6.977349E-2,6.65831E-1,5.5498254E-1,-1.4935303E-1,4.6485904E-1,1.132029E0],"split_indices":[1,2,1,1,0,2,0,3,0,0,1,0,0,3,4,3,1,1,2,1,0,1,4,1,0,0,1,0,0,0,0,2,4,0,0,0,0,0,0,0,0,0,0,0,0,0,0,0,0,0,0],"split_type":[0,0,0,0,0,0,0,0,0,0,0,0,0,0,0,0,0,0,0,0,0,0,0,0,0,0,0,0,0,0,0,0,0,0,0,0,0,0,0,0,0,0,0,0,0,0,0,0,0,0,0],"sum_hessian":[3.01E2,7.3E1,2.28E2,7.1E1,2E0,2.26E2,2E0,1.2E1,5.9E1,1.9E2,3.6E1,4E0,8E0,3.6E1,2.3E1,1.87E2,3E0,3E0,3.3E1,7E0,1E0,5E0,3.1E1,5E0,1.8E1,1.73E2,1.4E1,1E0,2E0,1E0,2E0,2.2E1,1.1E1,5E0,2E0,4E0,1E0,2.7E1,4E0,4E0,1E0,1.1E1,7E0,1.27E2,4.6E1,3E0,1.1E1,1.7E1,5E0,6E0,5E0],"tree_param":{"num_deleted":"0","num_feature":"5","num_nodes":"51","size_leaf_vector":"1"}},{"base_weights":[8.513203E-2,-2.7847573E-1,9.584683E-1,-4.7865173E-1,9.6522546E-1,6.113256E-1,2.3927593E0,-1.7444158E0,-3.4018505E-1,7.168203E-1,1.2253464E0,4.6000692E-1,1.1966279E0,8.500715E-1,3.1569464E0,-2.2286513E0,-6.650952E-1,-9.58448E-1,-2.1499677E-1,1.07815795E-1,1.7035717E0,6.0492378E-2,1.8295574E0,3.142929E-1,3.5199967E-1,5.031891E-1,3.6907604E0,-8.6359245E-1,-1.3531382E0,-3.249363E-1,-8.4378205E-2,-1.0946767E0,4.07959E-1,-4.2875874E-1,1.5911044E-1,1.8852787E0,-3.4328842E-1,1.0449753E0,7.784615E-1,-1.2454884E-1,1.9728225E0,8.986918E-2,2.612155E0,1.3128205E-1,3.8195804E-2,5.040734E-1,-2.7763826E-1,2.9355013E-1,1.1722441E0,-4.7430202E-1,2.1108629E-3,-1.6286606E-1,-6.413807E-1,-3.0906463E-2,-4.691064E-1,2.0423764E-1,-2.8649598E-1,1.20605856E-1,6.737076E-1,2.196953E-1,-2.6963237E-1,3.3625814E-1,7.706681E-2,-1.334661E-1,2.612063E-1,1.031147E-1,6.8825114E-1,4.038675E-1,-9.287865E-1,4.0264958E-1,1.1603129E0],"categories":[],"categories_nodes":[],"categories_segments":[],"categories_sizes":[],"default_left":[0,0,0,0,0,0,0,0,0,0,0,0,0,0,0,0,0,0,0,0,0,0,0,0,0,0,0,0,0,0,0,0,0,0,0,0,0,0,0,0,0,0,0,0,0,0,0,0,0,0,0,0,0,0,0,0,0,0,0,0,0,0,0,0,0,0,0,0,0,0,0],"id":14,"left_children":[1,3,5,7,9,11,13,15,17,19,-1,21,-1,23,25,27,29,31,33,35,37,39,41,43,-1,45,47,-1,49,-1,-1,51,-1,53,55,57,59,61,-1,63,65,67,69,-1,-1,-1,-1,-1,-1,-1,-1,-1,-1,-1,-1,-1,-1,-1,-1,-1,-1,-1,-1,-1,-1,-1,-1,-1,-1,-1,-1],"loss_changes":[9.6167564E1,5.3739258E1,4.2850677E1,3.1830814E1,2.0317383E1,3.547317E1,1.7357704E1,7.925354E0,1.2797014E1,1.7243473E1,0E0,3.8737354E1,0E0,8.436036E-1,1.3725586E1,2.9336967E0,8.1852937E-1,1.0331585E1,1.1343975E1,1.5881793E1,3.7455006E0,2.0061869E1,2.1548862E1,3.650996E-2,0E0,6.5998006E0,1.4667358E0,0E0,2.1807108E0,0E0,0E0,1.4382153E1,0E0,3.3110886E1,3.0872755E1,1.2355337E0,1.02179365E1,1.9049644E-1,0E0,1.696559E1,1.8290081E0,2.8183025E1,1.2348854E1,0E0,0E0,0E0,0E0,0E0,0E0,0E0,0E0,0E0,0E0,0E0,0E0,0E0,0E0,0E0,0E0,0E0,0E0,0E0,0E0,0E0,0E0,0E0,0E0,0E0,0E0,0E0,0E0],"parents":[2147483647,0,0,1,1,2,2,3,3,4,4,5,5,6,6,7,7,8,8,9,9,11,11,13,13,14,14,15,15,16,16,17,17,18,18,19,19,20,20,21,21,22,22,23,23,25,25,26,26,28,28,31,31,33,33,34,34,35,35,36,36,37,37,39,39,40,40,41,41,42,42],"right_children":[2,4,6,8,10,12,14,16,18,20,-1,22,-1,24,26,28,30,32,34,36,38,40,42,44,-1,46,48,-1,50,-1,-1,52,-1,54,56,58,60,62,-1,64,66,68,70,-1,-1,-1,-1,-1,-1,-1,-1,-1,-1,-1,-1,-1,-1,-1,-1,-1,-1,-1,-1,-1,-1,-1,-1,-1,-1,-1,-1],"split_conditions":[2.8E1,6.6E1,1.1E1,1.4E1,2.4E1,7.2E1,4.3E1,3E0,1.4E1,8.6E1,1.2253464E0,6.3E1,1.1966279E0,3.8E1,2.9E1,6E0,2E0,6.2E1,4.4E1,3.2E1,2E1,6.6E1,3.8E1,1.3E1,3.5199967E-1,1.6E1,3.8E1,-8.6359245E-1,1E0,-3.249363E-1,-8.4378205E-2,2.8E1,4.07959E-1,3.7E1,4.3E1,3.8E1,4.5E1,1E0,7.784615E-1,2E0,3.2E1,3.4E1,7.1E1,1.3128205E-1,3.8195804E-2,5.040734E-1,-2.7763826E-1,2.9355013E-1,1.1722441E0,-4.7430202E-1,2.1108629E-3,-1.6286606E-1,-6.413807E-1,-3.0906463E-2,-4.691064E-1,2.0423764E-1,-2.8649598E-1,1.20605856E-1,6.737076E-1,2.196953E-1,-2.6963237E-1,3.3625814E-1,7.706681E-2,-1.334661E-1,2.612063E-1,1.031147E-1,6.8825114E-1,4.038675E-1,-9.287865E-1,4.0264958E-1,1.1603129E0],"split_indices":[3,1,0,2,0,3,1,0,1,1,0,1,0,1,3,3,3,2,2,4,3,4,3,1,0,0,2,0,0,0,0,2,0,2,4,2,2,0,0,0,1,3,1,0,0,0,0,0,0,0,0,0,0,0,0,0,0,0,0,0,0,0,0,0,0,0,0,0,0,0,0],"split_type":[0,0,0,0,0,0,0,0,0,0,0,0,0,0,0,0,0,0,0,0,0,0,0,0,0,0,0,0,0,0,0,0,0,0,0,0,0,0,0,0,0,0,0,0,0,0,0,0,0,0,0,0,0,0,0,0,0,0,0,0,0,0,0,0,0,0,0,0,0,0,0],"sum_hessian":[3.01E2,2.13E2,8.8E1,1.84E2,2.9E1,7.2E1,1.6E1,1.7E1,1.67E2,2.8E1,1E0,7E1,2E0,6E0,1E1,1.1E1,6E0,2.7E1,1.4E2,1.8E1,1E1,5.5E1,1.5E1,3E0,3E0,2E0,8E0,5E0,6E0,2E0,4E0,2.6E1,1E0,8.9E1,5.1E1,3E0,1.5E1,7E0,3E0,5.1E1,4E0,5E0,1E1,1E0,2E0,1E0,1E0,1E0,7E0,5E0,1E0,1.8E1,8E0,7E1,1.9E1,3.5E1,1.6E1,1E0,2E0,5E0,1E1,6E0,1E0,3.9E1,1.2E1,1E0,3E0,4E0,1E0,6E0,4E0],"tree_param":{"num_deleted":"0","num_feature":"5","num_nodes":"71","size_leaf_vector":"1"}},{"base_weights":[7.881623E-2,-7.8491196E-2,1.2433237E0,-9.573569E-1,9.449355E-2,1.0326617E0,9.649155E-1,-6.8324506E-1,-6.889821E-1,-7.156601E-2,1.0245783E0,1.6592507E0,4.506571E-1,-1.1977061E0,-2.6455984E-1,-3.88462E-1,3.367237E-1,2.6084836E0,5.9200996E-1,6.661056E-1,1.9347903E0,6.9567585E-1,-6.420822E-1,-1.6126442E0,-6.4968956E-1,-3.4120057E-2,-1.2930088E0,-2.0490187E-1,-1.7141013E0,2.6235104E-2,1.2669401E0,2.6688638E-1,3.491745E0,-8.688274E-2,1.822705E0,4.4082645E-3,2.4758549E-1,7.6624334E-1,1.3058453E0,-1.00579835E-1,9.6947604E-1,1.09405525E-1,-3.297699E-1,-5.6875384E-1,-2.3540412E-1,-9.409264E-2,-2.5673974E-1,-1.0386338E-1,2.7269328E-1,-5.369301E-1,2.9589845E-2,-1.03481345E-1,4.135832E-1,3.6468315E-1,-6.178635E-1,2.0963362E-1,-9.554013E-2,-1.4028168E-2,4.7363907E-1,1.02515034E-1,1.7583847E-2,1.1658967E0,2.8701556E-1,-1.81079E-1,2.6554218E-1,3.297169E-1,9.434601E-1,-1.2684174E-1,4.839589E-1,-2.07399E-1,1.5710908E-1,4.0227357E-1,1.1236649E-1],"categories":[],"categories_nodes":[],"categories_segments":[],"categories_sizes":[],"default_left":[0,0,0,0,0,0,0,0,0,0,0,0,0,0,0,0,0,0,0,0,0,0,0,0,0,0,0,0,0,0,0,0,0,0,0,0,0,0,0,0,0,0,0,0,0,0,0,0,0,0,0,0,0,0,0,0,0,0,0,0,0,0,0,0,0,0,0,0,0,0,0,0,0],"id":15,"left_children":[1,3,5,7,9,11,-1,-1,13,15,17,19,21,23,25,27,29,31,33,35,37,39,41,43,45,47,49,51,53,55,57,59,61,63,65,-1,-1,-1,67,69,71,-1,-1,-1,-1,-1,-1,-1,-1,-1,-1,-1,-1,-1,-1,-1,-1,-1,-1,-1,-1,-1,-1,-1,-1,-1,-1,-1,-1,-1,-1,-1,-1],"loss_changes":[5.5419662E1,4.068257E1,1.1641922E1,1.4019566E1,3.4670006E1,1.1651291E1,0E0,0E0,7.8878574E0,2.4843412E1,2.1750763E1,3.089634E0,5.5337715E0,2.8179626E0,5.1697845E0,2.5928907E1,2.4227776E1,1.3545795E1,2.355264E1,5.0632906E-1,1.3391571E0,3.58575E0,2.2418518E0,6.22694E-1,3.5494876E-1,5.907014E0,2.9417672E0,2.1763405E1,1.5660252E1,1.5059481E1,8.677238E0,2.6726589E-2,1.2831993E0,1.0077168E1,6.1114235E0,0E0,0E0,0E0,4.9324884E0,2.206005E0,2.149454E0,0E0,0E0,0E0,0E0,0E0,0E0,0E0,0E0,0E0,0E0,0E0,0E0,0E0,0E0,0E0,0E0,0E0,0E0,0E0,0E0,0E0,0E0,0E0,0E0,0E0,0E0,0E0,0E0,0E0,0E0,0E0,0E0],"parents":[2147483647,0,0,1,1,2,2,3,3,4,4,5,5,8,8,9,9,10,10,11,11,12,12,13,13,14,14,15,15,16,16,17,17,18,18,19,19,20,20,21,21,22,22,23,23,24,24,25,25,26,26,27,27,28,28,29,29,30,30,31,31,32,32,33,33,34,34,38,38,39,39,40,40],"right_children":[2,4,6,8,10,12,-1,-1,14,16,18,20,22,24,26,28,30,32,34,36,38,40,42,44,46,48,50,52,54,56,58,60,62,64,66,-1,-1,-1,68,70,72,-1,-1,-1,-1,-1,-1,-1,-1,-1,-1,-1,-1,-1,-1,-1,-1,-1,-1,-1,-1,-1,-1,-1,-1,-1,-1,-1,-1,-1,-1,-1,-1],"split_conditions":[5.5E1,7E0,9E1,7E0,6.5E1,6.4E1,9.649155E-1,-6.8324506E-1,1.7E1,2E0,3.6E1,4.4E1,8.1E1,5E0,4.1E1,5.6E1,3E1,3.9E1,8.6E1,5.6E1,5.5E1,6.8E1,3.6E1,3E0,1.4E1,2.5E1,7.3E1,7.7E1,2.6E1,8E0,3.8E1,6.8E1,5.3E1,3.8E1,2.5E1,4.4082645E-3,2.4758549E-1,7.6624334E-1,5.6E1,6.1E1,6E1,1.09405525E-1,-3.297699E-1,-5.6875384E-1,-2.3540412E-1,-9.409264E-2,-2.5673974E-1,-1.0386338E-1,2.7269328E-1,-5.369301E-1,2.9589845E-2,-1.03481345E-1,4.135832E-1,3.6468315E-1,-6.178635E-1,2.0963362E-1,-9.554013E-2,-1.4028168E-2,4.7363907E-1,1.02515034E-1,1.7583847E-2,1.1658967E0,2.8701556E-1,-1.81079E-1,2.6554218E-1,3.297169E-1,9.434601E-1,-1.2684174E-1,4.839589E-1,-2.07399E-1,1.5710908E-1,4.0227357E-1,1.1236649E-1],"split_indices":[4,3,2,1,1,2,0,0,2,0,4,1,2,3,2,1,3,2,1,4,2,2,1,0,2,4,1,2,4,0,1,1,2,3,3,0,0,0,2,1,4,0,0,0,0,0,0,0,0,0,0,0,0,0,0,0,0,0,0,0,0,0,0,0,0,0,0,0,0,0,0,0,0],"split_type":[0,0,0,0,0,0,0,0,0,0,0,0,0,0,0,0,0,0,0,0,0,0,0,0,0,0,0,0,0,0,0,0,0,0,0,0,0,0,0,0,0,0,0,0,0,0,0,0,0,0,0,0,0,0,0,0,0,0,0,0,0,0,0,0,0,0,0,0,0,0,0,0,0],"sum_hessian":[3.01E2,2.66E2,3.5E1,4.3E1,2.23E2,3.3E1,2E0,6E0,3.7E1,1.9E2,3.3E1,1.5E1,1.8E1,1.6E1,2.1E1,1.07E2,8.3E1,6E0,2.7E1,4E0,1.1E1,1.5E1,3E0,8E0,8E0,1.8E1,3E0,9.5E1,1.2E1,6.3E1,2E1,2E0,4E0,1.8E1,9E0,1E0,3E0,4E0,7E0,4E0,1.1E1,1E0,2E0,5E0,3E0,4E0,4E0,1.4E1,4E0,2E0,1E0,8.8E1,7E0,1E0,1.1E1,2.1E1,4.2E1,4E0,1.6E1,1E0,1E0,3E0,1E0,1.2E1,6E0,7E0,2E0,1E0,6E0,2E0,2E0,6E0,5E0],"tree_param":{"num_deleted":"0","num_feature":"5","num_nodes":"73","size_leaf_vector":"1"}},{"base_weights":[6.831358E-2,-4.3259552E-1,3.002892E-1,-1.0234827E0,-2.535007E-1,2.5805762E-1,9.258057E-1,-1.3439521E0,-2.9466724E-1,-6.3832486E-1,1.7233742E-2,1.2250543E-1,1.0446953E0,-1.8867203E0,-9.750618E-1,-1.917718E-1,3.9923858E-2,-2.6439112E-1,-1.3971466E0,5.8041203E-1,-2.2969532E-1,7.567682E-2,8.393189E-1,6.9213533E-1,2.3395793E0,-1.699914E-1,-6.2252444E-1,2.094822E-1,-1.445451E0,-4.6606064E-2,6.6567995E-2,1.0588684E-1,-9.256134E-1,-1.8481584E0,2.7126694E-1,7.8702354E-1,-3.1583062E-1,-1.3040383E0,-2.9644966E-2,5.098127E-1,-8.4323674E-2,4.802351E-1,8.6666113E-1,1.0456848E0,8.9515686E-1,-2.6885606E-2,1.6601773E-1,-4.5935532E-1,-1.2679768E-1,-7.3048666E-2,2.0116292E-1,-4.5635894E-2,-4.0778574E-1,-6.934184E-1,-2.4212208E-1,2.8077793E-1,-1.5870781E-1,1.0421235E-2,4.2806333E-1,-4.793751E-1,-1.7264405E-1,-1.00029826E-1,1.4104718E-1,5.3878155E-2,6.2915415E-1,-9.177807E-2,1.6120255E-1,6.305169E-2,2.9822674E-1,3.347626E-2,3.3574525E-1],"categories":[],"categories_nodes":[],"categories_segments":[],"categories_sizes":[],"default_left":[0,0,0,0,0,0,0,0,0,0,0,0,0,0,0,0,0,0,0,0,0,0,0,0,0,0,0,0,0,0,0,0,0,0,0,0,0,0,0,0,0,0,0,0,0,0,0,0,0,0,0,0,0,0,0,0,0,0,0,0,0,0,0,0,0,0,0,0,0,0,0],"id":16,"left_children":[1,3,5,7,9,11,-1,13,15,17,19,21,23,25,27,-1,29,31,33,35,37,39,-1,41,43,-1,-1,45,47,-1,-1,49,51,53,55,57,-1,59,61,63,65,67,-1,-1,69,-1,-1,-1,-1,-1,-1,-1,-1,-1,-1,-1,-1,-1,-1,-1,-1,-1,-1,-1,-1,-1,-1,-1,-1,-1,-1],"loss_changes":[3.5221916E1,9.899729E0,2.3556316E1,4.7423687E0,7.8248878E0,2.1731264E1,0E0,1.16366E0,9.478469E-1,8.4268265E0,6.391247E0,2.183703E1,1.2076424E1,6.744003E-2,6.431962E0,0E0,2.1214451E-1,5.484403E0,8.026085E0,5.552629E0,6.838867E0,1.2129371E1,0E0,1.0249879E1,6.8119965E0,0E0,0E0,4.6104968E-1,5.432892E-2,0E0,0E0,3.1224887E0,2.4767694E0,1.9926796E0,2.0908964E0,6.208028E0,0E0,1.5096855E-1,4.408112E0,2.425976E1,1.7798061E1,3.1216178E0,0E0,0E0,5.7717586E-1,0E0,0E0,0E0,0E0,0E0,0E0,0E0,0E0,0E0,0E0,0E0,0E0,0E0,0E0,0E0,0E0,0E0,0E0,0E0,0E0,0E0,0E0,0E0,0E0,0E0,0E0],"parents":[2147483647,0,0,1,1,2,2,3,3,4,4,5,5,7,7,8,8,9,9,10,10,11,11,12,12,13,13,14,14,16,16,17,17,18,18,19,19,20,20,21,21,23,23,24,24,27,27,28,28,31,31,32,32,33,33,34,34,35,35,37,37,38,38,39,39,40,40,41,41,44,44],"right_children":[2,4,6,8,10,12,-1,14,16,18,20,22,24,26,28,-1,30,32,34,36,38,40,-1,42,44,-1,-1,46,48,-1,-1,50,52,54,56,58,-1,60,62,64,66,68,-1,-1,70,-1,-1,-1,-1,-1,-1,-1,-1,-1,-1,-1,-1,-1,-1,-1,-1,-1,-1,-1,-1,-1,-1,-1,-1,-1,-1],"split_conditions":[2.6E1,1.5E1,1.06E2,3E0,8E0,1.6E1,9.258057E-1,7E0,1.6E1,2E1,1.2E1,7.2E1,3.7E1,3E0,1.1E1,-1.917718E-1,8E0,6E0,7E0,6E0,1.7E1,3.3E1,8.393189E-1,4.4E1,1.9E1,-1.699914E-1,-6.2252444E-1,1E1,1.2E1,-4.6606064E-2,6.6567995E-2,1.7E1,1.1E1,5E0,1E0,1.4E1,-3.1583062E-1,2E0,3.5E1,5.9E1,7.1E1,5.5E1,8.6666113E-1,1.0456848E0,3.7E1,-2.6885606E-2,1.6601773E-1,-4.5935532E-1,-1.2679768E-1,-7.3048666E-2,2.0116292E-1,-4.5635894E-2,-4.0778574E-1,-6.934184E-1,-2.4212208E-1,2.8077793E-1,-1.5870781E-1,1.0421235E-2,4.2806333E-1,-4.793751E-1,-1.7264405E-1,-1.00029826E-1,1.4104718E-1,5.3878155E-2,6.2915415E-1,-9.177807E-2,1.6120255E-1,6.305169E-2,2.9822674E-1,3.347626E-2,3.3574525E-1],"split_indices":[4,2,1,0,3,0,0,1,1,4,3,3,3,1,2,0,0,3,3,0,4,4,0,0,0,0,0,2,3,0,0,4,1,0,0,1,0,0,2,1,2,2,0,0,1,0,0,0,0,0,0,0,0,0,0,0,0,0,0,0,0,0,0,0,0,0,0,0,0,0,0],"split_type":[0,0,0,0,0,0,0,0,0,0,0,0,0,0,0,0,0,0,0,0,0,0,0,0,0,0,0,0,0,0,0,0,0,0,0,0,0,0,0,0,0,0,0,0,0,0,0,0,0,0,0,0,0,0,0,0,0,0,0,0,0,0,0,0,0,0,0,0,0,0,0],"sum_hessian":[3.01E2,9.5E1,2.06E2,2.1E1,7.4E1,2.04E2,2E0,1.4E1,7E0,3E1,4.4E1,1.75E2,2.9E1,4E0,1E1,3E0,4E0,2.1E1,9E0,1.3E1,3.1E1,1.73E2,2E0,2.4E1,5E0,1E0,3E0,3E0,7E0,2E0,2E0,1.4E1,7E0,7E0,2E0,1.2E1,1E0,4E0,2.7E1,4.6E1,1.27E2,2.3E1,1E0,2E0,3E0,2E0,1E0,6E0,1E0,9E0,5E0,3E0,4E0,4E0,3E0,1E0,1E0,6E0,6E0,2E0,2E0,1.7E1,1E1,3.9E1,7E0,9.4E1,3.3E1,1.6E1,7E0,1E0,2E0],"tree_param":{"num_deleted":"0","num_feature":"5","num_nodes":"71","size_leaf_vector":"1"}},{"base_weights":[5.484611E-2,-1.687598E-1,4.3568435E-1,-2.1740459E-1,1.6843078E0,2.4764921E-1,1.1148278E0,-2.938897E-1,8.289261E-1,6.489914E-1,1.9316255E-1,1.43911E-1,1.6587092E0,2.3782772E-1,1.5384636E0,-1.0346086E0,-2.3301096E-1,4.7922376E-1,5.504578E-1,3.99436E-2,1.7786071E0,6.427689E-2,5.714246E-1,3.6189938E-1,-1.13211825E-1,6.98054E-1,2.2916164E0,-1.390635E0,-1.868393E-1,-2.7357635E-1,3.5239965E-1,-4.4498444E-2,6.811819E-1,3.7757733E-1,-4.783063E-1,5.8750993E-1,1.5893555E-1,6.5139774E-3,1.2221866E-1,1.2295532E-1,4.1585657E-1,1.4294587E-1,2.4828513E0,-8.567591E-2,-4.4792035E-1,4.2692184E-2,-1.3611184E-1,-4.1177247E-2,-1.9278358E-1,1.1808632E-1,-8.972168E-3,9.269714E-2,-7.959748E-2,3.0021104E-1,3.344536E-2,-1.7934036E-1,1.8359476E-1,-6.808174E-1,-1.8771702E-2,2.0893708E-1,-2.0480958E-1,8.816391E-1,2.6859742E-1],"categories":[],"categories_nodes":[],"categories_segments":[],"categories_sizes":[],"default_left":[0,0,0,0,0,0,0,0,0,0,0,0,0,0,0,0,0,0,0,0,0,0,0,0,0,0,0,0,0,0,0,0,0,0,0,0,0,0,0,0,0,0,0,0,0,0,0,0,0,0,0,0,0,0,0,0,0,0,0,0,0,0,0],"id":17,"left_children":[1,3,5,7,9,11,13,15,17,-1,-1,19,21,23,25,27,29,31,-1,33,35,-1,-1,37,-1,39,41,43,45,47,49,51,53,55,57,-1,-1,-1,-1,59,-1,-1,61,-1,-1,-1,-1,-1,-1,-1,-1,-1,-1,-1,-1,-1,-1,-1,-1,-1,-1,-1,-1],"loss_changes":[2.5791143E1,1.758332E1,1.40266285E1,1.5208983E1,1.0989218E0,1.2789188E1,8.550798E0,7.65038E0,3.6937952E0,0E0,0E0,1.4205185E1,1.7242489E0,8.235314E-1,8.5276375E0,3.6639423E0,3.9672375E0,1.1937811E0,0E0,1.4178888E1,8.492184E-2,0E0,0E0,1.1497128E-1,0E0,3.3912678E0,1.5938873E0,5.9233856E-1,5.037571E-1,7.608694E0,1.8512356E-1,3.9422172E-1,1.3446815E0,1.1568902E1,2.3685675E1,0E0,0E0,0E0,0E0,3.2477329E0,0E0,0E0,2.435604E0,0E0,0E0,0E0,0E0,0E0,0E0,0E0,0E0,0E0,0E0,0E0,0E0,0E0,0E0,0E0,0E0,0E0,0E0,0E0,0E0],"parents":[2147483647,0,0,1,1,2,2,3,3,4,4,5,5,6,6,7,7,8,8,11,11,12,12,13,13,14,14,15,15,16,16,17,17,19,19,20,20,23,23,25,25,26,26,27,27,28,28,29,29,30,30,31,31,32,32,33,33,34,34,39,39,42,42],"right_children":[2,4,6,8,10,12,14,16,18,-1,-1,20,22,24,26,28,30,32,-1,34,36,-1,-1,38,-1,40,42,44,46,48,50,52,54,56,58,-1,-1,-1,-1,60,-1,-1,62,-1,-1,-1,-1,-1,-1,-1,-1,-1,-1,-1,-1,-1,-1,-1,-1,-1,-1,-1,-1],"split_conditions":[2.4E1,2.7E1,1.1E1,5.4E1,4.9E1,6.7E1,4.3E1,7E0,9.7E1,6.489914E-1,1.9316255E-1,8.6E1,3.2E1,7.7E1,5.1E1,1E0,7.3E1,5.6E1,5.504578E-1,4.8E1,5E1,6.427689E-2,5.714246E-1,1.3E1,-1.13211825E-1,2.9E1,1.4E1,5E0,2.8E1,3.3E1,2.2E1,5E1,1E0,3.6E1,5E1,5.8750993E-1,1.5893555E-1,6.5139774E-3,1.2221866E-1,2E1,4.1585657E-1,1.4294587E-1,6.5E1,-8.567591E-2,-4.4792035E-1,4.2692184E-2,-1.3611184E-1,-4.1177247E-2,-1.9278358E-1,1.1808632E-1,-8.972168E-3,9.269714E-2,-7.959748E-2,3.0021104E-1,3.344536E-2,-1.7934036E-1,1.8359476E-1,-6.808174E-1,-1.8771702E-2,2.0893708E-1,-2.0480958E-1,8.816391E-1,2.6859742E-1],"split_indices":[3,0,0,4,2,4,1,1,1,0,0,1,1,2,2,0,1,4,0,4,4,0,0,1,0,3,0,4,2,4,3,1,0,1,4,0,0,0,0,0,0,0,1,0,0,0,0,0,0,0,0,0,0,0,0,0,0,0,0,0,0,0,0],"split_type":[0,0,0,0,0,0,0,0,0,0,0,0,0,0,0,0,0,0,0,0,0,0,0,0,0,0,0,0,0,0,0,0,0,0,0,0,0,0,0,0,0,0,0,0,0,0,0,0,0,0,0,0,0,0,0,0,0,0,0,0,0,0,0],"sum_hessian":[3.01E2,1.9E2,1.11E2,1.86E2,4E0,8.8E1,2.3E1,1.74E2,1.2E1,2E0,2E0,8.3E1,5E0,8E0,1.5E1,1.2E1,1.62E2,1E1,2E0,7.9E1,4E0,1E0,4E0,7E0,1E0,8E0,7E0,8E0,4E0,1.52E2,1E1,3E0,7E0,4.8E1,3.1E1,3E0,1E0,1E0,6E0,5E0,3E0,1E0,6E0,1E0,7E0,2E0,2E0,1.12E2,4E1,9E0,1E0,1E0,2E0,4E0,3E0,9E0,3.9E1,5E0,2.6E1,3E0,2E0,4E0,2E0],"tree_param":{"num_deleted":"0","num_feature":"5","num_nodes":"63","size_leaf_vector":"1"}},{"base_weights":[4.9659748E-2,-4.4312936E-1,1.587474E-1,-1.0735813E0,-2.0166816E-1,1.3455649E-1,6.268464E-1,-5.983813E-1,-1.4145837E0,-8.723118E-2,-1.2384024E0,1.10405795E-1,6.1618805E-1,-9.0367043E-1,2.3079644E-1,-5.682112E-1,-4.616208E-1,-3.4566075E-1,5.015046E-1,1.4607239E-1,-5.9274256E-1,7.629537E-2,1.450737E0,-9.275251E-2,-3.816745E-1,-2.7555086E-2,-1.6627827E-1,-3.147443E-3,-5.809419E-1,-3.7099534E-1,9.8412895E-1,3.2686997E-2,1.0716584E0,2.0836945E-1,5.926163E-1,-4.809685E-2,1.05385214E-1,-2.1894437E-1,9.223328E-2,-1.8244973E-1,-3.047943E-3,5.3523445E-1,1.2603436E-1,-1.2697847E-1,2.2018839E-2,1.7632657E-1,6.014542E-1],"categories":[],"categories_nodes":[],"categories_segments":[],"categories_sizes":[],"default_left":[0,0,0,0,0,0,0,0,0,0,0,0,0,0,0,0,0,0,0,0,0,0,0,0,0,0,0,0,0,0,0,0,0,0,0,0,0,0,0,0,0,0,0,0,0,0,0],"id":18,"left_children":[1,3,5,7,9,11,-1,13,15,17,19,21,-1,23,-1,-1,25,27,29,-1,-1,31,33,-1,-1,-1,-1,35,37,39,41,43,45,-1,-1,-1,-1,-1,-1,-1,-1,-1,-1,-1,-1,-1,-1],"loss_changes":[1.6305025E1,8.156128E0,1.1302032E1,1.5842018E0,4.7562423E0,1.117654E1,0E0,4.035572E0,2.7808857E0,5.9549255E0,6.051054E0,1.1044819E1,0E0,1.1404772E0,0E0,0E0,8.6113214E-2,2.1740186E0,5.4181843E0,0E0,0E0,1.0339041E1,1.0083218E0,0E0,0E0,0E0,0E0,7.248137E-1,2.3404794E0,4.2171872E-1,2.860096E0,4.300157E0,3.3373709E0,0E0,0E0,0E0,0E0,0E0,0E0,0E0,0E0,0E0,0E0,0E0,0E0,0E0,0E0],"parents":[2147483647,0,0,1,1,2,2,3,3,4,4,5,5,7,7,8,8,9,9,10,10,11,11,13,13,16,16,17,17,18,18,21,21,22,22,27,27,28,28,29,29,30,30,31,31,32,32],"right_children":[2,4,6,8,10,12,-1,14,16,18,20,22,-1,24,-1,-1,26,28,30,-1,-1,32,34,-1,-1,-1,-1,36,38,40,42,44,46,-1,-1,-1,-1,-1,-1,-1,-1,-1,-1,-1,-1,-1,-1],"split_conditions":[1.9E1,1.4E1,1.06E2,9E0,1.8E1,7.2E1,6.268464E-1,1.7E1,3E0,1.5E1,1.9E1,9E1,6.1618805E-1,8E0,2.3079644E-1,-5.682112E-1,6E0,2.4E1,1.7E1,1.4607239E-1,-5.9274256E-1,2.5E1,5.1E1,-9.275251E-2,-3.816745E-1,-2.7555086E-2,-1.6627827E-1,2.1E1,6.2E1,7E0,9E0,1.9E1,5.8E1,2.0836945E-1,5.926163E-1,-4.809685E-2,1.05385214E-1,-2.1894437E-1,9.223328E-2,-1.8244973E-1,-3.047943E-3,5.3523445E-1,1.2603436E-1,-1.2697847E-1,2.2018839E-2,1.7632657E-1,6.014542E-1],"split_indices":[1,4,1,1,1,3,0,2,0,1,4,2,0,4,0,0,0,2,4,0,0,0,4,0,0,0,0,2,2,0,3,2,1,0,0,0,0,0,0,0,0,0,0,0,0,0,0],"split_type":[0,0,0,0,0,0,0,0,0,0,0,0,0,0,0,0,0,0,0,0,0,0,0,0,0,0,0,0,0,0,0,0,0,0,0,0,0,0,0,0,0,0,0,0,0,0,0],"sum_hessian":[3.01E2,5.4E1,2.47E2,1.4E1,4E1,2.45E2,2E0,7E0,7E0,3.7E1,3E0,2.43E2,2E0,6E0,1E0,4E0,3E0,2.6E1,1.1E1,1E0,2E0,2.38E2,5E0,3E0,3E0,1E0,2E0,1.1E1,1.5E1,4E0,7E0,2.29E2,9E0,3E0,2E0,8E0,3E0,1.3E1,2E0,2E0,2E0,2E0,5E0,1.8E1,2.11E2,7E0,2E0],"tree_param":{"num_deleted":"0","num_feature":"5","num_nodes":"47","size_leaf_vector":"1"}},{"base_weights":[4.029442E-2,-6.568256E-2,3.6770567E-1,-9.436144E-2,1.2380035E0,1.2192941E0,1.832161E-1,-2.5422975E-2,-7.293198E-1,1.7531204E-1,5.778786E-1,1.9809914E-1,1.5058426E0,-2.1466401E-1,6.4337844E-1,-7.494989E-2,1.0559878E0,3.5657066E-1,-1.1588144E0,1.3027497E-1,-7.6552965E-2,5.3042095E-2,1.8624125E0,-8.763821E-1,5.8454275E-1,2.1628085E-1,8.567834E-1,-2.9930317E-1,5.4877196E-2,5.0599414E-1,4.8509446E-1,9.176464E-1,-2.9364777E-1,-2.124279E0,-1.7186652E-1,-7.5494386E-2,9.9363334E-2,5.9498E-1,1.5246506E-1,-2.753891E0,-1.9212036E-1,1.546421E-1,1.4993957E0,-7.662049E-2,2.8898925E-1,9.482127E-1,4.1113892E-1,-6.5304585E-2,-2.5393945E-1,1.6399038E-1,-2.5855463E-2,-2.1089631E-1,2.6651642E-1,1.9665528E-2,3.539482E-1,-2.7786256E-3,-1.1560669E-1,-8.786921E-1,-1.762024E-1,1.5141907E-1,-8.3769614E-1,-1.0314126E0,-2.5932314E-3,1.0220909E-1,-5.227627E-1,-1.08342655E-1,2.8469056E-1,5.333994E-1,5.7748035E-2,1.0242768E-1,-2.7440645E-2,2.96762E-1,5.6144718E-2,2.9009095E-1,-8.452149E-2],"categories":[],"categories_nodes":[],"categories_segments":[],"categories_sizes":[],"default_left":[0,0,0,0,0,0,0,0,0,0,0,0,0,0,0,0,0,0,0,0,0,0,0,0,0,0,0,0,0,0,0,0,0,0,0,0,0,0,0,0,0,0,0,0,0,0,0,0,0,0,0,0,0,0,0,0,0,0,0,0,0,0,0,0,0,0,0,0,0,0,0,0,0,0,0],"id":19,"left_children":[1,3,5,7,9,11,13,15,17,-1,-1,19,21,23,25,27,29,31,33,-1,-1,35,37,39,41,43,45,47,49,51,-1,53,55,57,59,-1,-1,-1,-1,61,63,65,67,-1,69,71,73,-1,-1,-1,-1,-1,-1,-1,-1,-1,-1,-1,-1,-1,-1,-1,-1,-1,-1,-1,-1,-1,-1,-1,-1,-1,-1,-1,-1],"loss_changes":[1.0502965E1,8.678731E0,1.1402684E1,9.830396E0,1.1236758E0,3.5057793E0,1.14896555E1,1.100517E1,1.0673652E1,0E0,0E0,5.3897595E-1,5.081463E0,1.8493168E1,2.4578924E0,5.7253428E0,1.958704E0,2.8232174E0,1.4880718E1,0E0,0E0,3.3761454E-1,3.0134964E-1,2.3880365E1,6.0608644E0,4.5105648E-1,3.8430595E-1,3.031259E0,8.71815E0,3.3983693E0,0E0,8.162725E-1,1.0075241E-1,8.173813E0,1.7366283E1,0E0,0E0,0E0,0E0,9.361092E0,1.2985053E1,5.259125E0,1.4782763E0,0E0,2.3072791E-1,2.8285503E-1,2.1980453E0,0E0,0E0,0E0,0E0,0E0,0E0,0E0,0E0,0E0,0E0,0E0,0E0,0E0,0E0,0E0,0E0,0E0,0E0,0E0,0E0,0E0,0E0,0E0,0E0,0E0,0E0,0E0,0E0],"parents":[2147483647,0,0,1,1,2,2,3,3,4,4,5,5,6,6,7,7,8,8,11,11,12,12,13,13,14,14,15,15,16,16,17,17,18,18,21,21,22,22,23,23,24,24,25,25,26,26,27,27,28,28,29,29,31,31,32,32,33,33,34,34,39,39,40,40,41,41,42,42,44,44,45,45,46,46],"right_children":[2,4,6,8,10,12,14,16,18,-1,-1,20,22,24,26,28,30,32,34,-1,-1,36,38,40,42,44,46,48,50,52,-1,54,56,58,60,-1,-1,-1,-1,62,64,66,68,-1,70,72,74,-1,-1,-1,-1,-1,-1,-1,-1,-1,-1,-1,-1,-1,-1,-1,-1,-1,-1,-1,-1,-1,-1,-1,-1,-1,-1,-1,-1],"split_conditions":[5.8E1,9E1,3.5E1,5.4E1,5E0,3.9E1,4.9E1,5.3E1,4.4E1,1.7531204E-1,5.778786E-1,6.8E1,5.9E1,1E0,2.2E1,2.3E1,7E1,1E0,5.3E1,1.3027497E-1,-7.6552965E-2,9E0,5.3E1,5E1,1.2E1,6.1E1,6.5E1,3.1E1,3E1,3.6E1,4.8509446E-1,3E1,3.3E1,1E1,7.4E1,-7.5494386E-2,9.9363334E-2,5.9498E-1,1.5246506E-1,7.3E1,4.8E1,2.4E1,6.8E1,-7.662049E-2,9.9E1,5E1,6.2E1,-6.5304585E-2,-2.5393945E-1,1.6399038E-1,-2.5855463E-2,-2.1089631E-1,2.6651642E-1,1.9665528E-2,3.539482E-1,-2.7786256E-3,-1.1560669E-1,-8.786921E-1,-1.762024E-1,1.5141907E-1,-8.3769614E-1,-1.0314126E0,-2.5932314E-3,1.0220909E-1,-5.227627E-1,-1.08342655E-1,2.8469056E-1,5.333994E-1,5.7748035E-2,1.0242768E-1,-2.7440645E-2,2.96762E-1,5.6144718E-2,2.9009095E-1,-8.452149E-2],"split_indices":[1,2,4,1,0,2,4,3,2,0,0,1,1,0,3,1,2,0,2,0,0,0,2,2,0,1,4,4,1,1,0,2,2,0,2,0,0,0,0,1,4,3,1,0,1,3,1,0,0,0,0,0,0,0,0,0,0,0,0,0,0,0,0,0,0,0,0,0,0,0,0,0,0,0,0],"split_type":[0,0,0,0,0,0,0,0,0,0,0,0,0,0,0,0,0,0,0,0,0,0,0,0,0,0,0,0,0,0,0,0,0,0,0,0,0,0,0,0,0,0,0,0,0,0,0,0,0,0,0,0,0,0,0,0,0,0,0,0,0,0,0,0,0,0,0,0,0,0,0,0,0,0,0],"sum_hessian":[3.01E2,2.28E2,7.3E1,2.24E2,4E0,1.2E1,6.1E1,2.03E2,2.1E1,3E0,1E0,3E0,9E0,3.3E1,2.8E1,1.95E2,8E0,6E0,1.5E1,2E0,1E0,2E0,7E0,1.8E1,1.5E1,1E1,1.8E1,7.1E1,1.24E2,5E0,3E0,3E0,3E0,7E0,8E0,1E0,1E0,6E0,1E0,4E0,1.4E1,1.1E1,4E0,1E0,9E0,1.4E1,4E0,6.3E1,8E0,2.7E1,9.7E1,1E0,4E0,1E0,2E0,1E0,2E0,4E0,3E0,7E0,1E0,3E0,1E0,1.1E1,3E0,7E0,4E0,3E0,1E0,8E0,1E0,1.3E1,1E0,2E0,2E0],"tree_param":{"num_deleted":"0","num_feature":"5","num_nodes":"75","size_leaf_vector":"1"}},{"base_weights":[2.9270248E-2,-1.8879789E-1,1.4645782E-1,-5.695046E-1,-1.0967971E-1,7.4012555E-2,5.998535E-1,-2.208999E-1,-1.085755E0,-1.5827098E-1,3.398285E-1,4.8655786E-2,4.4333193E-1,1.2586433E0,2.5622398E-1,-5.882279E-1,2.4446614E-1,-1.5014877E0,-3.985834E-1,-4.4556577E-2,-8.7785757E-1,-3.605404E-1,7.50103E-1,4.0420914E-1,-6.111952E-2,-1.5892754E-1,1.5484133E0,4.9119645E-1,8.8534035E-2,-6.599026E-1,-2.3727037E-2,5.98526E-3,1.4428559E-1,-5.396672E-1,-9.139195E-2,-2.3100473E-2,-1.4403306E-1,-1.4983305E-1,1.3750595E0,-1.4894727E0,-1.1993281E-1,1.6715242E-2,-1.5535966E-1,1.0602436E-1,3.0869597E-1,1.644516E-1,1.3426828E0,-1.17272325E-1,8.0986977E-1,-2.287674E-2,1.7914026E0,-1.8030803E-1,5.367584E-1,-2.2127314E-1,-4.0729523E-2,3.3755496E-2,-2.0109558E-2,1.0040561E-2,-1.2190239E-1,5.477457E-1,-6.419678E-2,-5.076109E-1,-7.149811E-2,1.9392243E-1,-1.2074479E-1,-2.179074E-2,3.1663153E-1,4.7868252E-1,-6.416932E-2,-6.494159E-2,5.5232882E-2,1.5562135E-2,4.664692E-1,8.9595035E-2,6.9863206E-1,1.11973576E-1,-1.511221E-1,1.8878908E-1,6.1082464E-2],"categories":[],"categories_nodes":[],"categories_segments":[],"categories_sizes":[],"default_left":[0,0,0,0,0,0,0,0,0,0,0,0,0,0,0,0,0,0,0,0,0,0,0,0,0,0,0,0,0,0,0,0,0,0,0,0,0,0,0,0,0,0,0,0,0,0,0,0,0,0,0,0,0,0,0,0,0,0,0,0,0,0,0,0,0,0,0,0,0,0,0,0,0,0,0,0,0,0,0],"id":20,"left_children":[1,3,5,7,9,11,13,15,17,19,21,23,-1,25,27,29,31,33,35,37,39,41,43,45,47,-1,49,-1,51,53,-1,55,-1,-1,-1,-1,-1,57,59,61,63,-1,-1,-1,-1,65,67,69,71,-1,73,75,77,-1,-1,-1,-1,-1,-1,-1,-1,-1,-1,-1,-1,-1,-1,-1,-1,-1,-1,-1,-1,-1,-1,-1,-1,-1,-1],"loss_changes":[7.745224E0,3.1303446E0,6.4263387E0,2.999568E0,1.9977393E0,6.014814E0,5.789757E0,2.1951058E0,1.4012899E0,6.5889034E0,2.856534E0,6.6209407E0,0E0,5.484312E0,4.255368E0,2.0325422E-1,3.355054E-1,8.757696E-1,6.7900896E-2,1.0817134E1,4.9205036E0,2.908054E-1,3.001206E-1,8.779439E0,6.4530787E0,0E0,3.2948208E0,0E0,2.26581E0,1.4413548E-1,0E0,3.865726E-2,0E0,0E0,0E0,0E0,0E0,3.1638298E0,3.9721003E0,1.117363E0,1.5593448E0,0E0,0E0,0E0,0E0,7.0476403E0,3.4908876E0,3.717183E0,4.4371643E0,0E0,4.9196453E0,2.3364627E0,8.767438E-2,0E0,0E0,0E0,0E0,0E0,0E0,0E0,0E0,0E0,0E0,0E0,0E0,0E0,0E0,0E0,0E0,0E0,0E0,0E0,0E0,0E0,0E0,0E0,0E0,0E0,0E0],"parents":[2147483647,0,0,1,1,2,2,3,3,4,4,5,5,6,6,7,7,8,8,9,9,10,10,11,11,13,13,14,14,15,15,16,16,17,17,18,18,19,19,20,20,21,21,22,22,23,23,24,24,26,26,28,28,29,29,31,31,37,37,38,38,39,39,40,40,45,45,46,46,47,47,48,48,50,50,51,51,52,52],"right_children":[2,4,6,8,10,12,14,16,18,20,22,24,-1,26,28,30,32,34,36,38,40,42,44,46,48,-1,50,-1,52,54,-1,56,-1,-1,-1,-1,-1,58,60,62,64,-1,-1,-1,-1,66,68,70,72,-1,74,76,78,-1,-1,-1,-1,-1,-1,-1,-1,-1,-1,-1,-1,-1,-1,-1,-1,-1,-1,-1,-1,-1,-1,-1,-1,-1,-1],"split_conditions":[2.7E1,5E0,1.6E1,2E1,4.5E1,1.06E2,3.9E1,1.6E1,2.3E1,3.7E1,2E1,3.3E1,4.4333193E-1,3.2E1,1.7E1,3E0,4E0,1E0,1.7E1,3.5E1,4.1E1,1E0,2.3E1,5.2E1,6.2E1,-1.5892754E-1,3.6E1,4.9119645E-1,2.4E1,1.6E1,-2.3727037E-2,1.2E1,1.4428559E-1,-5.396672E-1,-9.139195E-2,-2.3100473E-2,-1.4403306E-1,2.1E1,2.8E1,2E0,1E0,1.6715242E-2,-1.5535966E-1,1.0602436E-1,3.0869597E-1,3.2E1,5.7E1,4E0,5.1E1,-2.287674E-2,3.4E1,4.4E1,5.5E1,-2.2127314E-1,-4.0729523E-2,3.3755496E-2,-2.0109558E-2,1.0040561E-2,-1.2190239E-1,5.477457E-1,-6.419678E-2,-5.076109E-1,-7.149811E-2,1.9392243E-1,-1.2074479E-1,-2.179074E-2,3.1663153E-1,4.7868252E-1,-6.416932E-2,-6.494159E-2,5.5232882E-2,1.5562135E-2,4.664692E-1,8.9595035E-2,6.9863206E-1,1.11973576E-1,-1.511221E-1,1.8878908E-1,6.1082464E-2],"split_indices":[4,3,0,4,1,1,4,2,4,2,3,4,0,1,0,3,3,0,2,2,2,0,3,2,3,0,2,0,0,1,0,1,0,0,0,0,0,1,1,0,0,0,0,0,0,4,2,0,4,0,4,4,2,0,0,0,0,0,0,0,0,0,0,0,0,0,0,0,0,0,0,0,0,0,0,0,0,0,0],"split_type":[0,0,0,0,0,0,0,0,0,0,0,0,0,0,0,0,0,0,0,0,0,0,0,0,0,0,0,0,0,0,0,0,0,0,0,0,0,0,0,0,0,0,0,0,0,0,0,0,0,0,0,0,0,0,0,0,0,0,0,0,0,0,0,0,0,0,0,0,0,0,0,0,0,0,0,0,0,0,0],"sum_hessian":[3.01E2,1.05E2,1.96E2,1.7E1,8.8E1,1.7E2,2.6E1,1.1E1,6E0,8E1,8E0,1.68E2,2E0,8E0,1.8E1,6E0,5E0,3E0,3E0,7E1,1E1,3E0,5E0,3.9E1,1.29E2,1E0,7E0,1E0,1.7E1,5E0,1E0,3E0,2E0,2E0,1E0,1E0,2E0,6.6E1,4E0,5E0,5E0,1E0,2E0,3E0,2E0,3.2E1,7E0,1.22E2,7E0,1E0,6E0,1.1E1,6E0,4E0,1E0,1E0,2E0,3.9E1,2.7E1,3E0,1E0,4E0,1E0,1E0,4E0,2.6E1,6E0,6E0,1E0,9.2E1,3E1,4E0,3E0,2E0,4E0,4E0,7E0,4E0,2E0],"tree_param":{"num_deleted":"0","num_feature":"5","num_nodes":"79","size_leaf_vector":"1"}},{"base_weights":[2.7605392E-2,-2.471176E-2,4.1485745E-1,-5.6761626E-2,6.0585964E-1,5.0189335E-2,5.733038E-1,4.474732E-3,-5.5337334E-1,3.4476012E-1,1.1071434E0,2.597802E-1,-3.3829653E-1,4.031074E-1,1.173468E0,-4.9364537E-2,1.0710644E0,-1.0120234E0,5.3686287E-2,-2.5634767E-2,4.0205553E-1,8.356247E-2,3.8714907E-1,1.7870903E-2,2.0359613E-1,2.2794251E-1,2.7448317E-1,4.4496462E-1,-9.828187E-3,-7.2819875E-3,-6.6204727E-1,1.4452837E0,-4.086151E-1,2.3316066E-1,-1.5992126E0,-5.9297943E-1,3.0698395E-1,4.6363258E-1,-1.3584138E-2,3.6643437E-1,-3.6331102E-1,1.6654083E-1,1.4542565E-1,-2.6973145E-2,2.052371E-1,-2.6911187E-1,3.5892794E-1,9.29245E-2,5.176418E-1,-1.4643174E-1,-3.744507E-2,-2.2356035E-3,1.428772E-1,-1.602768E-1,-7.1929014E-1,8.859787E-2,-2.9625702E-1,-5.373322E-2,1.9826967E-1,7.1331486E-2,1.8901521E-1,1.5258142E-1,-7.298813E-2,8.370972E-3,2.333542E-1],"categories":[],"categories_nodes":[],"categories_segments":[],"categories_sizes":[],"default_left":[0,0,0,0,0,0,0,0,0,0,0,0,0,0,0,0,0,0,0,0,0,0,0,0,0,0,0,0,0,0,0,0,0,0,0,0,0,0,0,0,0,0,0,0,0,0,0,0,0,0,0,0,0,0,0,0,0,0,0,0,0,0,0,0,0],"id":21,"left_children":[1,3,5,7,9,11,13,15,17,19,21,23,-1,25,27,29,31,33,35,-1,37,-1,-1,39,-1,-1,41,-1,-1,43,45,47,49,51,53,55,57,59,-1,61,-1,-1,63,-1,-1,-1,-1,-1,-1,-1,-1,-1,-1,-1,-1,-1,-1,-1,-1,-1,-1,-1,-1,-1,-1],"loss_changes":[6.1287484E0,5.430387E0,2.0513191E0,7.757203E0,1.3198051E0,3.2553272E0,2.0806103E0,1.3145637E1,7.850314E0,2.808454E-1,2.4825096E-1,1.1024953E0,0E0,7.5493383E-1,1.9167223E0,5.6159277E0,6.6815357E0,1.2071411E1,2.311421E0,0E0,2.689042E-1,0E0,0E0,3.8705838E0,0E0,0E0,5.350152E-1,0E0,0E0,1.1773119E1,7.1874204E0,2.3290176E0,6.7541003E-3,3.5450193E-1,8.072176E0,1.6935441E0,1.8387356E0,1.5089071E-1,0E0,7.305371E-1,0E0,0E0,9.445039E-1,0E0,0E0,0E0,0E0,0E0,0E0,0E0,0E0,0E0,0E0,0E0,0E0,0E0,0E0,0E0,0E0,0E0,0E0,0E0,0E0,0E0,0E0],"parents":[2147483647,0,0,1,1,2,2,3,3,4,4,5,5,6,6,7,7,8,8,9,9,10,10,11,11,13,13,14,14,15,15,16,16,17,17,18,18,20,20,23,23,26,26,29,29,30,30,31,31,32,32,33,33,34,34,35,35,36,36,37,37,39,39,42,42],"right_children":[2,4,6,8,10,12,14,16,18,20,22,24,-1,26,28,30,32,34,36,-1,38,-1,-1,40,-1,-1,42,-1,-1,44,46,48,50,52,54,56,58,60,-1,62,-1,-1,64,-1,-1,-1,-1,-1,-1,-1,-1,-1,-1,-1,-1,-1,-1,-1,-1,-1,-1,-1,-1,-1,-1],"split_conditions":[5.5E1,7.9E1,4.6E1,4.8E1,2.5E1,4.4E1,7.5E1,6.6E1,4.1E1,7E0,8E1,6.3E1,-3.3829653E-1,5.5E1,5E1,5.9E1,6.1E1,5.1E1,3.4E1,-2.5634767E-2,1.01E2,8.356247E-2,3.8714907E-1,4.8E1,2.0359613E-1,2.2794251E-1,5.6E1,4.4496462E-1,-9.828187E-3,5.2E1,2E1,2.5E1,1E0,5E1,2.2E1,3E1,7E1,9.2E1,-1.3584138E-2,1.8E1,-3.6331102E-1,1.6654083E-1,9.7E1,-2.6973145E-2,2.052371E-1,-2.6911187E-1,3.5892794E-1,9.29245E-2,5.176418E-1,-1.4643174E-1,-3.744507E-2,-2.2356035E-3,1.428772E-1,-1.602768E-1,-7.1929014E-1,8.859787E-2,-2.9625702E-1,-5.373322E-2,1.9826967E-1,7.1331486E-2,1.8901521E-1,1.5258142E-1,-7.298813E-2,8.370972E-3,2.333542E-1],"split_indices":[4,1,1,4,3,1,2,2,3,3,1,4,0,2,3,2,1,2,1,0,1,0,0,3,0,0,1,0,0,2,0,1,0,4,3,1,2,1,0,0,0,0,1,0,0,0,0,0,0,0,0,0,0,0,0,0,0,0,0,0,0,0,0,0,0],"split_type":[0,0,0,0,0,0,0,0,0,0,0,0,0,0,0,0,0,0,0,0,0,0,0,0,0,0,0,0,0,0,0,0,0,0,0,0,0,0,0,0,0,0,0,0,0,0,0,0,0,0,0,0,0,0,0,0,0,0,0,0,0,0,0,0,0],"sum_hessian":[3.01E2,2.66E2,3.5E1,2.54E2,1.2E1,1.1E1,2.4E1,2.27E2,2.7E1,9E0,3E0,1E1,1E0,2E1,4E0,2.17E2,1E1,1.5E1,1.2E1,1E0,8E0,1E0,2E0,7E0,3E0,4E0,1.6E1,3E0,1E0,2.04E2,1.3E1,8E0,2E0,5E0,1E1,3E0,9E0,7E0,1E0,6E0,1E0,4E0,1.2E1,1.83E2,2.1E1,1.2E1,1E0,2E0,6E0,1E0,1E0,3E0,2E0,5E0,5E0,1E0,2E0,4E0,5E0,4E0,3E0,5E0,1E0,1.1E1,1E0],"tree_param":{"num_deleted":"0","num_feature":"5","num_nodes":"65","size_leaf_vector":"1"}},{"base_weights":[2.3421288E-2,-6.7798145E-2,1.7877388E-1,-8.107901E-2,3.6833498E-1,-2.6513824E-1,2.7231655E-1,-1.177387E-1,3.8819557E-1,-8.7110645E-1,-5.0750733E-3,7.8318375E-1,7.298032E-2,-1.5737801E-3,-3.228178E-1,7.748718E-1,2.1229553E-1,-1.1160431E0,5.30365E-2,2.105423E-1,-1.6781147E-1,1.3802294E0,2.5333506E-1,-1.2676889E-1,4.9639997E-1,-1.4030527E-1,3.915512E-1,-5.70904E-1,-4.0309783E-2,6.807175E-2,2.6456758E-1,2.79324E-1,-1.7866516E-2,-1.0131112E-1,-3.6786062E-1,-3.4601384E-1,5.415344E-1,2.4335225E-1,1.5832695E0,3.607882E-2,3.3310014E-1,-3.8370746E-1,4.4694722E-1,-3.6184365E-1,8.4085655E-1,-1.603553E-2,-2.1591996E-1,-1.376532E-1,2.333568E-1,4.2073674E-2,-3.2271633E-1,2.2294044E-1,-6.58663E-2,1.0159302E-2,1.0338528E-1,6.453323E-2,-2.5484085E-1,3.4412384E-2,2.0927812E-1,-5.312233E-2,1.6263086E-1,1.0435181E-1,5.0456727E-1,-1.1918946E-1,1.0698052E-1,-2.932896E-1,6.983643E-2,2.1883393E-2,2.2952443E-1,-3.3561632E-1,-1.4773179E-2,7.240143E-2,3.2742754E-1],"categories":[],"categories_nodes":[],"categories_segments":[],"categories_sizes":[],"default_left":[0,0,0,0,0,0,0,0,0,0,0,0,0,0,0,0,0,0,0,0,0,0,0,0,0,0,0,0,0,0,0,0,0,0,0,0,0,0,0,0,0,0,0,0,0,0,0,0,0,0,0,0,0,0,0,0,0,0,0,0,0,0,0,0,0,0,0,0,0,0,0,0,0],"id":22,"left_children":[1,3,5,7,-1,9,11,13,15,17,19,21,23,25,27,29,31,33,-1,-1,35,37,39,41,43,45,47,49,51,-1,-1,53,-1,-1,-1,55,57,59,61,63,-1,65,67,69,71,-1,-1,-1,-1,-1,-1,-1,-1,-1,-1,-1,-1,-1,-1,-1,-1,-1,-1,-1,-1,-1,-1,-1,-1,-1,-1,-1,-1],"loss_changes":[4.2918153E0,3.3859777E0,4.7229705E0,3.314364E0,0E0,3.1473794E0,9.413439E0,4.216162E0,7.8772736E-1,1.7373104E0,1.8433045E0,7.8752766E0,5.8142138E0,6.2723613E0,4.462513E0,3.4466743E-2,2.1707422E-1,1.4611721E-2,0E0,0E0,1.8306713E0,2.3846893E0,2.7527652E0,7.099757E0,6.8080664E0,4.239183E0,1.0212267E1,1.2356878E1,4.516432E0,0E0,0E0,1.3257217E-1,0E0,0E0,0E0,3.290245E0,1.1981112E-1,4.7280067E-1,6.3336945E-1,1.9474715E0,0E0,1.2310591E1,1.7289364E0,1.6011074E0,2.1401253E0,0E0,0E0,0E0,0E0,0E0,0E0,0E0,0E0,0E0,0E0,0E0,0E0,0E0,0E0,0E0,0E0,0E0,0E0,0E0,0E0,0E0,0E0,0E0,0E0,0E0,0E0,0E0,0E0],"parents":[2147483647,0,0,1,1,2,2,3,3,5,5,6,6,7,7,8,8,9,9,10,10,11,11,12,12,13,13,14,14,15,15,16,16,17,17,20,20,21,21,22,22,23,23,24,24,25,25,26,26,27,27,28,28,31,31,35,35,36,36,37,37,38,38,39,39,41,41,42,42,43,43,44,44],"right_children":[2,4,6,8,-1,10,12,14,16,18,20,22,24,26,28,30,32,34,-1,-1,36,38,40,42,44,46,48,50,52,-1,-1,54,-1,-1,-1,56,58,60,62,64,-1,66,68,70,72,-1,-1,-1,-1,-1,-1,-1,-1,-1,-1,-1,-1,-1,-1,-1,-1,-1,-1,-1,-1,-1,-1,-1,-1,-1,-1,-1,-1],"split_conditions":[2.4E1,3.2E1,3.6E1,5.4E1,3.6833498E-1,3.5E1,3.6E1,4E1,6E1,1E1,3.8E1,3E1,4E0,2.7E1,5.7E1,4.5E1,1.7E1,2.4E1,5.30365E-2,2.105423E-1,6.3E1,2.6E1,5.9E1,4.8E1,3E1,3.3E1,1.9E1,3.7E1,6.1E1,6.807175E-2,2.6456758E-1,1E0,-1.7866516E-2,-1.0131112E-1,-3.6786062E-1,3E1,3.2E1,4.2E1,3.1E1,3.6E1,3.3310014E-1,6.2E1,5.4E1,9E0,4.1E1,-1.603553E-2,-2.1591996E-1,-1.376532E-1,2.333568E-1,4.2073674E-2,-3.2271633E-1,2.2294044E-1,-6.58663E-2,1.0159302E-2,1.0338528E-1,6.453323E-2,-2.5484085E-1,3.4412384E-2,2.0927812E-1,-5.312233E-2,1.6263086E-1,1.0435181E-1,5.0456727E-1,-1.1918946E-1,1.0698052E-1,-2.932896E-1,6.983643E-2,2.1883393E-2,2.2952443E-1,-3.3561632E-1,-1.4773179E-2,7.240143E-2,3.2742754E-1],"split_indices":[3,0,1,4,0,4,4,1,2,0,4,3,0,4,1,2,3,1,0,0,4,4,1,3,3,1,1,2,1,0,0,3,0,0,0,1,1,1,2,3,0,1,4,0,1,0,0,0,0,0,0,0,0,0,0,0,0,0,0,0,0,0,0,0,0,0,0,0,0,0,0,0,0],"split_type":[0,0,0,0,0,0,0,0,0,0,0,0,0,0,0,0,0,0,0,0,0,0,0,0,0,0,0,0,0,0,0,0,0,0,0,0,0,0,0,0,0,0,0,0,0,0,0,0,0,0,0,0,0,0,0,0,0,0,0,0,0,0,0,0,0,0,0,0,0,0,0,0,0],"sum_hessian":[3.01E2,1.9E2,1.11E2,1.89E2,1E0,1.9E1,9.2E1,1.76E2,1.3E1,5E0,1.4E1,2.5E1,6.7E1,1.13E2,6.3E1,3E0,1E1,4E0,1E0,2E0,1.2E1,1.1E1,1.4E1,4.6E1,2.1E1,8.4E1,2.9E1,3.3E1,3E1,1E0,2E0,8E0,2E0,1E0,3E0,1E1,2E0,2E0,9E0,1.2E1,2E0,3.2E1,1.4E1,6E0,1.5E1,7.4E1,1E1,9E0,2E1,1.4E1,1.9E1,5E0,2.5E1,2E0,6E0,5E0,5E0,1E0,1E0,1E0,1E0,1E0,8E0,5E0,7E0,1.6E1,1.6E1,7E0,7E0,1E0,5E0,5E0,1E1],"tree_param":{"num_deleted":"0","num_feature":"5","num_nodes":"73","size_leaf_vector":"1"}},{"base_weights":[2.1366663E-2,-3.781147E-1,5.2566744E-2,-5.730475E-1,3.4648657E-2,3.082281E-2,5.3742474E-1,-3.4680763E-1,-1.1085052E0,-1.3978004E-1,2.4402237E-1,1.431205E-2,6.491111E-1,1.2693787E-1,7.268009E-1,-6.6109204E-1,2.2540894E-1,-3.959145E-1,-7.123146E-2,-6.710529E-2,-9.28243E-3,-8.680916E-3,1.0339623E-1,3.3706065E-2,-4.3481445E-1,1.0411377E-1,2.8085482E-1,-3.0166626E-2,7.251892E-2,1.822815E-2,2.4398085E-1,-2.3378994E-1,-6.1293792E-2,1.7478982E-1,-6.2085345E-2,3.1665803E-3,-7.343674E-3,1.4052303E-2,8.437195E-1,-1.4229965E0,1.1362839E-1,-1.1908722E-2,-1.6662598E-3,1.7078092E-3,3.130852E-1,5.6279755E-1,7.862E-2,-5.293152E-1,-5.9825137E-2,-1.8603823E-1,1.3847047E-1],"categories":[],"categories_nodes":[],"categories_segments":[],"categories_sizes":[],"default_left":[0,0,0,0,0,0,0,0,0,0,0,0,0,0,0,0,0,0,0,0,0,0,0,0,0,0,0,0,0,0,0,0,0,0,0,0,0,0,0,0,0,0,0,0,0,0,0,0,0,0,0],"id":23,"left_children":[1,3,5,7,9,11,13,15,17,19,21,23,25,27,29,31,33,-1,-1,-1,35,-1,-1,37,39,-1,-1,41,-1,-1,-1,-1,-1,-1,-1,-1,-1,43,45,47,49,-1,-1,-1,-1,-1,-1,-1,-1,-1,-1],"loss_changes":[3.7839594E0,1.7900002E0,2.9459395E0,1.4326901E0,3.2627574E-1,2.7469804E0,8.405783E-1,2.307081E0,4.2256021E-1,5.2670203E-2,1.19846284E-1,2.3141925E0,2.8210187E-1,9.746377E-2,4.113183E-1,2.7273798E-1,8.92823E-1,0E0,0E0,0E0,1.162771E-3,0E0,0E0,4.031776E0,6.123268E0,0E0,0E0,4.8312568E-4,0E0,0E0,0E0,0E0,0E0,0E0,0E0,0E0,0E0,2.1371415E0,3.11091E0,1.3190107E0,2.3286536E0,0E0,0E0,0E0,0E0,0E0,0E0,0E0,0E0,0E0,0E0],"parents":[2147483647,0,0,1,1,2,2,3,3,4,4,5,5,6,6,7,7,8,8,9,9,10,10,11,11,12,12,13,13,14,14,15,15,16,16,20,20,23,23,24,24,27,27,37,37,38,38,39,39,40,40],"right_children":[2,4,6,8,10,12,14,16,18,20,22,24,26,28,30,32,34,-1,-1,-1,36,-1,-1,38,40,-1,-1,42,-1,-1,-1,-1,-1,-1,-1,-1,-1,44,46,48,50,-1,-1,-1,-1,-1,-1,-1,-1,-1,-1],"split_conditions":[1.5E1,3E0,8.7E1,2.5E1,1.1E1,8.8E1,1.7E1,1.6E1,1E0,2E0,6E0,8E1,4.9E1,5.3E1,5.2E1,1.2E1,1.1E1,-3.959145E-1,-7.123146E-2,-6.710529E-2,8E0,-8.680916E-3,1.0339623E-1,7.8E1,4.3E1,1.0411377E-1,2.8085482E-1,9.2E1,7.251892E-2,1.822815E-2,2.4398085E-1,-2.3378994E-1,-6.1293792E-2,1.7478982E-1,-6.2085345E-2,3.1665803E-3,-7.343674E-3,4.4E1,2.9E1,2E0,3.4E1,-1.1908722E-2,-1.6662598E-3,1.7078092E-3,3.130852E-1,5.6279755E-1,7.862E-2,-5.293152E-1,-5.9825137E-2,-1.8603823E-1,1.3847047E-1],"split_indices":[2,0,1,1,2,2,3,1,0,3,0,2,1,4,2,2,2,0,0,0,0,0,0,2,3,0,0,1,0,0,0,0,0,0,0,0,0,0,3,0,1,0,0,0,0,0,0,0,0,0,0],"split_type":[0,0,0,0,0,0,0,0,0,0,0,0,0,0,0,0,0,0,0,0,0,0,0,0,0,0,0,0,0,0,0,0,0,0,0,0,0,0,0,0,0,0,0,0,0,0,0,0,0,0,0],"sum_hessian":[3.01E2,2.1E1,2.8E2,1.4E1,7E0,2.69E2,1.1E1,1.1E1,3E0,4E0,3E0,2.63E2,6E0,4E0,7E0,7E0,4E0,2E0,1E0,2E0,2E0,1E0,2E0,2.53E2,1E1,4E0,2E0,2E0,2E0,1E0,6E0,5E0,2E0,2E0,2E0,1E0,1E0,2.48E2,5E0,3E0,7E0,1E0,1E0,2.47E2,1E0,1E0,4E0,2E0,1E0,2E0,5E0],"tree_param":{"num_deleted":"0","num_feature":"5","num_nodes":"51","size_leaf_vector":"1"}},{"base_weights":[1.6278494E-2,-4.3295313E-2,1.4456494E-1,-1.3106838E-1,7.688722E-2,6.650191E-2,4.5742556E-1,-2.3209246E-1,2.2549947E-1,1.6622996E-1,-4.0722656E-1,2.4949746E-1,-1.0472572E-1,1.0383087E0,2.3330282E-1,-1.6579824E-2,-7.6626897E-1,1.0183899E0,4.3327663E-2,1.5295896E-2,3.685696E-1,-1.0009651E0,-1.5430103E-1,-2.0938873E-1,4.4420624E-1,1.121223E-1,-7.881668E-1,3.8563845E-1,1.3351594E-1,-4.7375792E-1,5.334847E-1,-1.676661E-1,1.1375256E0,-1.5177729E0,1.5979473E-1,3.5309374E-1,5.7604983E-2,1.6234915E-1,-2.412796E-1,1.2812608E-1,-3.8113937E-1,-4.4273376E-3,5.1471746E-1,-2.1927388E-1,-5.0190586E-1,1.2849122E-1,-3.3135816E-1,-5.9823036E-1,4.5463562E-1,7.2278893E-1,-1.0166321E-1,-4.6233445E-1,2.1516591E-1,-1.9335785E0,2.9770407E-1,-8.8708496E-1,1.7693253E-1,7.1238875E-1,-5.4316714E-2,-2.5656272E-2,-2.3674212E-1,4.5232087E-1,5.378723E-3,-2.4601479E-1,-7.283051E-1,2.065346E-1,-2.4712235E-1,-7.5832374E-2,6.580509E-2,-4.6513595E-2,6.9633074E-2,-2.119446E-1,-6.344805E-2,-1.0788869E-1,1.854847E-1,6.6524185E-2,2.6202118E-1,-9.500199E-2,-3.6712647E-3,1.7320633E-2,-1.6065827E-1,-2.4183884E-1,5.0933836E-3,-1.1350251E-2,1.761635E-1,2.8890973E-1,6.2306214E-2,-2.70488E-1,1.10994615E-1,4.7837678E-1,3.480965E-2,-6.7155993E-1,-1.0706406E-1,1.8912356E-1,-7.875824E-3,-4.6440354E-1,-4.523163E-2,-4.2560577E-2,2.5107136E-1],"categories":[],"categories_nodes":[],"categories_segments":[],"categories_sizes":[],"default_left":[0,0,0,0,0,0,0,0,0,0,0,0,0,0,0,0,0,0,0,0,0,0,0,0,0,0,0,0,0,0,0,0,0,0,0,0,0,0,0,0,0,0,0,0,0,0,0,0,0,0,0,0,0,0,0,0,0,0,0,0,0,0,0,0,0,0,0,0,0,0,0,0,0,0,0,0,0,0,0,0,0,0,0,0,0,0,0,0,0,0,0,0,0,0,0,0,0,0,0],"id":24,"left_children":[1,3,5,7,9,11,13,15,17,19,21,23,25,27,29,31,33,35,37,39,41,43,45,47,49,51,53,-1,-1,55,57,59,61,63,65,-1,-1,67,-1,69,71,73,75,77,-1,-1,79,81,83,85,87,-1,89,91,93,95,-1,97,-1,-1,-1,-1,-1,-1,-1,-1,-1,-1,-1,-1,-1,-1,-1,-1,-1,-1,-1,-1,-1,-1,-1,-1,-1,-1,-1,-1,-1,-1,-1,-1,-1,-1,-1,-1,-1,-1,-1,-1,-1],"loss_changes":[2.3142977E0,2.193677E0,2.314174E0,4.3749695E0,3.8738737E0,2.4701724E0,2.2313533E0,1.0808744E1,3.8558168E0,2.2848585E0,1.9479532E0,3.4882803E0,6.164688E0,1.6102457E-1,3.4364452E0,1.204785E1,1.9032927E1,4.2927027E-1,2.4508529E0,2.0169482E0,1.7466846E0,1.7345061E0,1.2766201E0,3.3703806E0,4.1793656E0,5.782972E0,1.3013328E1,0E0,0E0,2.721115E0,1.5351579E0,3.0466313E0,3.2888594E0,7.5321693E0,7.3264537E0,0E0,0E0,5.5235934E-1,0E0,1.0665746E0,4.0251398E-1,2.434227E0,2.223267E0,5.6620345E-2,0E0,0E0,7.45888E-1,1.0368962E0,3.4866488E-1,2.0274858E0,4.106575E0,0E0,4.0541463E0,1.605217E0,6.6324764E-1,1.7131987E0,0E0,1.0760465E0,0E0,0E0,0E0,0E0,0E0,0E0,0E0,0E0,0E0,0E0,0E0,0E0,0E0,0E0,0E0,0E0,0E0,0E0,0E0,0E0,0E0,0E0,0E0,0E0,0E0,0E0,0E0,0E0,0E0,0E0,0E0,0E0,0E0,0E0,0E0,0E0,0E0,0E0,0E0,0E0,0E0],"parents":[2147483647,0,0,1,1,2,2,3,3,4,4,5,5,6,6,7,7,8,8,9,9,10,10,11,11,12,12,13,13,14,14,15,15,16,16,17,17,18,18,19,19,20,20,21,21,22,22,23,23,24,24,25,25,26,26,29,29,30,30,31,31,32,32,33,33,34,34,37,37,39,39,40,40,41,41,42,42,43,43,46,46,47,47,48,48,49,49,50,50,52,52,53,53,54,54,55,55,57,57],"right_children":[2,4,6,8,10,12,14,16,18,20,22,24,26,28,30,32,34,36,38,40,42,44,46,48,50,52,54,-1,-1,56,58,60,62,64,66,-1,-1,68,-1,70,72,74,76,78,-1,-1,80,82,84,86,88,-1,90,92,94,96,-1,98,-1,-1,-1,-1,-1,-1,-1,-1,-1,-1,-1,-1,-1,-1,-1,-1,-1,-1,-1,-1,-1,-1,-1,-1,-1,-1,-1,-1,-1,-1,-1,-1,-1,-1,-1,-1,-1,-1,-1,-1,-1],"split_conditions":[2.7E1,2E0,6.3E1,4.3E1,4.2E1,4.3E1,5.3E1,3.7E1,4.6E1,3.9E1,1E1,4E1,5.7E1,4.8E1,3.8E1,3.4E1,5.2E1,4.4E1,2.5E1,2.5E1,1.4E1,4E0,4.3E1,4.9E1,5.9E1,2.8E1,4.1E1,3.8563845E-1,1.3351594E-1,7.5E1,2E0,1E0,1.8E1,4.4E1,5.8E1,3.5309374E-1,5.7604983E-2,2.3E1,-2.412796E-1,1.4E1,2.6E1,3.8E1,5.4E1,4.4E1,-5.0190586E-1,1.2849122E-1,1.2E1,1E1,3.2E1,7E0,6E1,-4.6233445E-1,2.9E1,5.5E1,6E1,1E0,1.7693253E-1,3.7E1,-5.4316714E-2,-2.5656272E-2,-2.3674212E-1,4.5232087E-1,5.378723E-3,-2.4601479E-1,-7.283051E-1,2.065346E-1,-2.4712235E-1,-7.5832374E-2,6.580509E-2,-4.6513595E-2,6.9633074E-2,-2.119446E-1,-6.344805E-2,-1.0788869E-1,1.854847E-1,6.6524185E-2,2.6202118E-1,-9.500199E-2,-3.6712647E-3,1.7320633E-2,-1.6065827E-1,-2.4183884E-1,5.0933836E-3,-1.1350251E-2,1.761635E-1,2.8890973E-1,6.2306214E-2,-2.70488E-1,1.10994615E-1,4.7837678E-1,3.480965E-2,-6.7155993E-1,-1.0706406E-1,1.8912356E-1,-7.875824E-3,-4.6440354E-1,-4.523163E-2,-4.2560577E-2,2.5107136E-1],"split_indices":[3,0,1,4,4,4,2,2,2,2,0,2,1,4,3,2,2,1,3,4,3,0,2,1,2,3,3,0,0,1,0,0,3,1,2,0,0,1,0,1,4,4,1,1,0,0,3,0,4,0,2,0,3,4,2,0,0,4,0,0,0,0,0,0,0,0,0,0,0,0,0,0,0,0,0,0,0,0,0,0,0,0,0,0,0,0,0,0,0,0,0,0,0,0,0,0,0,0,0],"split_type":[0,0,0,0,0,0,0,0,0,0,0,0,0,0,0,0,0,0,0,0,0,0,0,0,0,0,0,0,0,0,0,0,0,0,0,0,0,0,0,0,0,0,0,0,0,0,0,0,0,0,0,0,0,0,0,0,0,0,0,0,0,0,0,0,0,0,0,0,0,0,0,0,0,0,0,0,0,0,0,0,0,0,0,0,0,0,0,0,0,0,0,0,0,0,0,0,0,0,0],"sum_hessian":[3.01E2,2.06E2,9.5E1,1.19E2,8.7E1,7.7E1,1.8E1,9.3E1,2.6E1,7.4E1,1.3E1,3.7E1,4E1,4E0,1.4E1,6.7E1,2.6E1,4E0,2.2E1,4.3E1,3.1E1,3E0,1E1,1.1E1,2.6E1,3.1E1,9E0,2E0,2E0,4E0,1E1,6E1,7E0,1.4E1,1.2E1,3E0,1E0,2E1,2E0,3.4E1,9E0,9E0,2.2E1,2E0,1E0,2E0,8E0,7E0,4E0,1.7E1,9E0,1E0,3E1,4E0,5E0,3E0,1E0,8E0,2E0,5.4E1,6E0,5E0,2E0,9E0,5E0,8E0,4E0,2E0,1.8E1,9E0,2.5E1,2E0,7E0,6E0,3E0,1.3E1,9E0,1E0,1E0,3E0,5E0,5E0,2E0,1E0,3E0,1.1E1,6E0,3E0,6E0,1E0,2.9E1,3E0,1E0,2E0,3E0,1E0,2E0,1E0,7E0],"tree_param":{"num_deleted":"0","num_feature":"5","num_nodes":"99","size_leaf_vector":"1"}},{"base_weights":[7.395852E-3,-6.457584E-3,5.173168E-1,-2.7923274E-1,1.7634554E-2,6.239802E-1,1.315511E-1,-3.9517146E-1,2.4036865E-1,-2.1057607E-1,2.5564292E-2,9.838372E-2,2.4320985E-1,7.804871E-4,5.8417514E-2,-5.8777016E-2,-7.997894E-1,2.0092966E-1,-3.442192E-2,1.6030276E-2,5.2766114E-1,-2.6868847E-1,1.9591586E-1,-1.1142025E0,-4.5688248E-1,-6.829605E-2,3.1761933E-2,7.005758E-2,-9.2204444E-2,2.3771668E-2,1.859871E-1,-1.02441035E-1,2.5200177E-2,5.8407784E-3,1.0976182E-1,-3.9835322E-1,-7.099171E-2,-9.5912935E-3,-1.606412E-1,3.4481983E-3,1.0106843E-1,8.1297286E-2,-5.2656338E-2],"categories":[],"categories_nodes":[],"categories_segments":[],"categories_sizes":[],"default_left":[0,0,0,0,0,0,0,0,0,0,0,0,0,0,0,0,0,0,0,0,0,0,0,0,0,0,0,0,0,0,0,0,0,0,0,0,0,0,0,0,0,0,0],"id":25,"left_children":[1,3,5,7,9,11,13,15,17,-1,19,-1,-1,-1,-1,21,23,-1,25,27,29,31,33,35,37,-1,-1,39,41,-1,-1,-1,-1,-1,-1,-1,-1,-1,-1,-1,-1,-1,-1],"loss_changes":[2.1367161E0,1.9435865E0,2.470913E-1,1.5407927E0,1.5699439E0,6.57866E-2,2.393214E-2,2.6752152E0,6.1302555E-1,0E0,1.2840313E0,0E0,0E0,0E0,0E0,6.9419575E-1,4.6127033E-1,0E0,1.325401E-1,1.5619292E0,1.5781283E-1,2.083686E-1,1.728066E-1,4.3571615E-1,1.8323839E-1,0E0,0E0,2.777723E0,2.7407253E0,0E0,0E0,0E0,0E0,0E0,0E0,0E0,0E0,0E0,0E0,0E0,0E0,0E0,0E0],"parents":[2147483647,0,0,1,1,2,2,3,3,4,4,5,5,6,6,7,7,8,8,10,10,15,15,16,16,18,18,19,19,20,20,21,21,22,22,23,23,24,24,27,27,28,28],"right_children":[2,4,6,8,10,12,14,16,18,-1,20,-1,-1,-1,-1,22,24,-1,26,28,30,32,34,36,38,-1,-1,40,42,-1,-1,-1,-1,-1,-1,-1,-1,-1,-1,-1,-1,-1,-1],"split_conditions":[8.8E1,5E0,3.8E1,4.6E1,7E0,1.9E1,5E0,2E1,4.8E1,-2.1057607E-1,7.9E1,9.838372E-2,2.4320985E-1,7.804871E-4,5.8417514E-2,1.6E1,2.3E1,2.0092966E-1,1E0,4.2E1,3.2E1,3E0,4E0,1E0,1.7E1,-6.829605E-2,3.1761933E-2,5.2E1,4.9E1,2.3771668E-2,1.859871E-1,-1.02441035E-1,2.5200177E-2,5.8407784E-3,1.0976182E-1,-3.9835322E-1,-7.099171E-2,-9.5912935E-3,-1.606412E-1,3.4481983E-3,1.0106843E-1,8.1297286E-2,-5.2656338E-2],"split_indices":[2,3,3,1,2,3,0,4,1,0,4,0,0,0,0,2,4,0,0,4,1,3,3,0,2,0,0,2,2,0,0,0,0,0,0,0,0,0,0,0,0,0,0],"split_type":[0,0,0,0,0,0,0,0,0,0,0,0,0,0,0,0,0,0,0,0,0,0,0,0,0,0,0,0,0,0,0,0,0,0,0,0,0,0,0,0,0,0,0],"sum_hessian":[3.01E2,2.94E2,7E0,2.3E1,2.71E2,5E0,2E0,1.9E1,4E0,2E0,2.69E2,3E0,2E0,1E0,1E0,1.1E1,8E0,1E0,3E0,2.65E2,4E0,6E0,5E0,3E0,5E0,1E0,2E0,1.77E2,8.8E1,1E0,3E0,5E0,1E0,3E0,2E0,2E0,1E0,1E0,4E0,1.46E2,3.1E1,1.6E1,7.2E1],"tree_param":{"num_deleted":"0","num_feature":"5","num_nodes":"43","size_leaf_vector":"1"}},{"base_weights":[5.495747E-3,-1.00030005E-2,3.2504162E-1,2.2528619E-3,-5.0406104E-1,-1.00115456E-1,5.72364E-1,-1.0020887E-2,4.8762077E-1,-8.4041595E-1,-4.1690826E-2,-1.7292939E-1,1.1043396E-1,2.319809E-1,3.4303284E-1,-3.569351E-2,1.9485523E-1,9.56337E-1,-1.0300064E-1,-3.4924623E-1,1.9619752E-2,-5.1628113E-2,5.2427676E-2,6.734314E-2,-4.0420532E-2,2.479706E-2,1.1357301E-1,-8.770817E-3,-3.4082755E-1,-2.219452E-1,2.6482365E-1,2.630768E-2,3.6499634E-1,-4.5494843E-2,-1.0870362E-2,6.637573E-4,-1.8852998E-2,-7.1095843E-3,3.3561403E-1,-1.5506645E-1,8.721955E-2,5.0854113E-2,-2.6816714E-1,2.5978396E-2,1.3503043E-1],"categories":[],"categories_nodes":[],"categories_segments":[],"categories_sizes":[],"default_left":[0,0,0,0,0,0,0,0,0,0,0,0,0,0,0,0,0,0,0,0,0,0,0,0,0,0,0,0,0,0,0,0,0,0,0,0,0,0,0,0,0,0,0,0,0],"id":26,"left_children":[1,3,5,7,9,11,13,15,17,19,21,-1,23,-1,25,27,29,31,33,-1,-1,-1,-1,-1,35,-1,-1,37,39,41,43,-1,-1,-1,-1,-1,-1,-1,-1,-1,-1,-1,-1,-1,-1],"loss_changes":[1.4989247E0,1.7510616E0,1.5294144E0,1.6907976E0,1.0536058E0,6.6538566E-1,1.4940834E-1,1.4638941E0,2.0363402E0,1.2491221E0,1.429776E-1,0E0,9.5093094E-2,0E0,2.423656E-2,2.0261233E0,9.6282506E-1,7.978022E-1,7.4974224E-3,0E0,0E0,0E0,0E0,0E0,3.0068993E-3,0E0,0E0,3.8639464E0,2.3741302E0,1.4667213E0,8.5261405E-1,0E0,0E0,0E0,0E0,0E0,0E0,0E0,0E0,0E0,0E0,0E0,0E0,0E0,0E0],"parents":[2147483647,0,0,1,1,2,2,3,3,4,4,5,5,6,6,7,7,8,8,9,9,10,10,12,12,14,14,15,15,16,16,17,17,18,18,24,24,27,27,28,28,29,29,30,30],"right_children":[2,4,6,8,10,12,14,16,18,20,22,-1,24,-1,26,28,30,32,34,-1,-1,-1,-1,-1,36,-1,-1,38,40,42,44,-1,-1,-1,-1,-1,-1,-1,-1,-1,-1,-1,-1,-1,-1],"split_conditions":[8.3E1,8E1,4E1,7.8E1,4.3E1,8.6E1,5.7E1,5.4E1,5.2E1,5.8E1,4.5E1,-1.7292939E-1,3.6E1,2.319809E-1,5.9E1,4.8E1,3.6E1,2.3E1,6.3E1,-3.4924623E-1,1.9619752E-2,-5.1628113E-2,5.2427676E-2,6.734314E-2,5E0,2.479706E-2,1.1357301E-1,4.7E1,7.5E1,3.2E1,3.3E1,2.630768E-2,3.6499634E-1,-4.5494843E-2,-1.0870362E-2,6.637573E-4,-1.8852998E-2,-7.1095843E-3,3.3561403E-1,-1.5506645E-1,8.721955E-2,5.0854113E-2,-2.6816714E-1,2.5978396E-2,1.3503043E-1],"split_indices":[2,2,1,2,3,2,1,4,1,1,1,0,1,0,1,4,1,1,1,0,0,0,0,0,0,0,0,4,1,1,3,0,0,0,0,0,0,0,0,0,0,0,0,0,0],"split_type":[0,0,0,0,0,0,0,0,0,0,0,0,0,0,0,0,0,0,0,0,0,0,0,0,0,0,0,0,0,0,0,0,0,0,0,0,0,0,0,0,0,0,0,0,0],"sum_hessian":[3.01E2,2.88E2,1.3E1,2.82E2,6E0,5E0,8E0,2.76E2,6E0,3E0,3E0,1E0,4E0,3E0,5E0,2.46E2,3E1,3E0,3E0,2E0,1E0,2E0,1E0,2E0,2E0,1E0,4E0,2.27E2,1.9E1,4E0,2.6E1,1E0,2E0,1E0,2E0,1E0,1E0,2.25E2,2E0,1.5E1,4E0,3E0,1E0,1.4E1,1.2E1],"tree_param":{"num_deleted":"0","num_feature":"5","num_nodes":"45","size_leaf_vector":"1"}},{"base_weights":[5.3607863E-3,-2.3423082E-1,2.4099771E-2,-1.2852354E-1,-8.608691E-1,1.3914233E-1,-2.2380562E-2,-4.7459373E-1,-1.23438835E-2,-3.431168E-2,-3.5307944E-1,-1.1435397E-3,8.105921E-1,-3.196751E-1,