{"learner":{"attributes":{"scikit_learn":"{\"_estimator_type\": \"regressor\"}"},"feature_names":["num_fish","num_chicken","num_vegetarian","num_meat","num_vegan"],"feature_types":["float","float","float","float","float"],"gradient_booster":{"model":{"gbtree_model_param":{"num_parallel_tree":"1","num_trees":"100"},"iteration_indptr":[0,1,2,3,4,5,6,7,8,9,10,11,12,13,14,15,16,17,18,19,20,21,22,23,24,25,26,27,28,29,30,31,32,33,34,35,36,37,38,39,40,41,42,43,44,45,46,47,48,49,50,51,52,53,54,55,56,57,58,59,60,61,62,63,64,65,66,67,68,69,70,71,72,73,74,75,76,77,78,79,80,81,82,83,84,85,86,87,88,89,90,91,92,93,94,95,96,97,98,99,100],"tree_info":[0,0,0,0,0,0,0,0,0,0,0,0,0,0,0,0,0,0,0,0,0,0,0,0,0,0,0,0,0,0,0,0,0,0,0,0,0,0,0,0,0,0,0,0,0,0,0,0,0,0,0,0,0,0,0,0,0,0,0,0,0,0,0,0,0,0,0,0,0,0,0,0,0,0,0,0,0,0,0,0,0,0,0,0,0,0,0,0,0,0,0,0,0,0,0,0,0,0,0,0],"trees":[{"base_weights":[-1.0905059E-5,-2.1259721E2,2.1577019E1,-2.3069365E2,5.129718E1,-1.3854967E2,3.4937393E1,-2.510362E2,-3.665381E1,3.013614E0,2.0070118E1,-1.8953485E2,-2.1184885E1,1.4200038E1,1.2479281E2,-7.701566E1,-1.6345387E1,-2.2346265E2,-1.042965E2,-6.4337395E1,7.8613806E0,-1.0255469E1,9.134287E1,9.661616E1,1.6068405E2,-7.030998E1,-1.5527889E1,-8.83039E0,-3.3560314E1,1.0667175E1,-3.5368855E1,-5.703191E1,5.5127163E1,6.846309E1,5.6735394E1,2.2771606E0,1.0226466E2,9.45315E0,5.1298447E1,9.904614E0,-5.1043854E0,-2.4762068E1,3.9312835E0,1.2360669E1,5.311257E1,1.263907E1,4.516021E1,-2.686386E0,3.7111084E0,2.717608E1,4.486278E1],"categories":[],"categories_nodes":[],"categories_segments":[],"categories_sizes":[],"default_left":[0,0,0,0,0,0,0,0,0,0,0,0,0,0,0,0,0,0,0,0,0,0,0,0,0,0,0,0,0,0,0,0,0,0,0,0,0,0,0,0,0,0,0,0,0,0,0,0,0,0,0],"id":0,"left_children":[1,3,5,7,9,11,13,15,-1,-1,-1,17,19,21,23,-1,-1,25,27,29,-1,31,33,35,37,-1,-1,-1,-1,39,-1,41,43,45,-1,47,49,-1,-1,-1,-1,-1,-1,-1,-1,-1,-1,-1,-1,-1,-1],"loss_changes":[1.6926828E6,1.7420262E5,7.215237E5,3.996725E4,1.2589419E3,1.5156522E5,5.7587075E5,1.5053125E4,0E0,0E0,0E0,2.8748688E4,2.0090715E4,4.7823825E5,4.3130438E4,0E0,0E0,1.03361875E4,6.7478125E2,2.1343383E4,0E0,5.934088E5,1.2351384E5,1.841775E4,2.6576938E4,0E0,0E0,0E0,0E0,2.4176592E3,0E0,2.0324494E5,1.3021555E5,1.03877234E5,0E0,4.5086572E2,4.6726875E3,0E0,0E0,0E0,0E0,0E0,0E0,0E0,0E0,0E0,0E0,0E0,0E0,0E0,0E0],"parents":[2147483647,0,0,1,1,2,2,3,3,4,4,5,5,6,6,7,7,11,11,12,12,13,13,14,14,17,17,18,18,19,19,21,21,22,22,23,23,24,24,29,29,31,31,32,32,33,33,35,35,36,36],"right_children":[2,4,6,8,10,12,14,16,-1,-1,-1,18,20,22,24,-1,-1,26,28,30,-1,32,34,36,38,-1,-1,-1,-1,40,-1,42,44,46,-1,48,50,-1,-1,-1,-1,-1,-1,-1,-1,-1,-1,-1,-1,-1,-1],"split_conditions":[1.65E2,3.35E2,4.7E1,1.91E2,1.12E2,3.76E2,3.03E2,2.2E2,-3.665381E1,3.013614E0,2.0070118E1,2.6E2,4E0,2.97E2,4.11E2,-7.701566E1,-1.6345387E1,2.08E2,2E0,1E0,7.8613806E0,2.67E2,4.16E2,1.97E2,8.8E1,-7.030998E1,-1.5527889E1,-8.83039E0,-3.3560314E1,1E0,-3.5368855E1,2.07E2,4.48E2,3.24E2,5.6735394E1,1.63E2,4.7E1,9.45315E0,5.1298447E1,9.904614E0,-5.1043854E0,-2.4762068E1,3.9312835E0,1.2360669E1,5.311257E1,1.263907E1,4.516021E1,-2.686386E0,3.7111084E0,2.717608E1,4.486278E1],"split_indices":[4,3,0,1,0,4,3,3,0,0,0,1,3,1,3,0,0,3,0,3,0,0,1,4,0,0,0,0,0,0,0,3,0,4,0,0,1,0,0,0,0,0,0,0,0,0,0,0,0,0,0],"split_type":[0,0,0,0,0,0,0,0,0,0,0,0,0,0,0,0,0,0,0,0,0,0,0,0,0,0,0,0,0,0,0,0,0,0,0,0,0,0,0,0,0,0,0,0,0,0,0,0,0,0,0],"sum_hessian":[3.67E2,3.3E1,3.34E2,3.1E1,2E0,2.5E1,3.09E2,2.5E1,6E0,1E0,1E0,1.7E1,8E0,2.52E2,5.7E1,2.4E1,1E0,1.1E1,6E0,4E0,4E0,1.92E2,6E1,3.4E1,2.3E1,1E1,1E0,1E0,5E0,2E0,2E0,1.12E2,8E1,5E1,1E1,2E0,3.2E1,2E0,2.1E1,1E0,1E0,8.2E1,3E1,7.3E1,7E0,3.9E1,1.1E1,1E0,1E0,2.8E1,4E0],"tree_param":{"num_deleted":"0","num_feature":"5","num_nodes":"51","size_leaf_vector":"1"}},{"base_weights":[9.543639E-2,-1.3991408E2,1.711758E1,-1.5693495E2,5.2507523E1,-9.141694E1,2.7517527E1,-1.6796649E2,-2.3933136E1,2.5615723E0,1.9295296E1,-1.3304382E2,-1.1205334E1,1.29044695E1,8.984527E1,-1.7277376E2,-6.07003E1,-1.1372266E1,2.6985168E0,-6.062081E1,-9.395831E1,-3.783184E1,4.4849014E1,7.013155E-1,9.41098E1,7.2606026E1,1.376082E2,-1.7535924E2,-1.3893577E1,-2.3157816E1,-4.157318E0,-3.0943665E1,-4.5203835E1,-7.796891E1,1.8441833E0,3.772403E0,1.5424671E1,-2.589492E1,5.6967247E1,7.239915E1,1.7612279E2,5.7826843E1,1.1707258E2,1.4245558E2,1.1188843E1,-5.5119053E1,-2.8525301E1,-2.0561813E1,3.7204194E0,-2.8295078E1,-4.33873E0,5.5821075E0,-9.781078E0,-1.3130105E1,-6.9373214E-1,1.3434497E1,3.996864E1,1.741123E1,5.038411E1,5.7087082E1,1.5792802E1,1.0060901E1,2.7560146E1,1.7591917E1,4.387636E1,3.0945116E1,5.5414154E1],"categories":[],"categories_nodes":[],"categories_segments":[],"categories_sizes":[],"default_left":[0,0,0,0,0,0,0,0,0,0,0,0,0,0,0,0,0,0,0,0,0,0,0,0,0,0,0,0,0,0,0,0,0,0,0,0,0,0,0,0,0,0,0,0,0,0,0,0,0,0,0,0,0,0,0,0,0,0,0,0,0,0,0,0,0,0,0],"id":1,"left_children":[1,3,5,7,9,11,13,15,17,-1,-1,19,21,23,25,27,29,-1,-1,-1,31,33,35,37,39,41,43,45,-1,-1,-1,-1,47,49,51,-1,-1,53,55,57,59,61,63,65,-1,-1,-1,-1,-1,-1,-1,-1,-1,-1,-1,-1,-1,-1,-1,-1,-1,-1,-1,-1,-1,-1,-1],"loss_changes":[8.794355E5,1.3924762E5,3.738753E5,5.0267E4,1.5279326E3,9.533903E4,2.72991E5,7.044875E3,2.18159E3,0E0,0E0,3.2273969E4,1.8114568E4,2.4271947E5,3.694247E4,2.3415625E3,1.2479268E3,0E0,0E0,0E0,1.6082891E3,1.2883624E4,2.0119043E2,3.2171803E5,4.4226656E4,2.2145969E4,1.4944375E3,3.361375E3,0E0,0E0,0E0,0E0,6.226981E3,2.7887676E3,3.493869E3,0E0,0E0,6.1433164E4,5.8154938E4,2.7303016E4,4.7901562E2,2.5859078E4,8.475516E3,2.5392812E3,0E0,0E0,0E0,0E0,0E0,0E0,0E0,0E0,0E0,0E0,0E0,0E0,0E0,0E0,0E0,0E0,0E0,0E0,0E0,0E0,0E0,0E0,0E0],"parents":[2147483647,0,0,1,1,2,2,3,3,4,4,5,5,6,6,7,7,8,8,11,11,12,12,13,13,14,14,15,15,16,16,20,20,21,21,22,22,23,23,24,24,25,25,26,26,27,27,32,32,33,33,34,34,37,37,38,38,39,39,40,40,41,41,42,42,43,43],"right_children":[2,4,6,8,10,12,14,16,18,-1,-1,20,22,24,26,28,30,-1,-1,-1,32,34,36,38,40,42,44,46,-1,-1,-1,-1,48,50,52,-1,-1,54,56,58,60,62,64,66,-1,-1,-1,-1,-1,-1,-1,-1,-1,-1,-1,-1,-1,-1,-1,-1,-1,-1,-1,-1,-1,-1,-1],"split_conditions":[1.71E2,3.35E2,6.7E1,2.36E2,1.12E2,3.76E2,3.03E2,3.39E2,2.53E2,2.5615723E0,1.9295296E1,1E0,5.24E2,3.54E2,3.21E2,2.2E2,1.8E1,-1.1372266E1,2.6985168E0,-6.062081E1,2.81E2,4E0,6.33E2,2.99E2,4.63E2,2.39E2,4.58E2,1E0,-1.3893577E1,-2.3157816E1,-4.157318E0,-3.0943665E1,6E0,1.6E1,2.2E1,3.772403E0,1.5424671E1,1.92E2,4.48E2,3.46E2,1E0,1E0,3.26E2,4.12E2,1.1188843E1,-5.5119053E1,-2.8525301E1,-2.0561813E1,3.7204194E0,-2.8295078E1,-4.33873E0,5.5821075E0,-9.781078E0,-1.3130105E1,-6.9373214E-1,1.3434497E1,3.996864E1,1.741123E1,5.038411E1,5.7087082E1,1.5792802E1,1.0060901E1,2.7560146E1,1.7591917E1,4.387636E1,3.0945116E1,5.5414154E1],"split_indices":[4,3,0,0,0,4,3,1,0,0,0,1,4,1,4,3,0,0,0,0,4,3,4,0,1,0,4,2,0,0,0,0,0,0,0,0,0,1,0,4,3,1,3,3,0,0,0,0,0,0,0,0,0,0,0,0,0,0,0,0,0,0,0,0,0,0,0],"split_type":[0,0,0,0,0,0,0,0,0,0,0,0,0,0,0,0,0,0,0,0,0,0,0,0,0,0,0,0,0,0,0,0,0,0,0,0,0,0,0,0,0,0,0,0,0,0,0,0,0,0,0,0,0,0,0,0,0,0,0,0,0,0,0,0,0,0,0],"sum_hessian":[3.67E2,3.9E1,3.28E2,3.6E1,3E0,2.8E1,3E2,3.3E1,3E0,1E0,2E0,1.8E1,1E1,2.44E2,5.6E1,3.1E1,2E0,2E0,1E0,5E0,1.3E1,7E0,3E0,2.13E2,3.1E1,4.3E1,1.3E1,3E1,1E0,1E0,1E0,1E1,3E0,3E0,4E0,1E0,2E0,1.45E2,6.8E1,2.6E1,5E0,3.4E1,9E0,1.2E1,1E0,2.6E1,4E0,2E0,1E0,2E0,1E0,3E0,1E0,8.2E1,6.3E1,6E1,8E0,2.4E1,2E0,4E0,1E0,2.1E1,1.3E1,4E0,5E0,8E0,4E0],"tree_param":{"num_deleted":"0","num_feature":"5","num_nodes":"67","size_leaf_vector":"1"}},{"base_weights":[4.4500655E-1,-1.00731606E2,1.2744762E1,-1.134633E2,4.2219482E1,-1.6256329E0,5.8241272E1,-1.21248695E2,-1.8921646E1,2.1773348E0,1.5436236E1,-1.8848328E1,4.3176594E1,3.4268227E1,7.854448E1,-4.8075565E1,-1.0308418E2,-9.0978155E0,2.2937348E0,-4.81672E1,2.986471E1,3.0889822E1,1.1380825E2,1.3239478E1,6.2355286E1,6.6906654E1,4.1166092E1,-3.187957E1,-3.5337205E0,-6.943358E1,-1.4015779E1,1.4896933E1,1.0743145E2,9.142787E0,6.1839844E1,2.3871752E1,5.015025E1,-2.3983047E1,3.1023273E1,4.353817E1,3.237663E1,4.8897026E1,1.0035197E2,-3.7491917E1,-1.3887586E1,-2.559228E1,-2.0677118E0,1.0583358E1,-1.7941679E0,1.8457523E1,4.0629776E1,1.2545051E1,-6.216298E0,3.8670564E0,3.413834E1,7.640351E0,-1.7624144E1,1.1068402E1,-8.557156E0,1.5617158E1,5.848891E0,-8.596564E0,1.5943598E1,1.2488622E1,3.459029E1],"categories":[],"categories_nodes":[],"categories_segments":[],"categories_sizes":[],"default_left":[0,0,0,0,0,0,0,0,0,0,0,0,0,0,0,0,0,0,0,0,0,0,0,0,0,0,0,0,0,0,0,0,0,0,0,0,0,0,0,0,0,0,0,0,0,0,0,0,0,0,0,0,0,0,0,0,0,0,0,0,0,0,0,0,0],"id":2,"left_children":[1,3,5,7,9,11,13,15,17,-1,-1,19,21,23,25,-1,27,-1,-1,29,31,33,35,37,39,41,-1,-1,-1,43,45,47,49,51,53,-1,-1,55,57,59,-1,61,63,-1,-1,-1,-1,-1,-1,-1,-1,-1,-1,-1,-1,-1,-1,-1,-1,-1,-1,-1,-1,-1,-1],"loss_changes":[4.5924053E5,7.759075E4,2.1519581E5,2.4939438E4,9.179917E2,1.9448919E5,3.5760062E4,7.5686562E3,1.4438091E3,0E0,0E0,2.6137294E5,5.7232945E4,2.1618602E4,1.949914E4,0E0,6.2999062E3,0E0,0E0,8.182244E4,7.85087E4,4.049195E4,4.966E3,1.5969061E4,9.020242E3,1.7379578E4,0E0,0E0,0E0,8.418394E4,2.2264852E4,2.5315637E4,5.807242E3,3.6969992E4,6.2112195E4,0E0,0E0,1.5249086E4,6.646377E3,1.6476484E3,0E0,1.008898E4,5.7343984E3,0E0,0E0,0E0,0E0,0E0,0E0,0E0,0E0,0E0,0E0,0E0,0E0,0E0,0E0,0E0,0E0,0E0,0E0,0E0,0E0,0E0,0E0],"parents":[2147483647,0,0,1,1,2,2,3,3,4,4,5,5,6,6,7,7,8,8,11,11,12,12,13,13,14,14,16,16,19,19,20,20,21,21,22,22,23,23,24,24,25,25,29,29,30,30,31,31,32,32,33,33,34,34,37,37,38,38,39,39,41,41,42,42],"right_children":[2,4,6,8,10,12,14,16,18,-1,-1,20,22,24,26,-1,28,-1,-1,30,32,34,36,38,40,42,-1,-1,-1,44,46,48,50,52,54,-1,-1,56,58,60,-1,62,64,-1,-1,-1,-1,-1,-1,-1,-1,-1,-1,-1,-1,-1,-1,-1,-1,-1,-1,-1,-1,-1,-1],"split_conditions":[1.71E2,3.35E2,2.58E2,2.36E2,1.12E2,2.99E2,1.69E2,3.4E1,2.53E2,2.1773348E0,1.5436236E1,2.71E2,2.48E2,9E0,4.7E1,-4.8075565E1,2.92E2,-9.0978155E0,2.2937348E0,2.06E2,4.16E2,3.1E1,3.23E2,2.5E2,3.99E2,4.08E2,4.1166092E1,-3.187957E1,-3.5337205E0,2E0,1.83E2,1.23E2,4.63E2,3.37E2,3.53E2,2.3871752E1,5.015025E1,2.14E2,2E0,2.65E2,3.237663E1,2.6E2,2.01E2,-3.7491917E1,-1.3887586E1,-2.559228E1,-2.0677118E0,1.0583358E1,-1.7941679E0,1.8457523E1,4.0629776E1,1.2545051E1,-6.216298E0,3.8670564E0,3.413834E1,7.640351E0,-1.7624144E1,1.1068402E1,-8.557156E0,1.5617158E1,5.848891E0,-8.596564E0,1.5943598E1,1.2488622E1,3.459029E1],"split_indices":[4,3,3,0,0,0,0,0,0,0,0,1,1,1,1,0,1,0,0,0,1,3,4,4,3,3,0,0,0,1,4,0,1,4,0,0,0,4,1,4,0,3,0,0,0,0,0,0,0,0,0,0,0,0,0,0,0,0,0,0,0,0,0,0,0],"split_type":[0,0,0,0,0,0,0,0,0,0,0,0,0,0,0,0,0,0,0,0,0,0,0,0,0,0,0,0,0,0,0,0,0,0,0,0,0,0,0,0,0,0,0,0,0,0,0,0,0,0,0,0,0,0,0,0,0,0,0,0,0,0,0,0,0],"sum_hessian":[3.67E2,3.9E1,3.28E2,3.6E1,3E0,2.5E2,7.8E1,3.3E1,3E0,1E0,2E0,1.81E2,6.9E1,3.7E1,4.1E1,8E0,2.5E1,2E0,1E0,1.13E2,6.8E1,6E1,9E0,2.2E1,1.5E1,3.6E1,5E0,2.4E1,1E0,6.9E1,4.4E1,5.8E1,1E1,3.6E1,2.4E1,7E0,2E0,7E0,1.5E1,1.2E1,3E0,2.5E1,1.1E1,1.9E1,5E1,3E0,4.1E1,2.9E1,2.9E1,5E0,5E0,1.7E1,1.9E1,1.3E1,1.1E1,3E0,4E0,1.4E1,1E0,8E0,4E0,1E0,2.4E1,3E0,8E0],"tree_param":{"num_deleted":"0","num_feature":"5","num_nodes":"65","size_leaf_vector":"1"}},{"base_weights":[7.910558E-1,-8.204672E1,8.654611E0,-9.056108E1,3.0445791E1,-6.2488052E1,1.4555427E1,-4.2547073E1,-7.7219795E1,1.850734E0,1.1849873E1,2.3433527E1,-7.9175316E1,-5.2754807E0,3.011034E1,-7.904637E1,-4.733309E0,9.956783E0,-2.3384218E0,-3.5899117E1,-5.651319E1,-1.823052E1,3.649754E1,1.5394262E1,4.9987766E1,-2.6368315E1,-1.4777267E1,-2.0400032E1,-1.7641949E1,-4.266825E1,2.6623005E1,-9.922806E0,4.9376972E1,-1.0019307E1,4.0023067E1,2.8029161E1,7.6420296E1,-9.435721E0,6.147461E-1,-2.0117815E1,-6.655912E0,-1.5234821E0,1.3598104E1,-1.3359529E1,5.9246764E0,1.0635125E1,2.2884129E1,-1.9700624E1,2.636223E0,3.1059475E1,7.836923E0,-5.289602E0,1.0838741E1,1.642278E1,2.9635214E1],"categories":[],"categories_nodes":[],"categories_segments":[],"categories_sizes":[],"default_left":[0,0,0,0,0,0,0,0,0,0,0,0,0,0,0,0,0,0,0,0,0,0,0,0,0,0,0,0,0,0,0,0,0,0,0,0,0,0,0,0,0,0,0,0,0,0,0,0,0,0,0,0,0,0,0],"id":3,"left_children":[1,3,5,7,9,11,13,-1,15,-1,-1,17,19,21,23,25,-1,-1,-1,-1,27,29,31,33,35,-1,-1,-1,37,39,41,43,45,47,49,51,53,-1,-1,-1,-1,-1,-1,-1,-1,-1,-1,-1,-1,-1,-1,-1,-1,-1,-1],"loss_changes":[2.4042506E5,3.340686E4,1.4238206E5,9.565656E3,4.1570996E2,3.9134062E4,9.640089E4,0E0,1.6707656E3,0E0,0E0,1.781978E3,1.3423594E4,7.534699E4,5.0421062E4,2.2598281E3,0E0,0E0,0E0,0E0,5.9445156E3,1.17324516E5,2.0219594E4,6.42434E4,4.0809203E4,0E0,0E0,0E0,1.4241663E3,3.298297E4,2.2761936E4,9.094714E3,7.0373086E3,5.3952805E4,4.319936E4,1.6170906E4,1.0590531E4,0E0,0E0,0E0,0E0,0E0,0E0,0E0,0E0,0E0,0E0,0E0,0E0,0E0,0E0,0E0,0E0,0E0,0E0],"parents":[2147483647,0,0,1,1,2,2,3,3,4,4,5,5,6,6,8,8,11,11,12,12,13,13,14,14,15,15,20,20,21,21,22,22,23,23,24,24,28,28,29,29,30,30,31,31,32,32,33,33,34,34,35,35,36,36],"right_children":[2,4,6,8,10,12,14,-1,16,-1,-1,18,20,22,24,26,-1,-1,-1,-1,28,30,32,34,36,-1,-1,-1,38,40,42,44,46,48,50,52,54,-1,-1,-1,-1,-1,-1,-1,-1,-1,-1,-1,-1,-1,-1,-1,-1,-1,-1],"split_conditions":[1.62E2,3.35E2,4.7E1,9.1E1,1.12E2,2E0,2.57E2,-4.2547073E1,1.99E2,1.850734E0,1.1849873E1,1E0,1E0,2.6E2,6E1,1.52E2,-4.733309E0,9.956783E0,-2.3384218E0,-3.5899117E1,3.66E2,2.67E2,1.29E2,1.83E2,3.41E2,-2.6368315E1,-1.4777267E1,-2.0400032E1,4E0,1.86E2,2.19E2,7E0,2.39E2,2.67E2,1.05E2,1.05E2,1E0,-9.435721E0,6.147461E-1,-2.0117815E1,-6.655912E0,-1.5234821E0,1.3598104E1,-1.3359529E1,5.9246764E0,1.0635125E1,2.2884129E1,-1.9700624E1,2.636223E0,3.1059475E1,7.836923E0,-5.289602E0,1.0838741E1,1.642278E1,2.9635214E1],"split_indices":[4,3,0,4,0,0,4,0,0,0,0,0,1,3,3,3,0,0,0,0,4,1,0,1,4,0,0,0,3,0,4,1,0,0,0,3,1,0,0,0,0,0,0,0,0,0,0,0,0,0,0,0,0,0,0],"split_type":[0,0,0,0,0,0,0,0,0,0,0,0,0,0,0,0,0,0,0,0,0,0,0,0,0,0,0,0,0,0,0,0,0,0,0,0,0,0,0,0,0,0,0,0,0,0,0,0,0,0,0,0,0,0,0],"sum_hessian":[3.67E2,3.1E1,3.36E2,2.9E1,2E0,2.5E1,3.11E2,4E0,2.5E1,1E0,1E0,4E0,2.1E1,1.37E2,1.74E2,2.4E1,1E0,3E0,1E0,6E0,1.5E1,1.05E2,3.2E1,1.01E2,7.3E1,1.7E1,7E0,1.1E1,4E0,6.8E1,3.7E1,7E0,2.5E1,5E1,5.1E1,4.1E1,3.2E1,2E0,2E0,3E1,3.8E1,1.4E1,2.3E1,3E0,4E0,1.8E1,7E0,1.2E1,3.8E1,8E0,4.3E1,6E0,3.5E1,1.8E1,1.4E1],"tree_param":{"num_deleted":"0","num_feature":"5","num_nodes":"55","size_leaf_vector":"1"}},{"base_weights":[4.2492795E-1,-4.5832428E1,8.699647E0,-7.432384E1,-1.8662415E1,-1.7131447E1,1.6911678E1,-8.461185E1,1.0855268E1,-3.392052E1,1.0776181E1,-2.878605E1,3.653794E1,1.2271621E1,5.975258E1,-9.69628E1,-3.900043E1,2.5721687E1,-4.5958656E1,-8.243382E0,2.7999716E1,-4.8027153E1,-7.375003E0,1.559873E1,2.1332634E1,2.043111E0,3.4503624E1,3.1324831E1,4.485415E1,-3.940003E1,-6.596882E1,-6.364499E0,-1.4110728E1,3.4650147E0,1.0235491E1,-5.2604507E1,-1.1208511E1,-8.75525E0,9.523048E0,3.5215748E1,-1.2120667E0,-2.2169971E1,-7.6355677E0,1.6798607E1,-2.8270834E1,1.3741321E1,2.321762E0,-1.9781395E1,2.1114016E1,2.535278E1,6.798884E1,-1.452827E1,6.709989E1,-5.8781986E0,-2.052103E1,-1.9876603E0,-1.6689508E1,-7.4628024E0,4.9179688E-1,5.8656925E-1,3.4181733E0,1.172319E1,2.9654298E0,7.042228E-1,-9.953959E0,-4.7461762E0,1.4195393E1,-1.3552544E1,3.074878E0,4.696436E0,-2.6427026E0,-1.6986916E1,9.8266864E-1,3.7920275E0,2.0423874E1,5.5143757E0,2.376701E1,1.5404655E1,2.9025476E1,6.6622925E-1,-1.4741016E1,1.2444166E1,3.623343E1],"categories":[],"categories_nodes":[],"categories_segments":[],"categories_sizes":[],"default_left":[0,0,0,0,0,0,0,0,0,0,0,0,0,0,0,0,0,0,0,0,0,0,0,0,0,0,0,0,0,0,0,0,0,0,0,0,0,0,0,0,0,0,0,0,0,0,0,0,0,0,0,0,0,0,0,0,0,0,0,0,0,0,0,0,0,0,0,0,0,0,0,0,0,0,0,0,0,0,0,0,0,0,0],"id":4,"left_children":[1,3,5,7,9,11,13,15,-1,17,19,21,23,25,27,29,31,33,35,37,39,41,43,45,-1,47,49,-1,51,-1,53,-1,-1,-1,-1,55,57,-1,59,61,-1,-1,63,65,67,-1,69,71,73,75,77,79,81,-1,-1,-1,-1,-1,-1,-1,-1,-1,-1,-1,-1,-1,-1,-1,-1,-1,-1,-1,-1,-1,-1,-1,-1,-1,-1,-1,-1,-1,-1],"loss_changes":[1.4125683E5,4.196321E4,6.668508E4,3.375814E4,1.3840851E4,4.8589434E4,4.6577383E4,1.0302E4,0E0,1.5541754E4,3.8342378E3,2.5600047E4,9.025197E3,4.904796E4,1.0621086E4,1.1576469E4,2.5195312E0,8.190698E1,3.3364375E3,2.51018E3,1.5294868E3,3.39221E4,1.613387E4,3.904051E3,0E0,6.243341E4,1.9112727E4,0E0,2.6073957E4,0E0,1.45625E1,0E0,0E0,0E0,0E0,1.5800273E3,7.4317065E2,0E0,3.435565E1,1.0281445E2,0E0,0E0,3.6480005E3,1.5681356E4,1.1532768E4,0E0,1.3251577E3,5.964743E4,3.0978078E4,1.9199586E4,1.7324805E3,3.5870698E3,1.4242859E4,0E0,0E0,0E0,0E0,0E0,0E0,0E0,0E0,0E0,0E0,0E0,0E0,0E0,0E0,0E0,0E0,0E0,0E0,0E0,0E0,0E0,0E0,0E0,0E0,0E0,0E0,0E0,0E0,0E0,0E0],"parents":[2147483647,0,0,1,1,2,2,3,3,4,4,5,5,6,6,7,7,9,9,10,10,11,11,12,12,13,13,14,14,15,15,16,16,17,17,18,18,19,19,20,20,21,21,22,22,23,23,25,25,26,26,28,28,30,30,35,35,36,36,38,38,39,39,42,42,43,43,44,44,46,46,47,47,48,48,49,49,50,50,51,51,52,52],"right_children":[2,4,6,8,10,12,14,16,-1,18,20,22,24,26,28,30,32,34,36,38,40,42,44,46,-1,48,50,-1,52,-1,54,-1,-1,-1,-1,56,58,-1,60,62,-1,-1,64,66,68,-1,70,72,74,76,78,80,82,-1,-1,-1,-1,-1,-1,-1,-1,-1,-1,-1,-1,-1,-1,-1,-1,-1,-1,-1,-1,-1,-1,-1,-1,-1,-1,-1,-1,-1,-1],"split_conditions":[9E1,2.51E2,2.17E2,2.2E2,4.7E1,3.44E2,3.69E2,1.52E2,1.0855268E1,1E0,5.4E1,1.5E2,2.45E2,1.98E2,1.03E2,1.02E2,7E1,1E0,4.77E2,1.83E2,1E0,1.5E2,1.88E2,3.54E2,2.1332634E1,2.57E2,3.46E2,3.1324831E1,1.24E2,-3.940003E1,1.83E2,-6.364499E0,-1.4110728E1,3.4650147E0,1.0235491E1,2E0,1.6E1,-8.75525E0,5.3E1,8.5E1,-1.2120667E0,-2.2169971E1,2.79E2,1.74E2,2.06E2,1.3741321E1,1.88E2,1.92E2,2.3E2,5.8E1,4.49E2,1.22E2,3.4E2,-5.8781986E0,-2.052103E1,-1.9876603E0,-1.6689508E1,-7.4628024E0,4.9179688E-1,5.8656925E-1,3.4181733E0,1.172319E1,2.9654298E0,7.042228E-1,-9.953959E0,-4.7461762E0,1.4195393E1,-1.3552544E1,3.074878E0,4.696436E0,-2.6427026E0,-1.6986916E1,9.8266864E-1,3.7920275E0,2.0423874E1,5.5143757E0,2.376701E1,1.5404655E1,2.9025476E1,6.6622925E-1,-1.4741016E1,1.2444166E1,3.623343E1],"split_indices":[0,4,4,3,0,3,1,3,0,0,3,1,0,3,0,1,0,2,4,1,2,3,4,3,0,0,4,0,0,0,1,0,0,0,0,0,0,0,0,0,0,0,3,4,0,0,4,1,1,1,3,0,4,0,0,0,0,0,0,0,0,0,0,0,0,0,0,0,0,0,0,0,0,0,0,0,0,0,0,0,0,0,0],"split_type":[0,0,0,0,0,0,0,0,0,0,0,0,0,0,0,0,0,0,0,0,0,0,0,0,0,0,0,0,0,0,0,0,0,0,0,0,0,0,0,0,0,0,0,0,0,0,0,0,0,0,0,0,0,0,0,0,0,0,0,0,0,0,0,0,0,0,0,0,0,0,0,0,0,0,0,0,0,0,0,0,0,0,0],"sum_hessian":[3.67E2,5.5E1,3.12E2,2.6E1,2.9E1,7.5E1,2.37E2,2.4E1,2E0,1.9E1,1E1,6.2E1,1.3E1,2.15E2,2.2E1,1.8E1,6E0,3E0,1.6E1,5E0,5E0,3.2E1,3E1,9E0,4E0,1.48E2,6.7E1,4E0,1.8E1,7E0,1.1E1,3E0,3E0,2E0,1E0,1.3E1,3E0,2E0,3E0,4E0,1E0,1.9E1,1.3E1,1.4E1,1.6E1,2E0,7E0,6.9E1,7.9E1,5.4E1,1.3E1,5E0,1.3E1,1E0,1E1,1E0,1.2E1,1E0,2E0,1E0,2E0,3E0,1E0,1E1,3E0,7E0,7E0,1.1E1,5E0,3E0,4E0,2.6E1,4.3E1,6.8E1,1.1E1,4.9E1,5E0,1E1,3E0,4E0,1E0,1E1,3E0],"tree_param":{"num_deleted":"0","num_feature":"5","num_nodes":"83","size_leaf_vector":"1"}},{"base_weights":[4.982296E-1,-3.3487003E1,6.5770626E0,-4.605697E1,8.16473E-1,-1.4533012E0,2.3950306E1,-6.773485E1,-1.9908453E1,-1.6463373E1,3.236011E1,-4.2613244E0,6.329271E1,1.2765206E2,1.8240211E1,-7.3722275E1,8.700165E0,-1.1080479E1,5.005564E0,-2.9720068E1,-4.627838E-1,2.5399568E0,1.0633658E1,-1.408364E1,1.6936102E1,2.9791723E1,2.8735239E1,1.5129117E1,6.548082E1,-7.4614773E0,3.963702E1,-8.341774E1,-3.5580647E1,-2.1749012E0,4.357462E0,-1.0672119E1,-1.0972804E1,-2.2775872E0,2.7591126E0,-3.9350903E1,1.4053019E0,1.2908423E1,1.9047632E1,-9.104599E0,1.39865265E1,-2.1795296E1,3.7521366E1,3.2643253E1,7.993362E1,-2.6028538E1,-4.988544E0,-1.2024072E1,-1.9624009E0,-1.3641853E0,1.4530518E0,-5.5789766E0,7.765229E-1,-1.40182705E1,3.0488453E1,-3.5483196E0,5.843004E0,1.584826E0,9.37664E0,1.3731025E1,-9.698905E0,2.7954733E0,3.288709E1,8.225934E0,1.8868937E1,2.5888147E1,6.26586E0],"categories":[],"categories_nodes":[],"categories_segments":[],"categories_sizes":[],"default_left":[0,0,0,0,0,0,0,0,0,0,0,0,0,0,0,0,0,0,0,0,0,0,0,0,0,0,0,0,0,0,0,0,0,0,0,0,0,0,0,0,0,0,0,0,0,0,0,0,0,0,0,0,0,0,0,0,0,0,0,0,0,0,0,0,0,0,0,0,0,0,0],"id":5,"left_children":[1,3,5,7,9,11,13,15,17,19,21,23,25,27,29,31,-1,-1,33,35,37,-1,-1,39,41,-1,43,-1,-1,45,47,49,51,53,-1,55,-1,-1,-1,57,59,61,-1,-1,-1,63,65,67,69,-1,-1,-1,-1,-1,-1,-1,-1,-1,-1,-1,-1,-1,-1,-1,-1,-1,-1,-1,-1,-1,-1],"loss_changes":[7.624557E4,2.4184438E4,4.3702523E4,2.1892117E4,9.253864E3,3.9358496E4,5.629414E4,1.4880297E4,8.668839E3,2.31951E3,1.4222949E2,4.333754E4,8.347102E3,2.3980703E4,5.25395E4,4.797758E3,0E0,0E0,6.467677E2,3.9320703E2,4.8302298E2,0E0,0E0,5.5628875E4,1.1556248E4,0E0,7.755739E3,0E0,0E0,2.918793E4,1.2045594E4,2.130836E3,5.21812E2,1.2192687E2,0E0,3.6338354E2,0E0,0E0,0E0,6.090639E4,2.151375E4,8.50921E3,0E0,0E0,0E0,2.5679564E4,2.1347098E4,5.544625E3,8.2652734E2,0E0,0E0,0E0,0E0,0E0,0E0,0E0,0E0,0E0,0E0,0E0,0E0,0E0,0E0,0E0,0E0,0E0,0E0,0E0,0E0,0E0,0E0],"parents":[2147483647,0,0,1,1,2,2,3,3,4,4,5,5,6,6,7,7,8,8,9,9,10,10,11,11,12,12,13,13,14,14,15,15,18,18,19,19,20,20,23,23,24,24,26,26,29,29,30,30,31,31,32,32,33,33,35,35,39,39,40,40,41,41,45,45,46,46,47,47,48,48],"right_children":[2,4,6,8,10,12,14,16,18,20,22,24,26,28,30,32,-1,-1,34,36,38,-1,-1,40,42,-1,44,-1,-1,46,48,50,52,54,-1,56,-1,-1,-1,58,60,62,-1,-1,-1,64,66,68,70,-1,-1,-1,-1,-1,-1,-1,-1,-1,-1,-1,-1,-1,-1,-1,-1,-1,-1,-1,-1,-1,-1],"split_conditions":[9E1,1.76E2,3.14E2,2.34E2,6.6E1,4.02E2,1.05E2,8.3E1,2.74E2,1.69E2,1E0,2.1E2,2.42E2,1E2,3.1E1,3.66E2,8.700165E0,-1.1080479E1,5.3E1,1.94E2,2.81E2,2.5399568E0,1.0633658E1,1.62E2,5.8E1,2.9791723E1,2.49E2,1.5129117E1,6.548082E1,3.27E2,3.89E2,1.52E2,4.7E1,4.79E2,4.357462E0,1E0,-1.0972804E1,-2.2775872E0,2.7591126E0,3.5E1,2.22E2,2.16E2,1.9047632E1,-9.104599E0,1.39865265E1,3.37E2,2.3E2,4.12E2,1E0,-2.6028538E1,-4.988544E0,-1.2024072E1,-1.9624009E0,-1.3641853E0,1.4530518E0,-5.5789766E0,7.765229E-1,-1.40182705E1,3.0488453E1,-3.5483196E0,5.843004E0,1.584826E0,9.37664E0,1.3731025E1,-9.698905E0,2.7954733E0,3.288709E1,8.225934E0,1.8868937E1,2.5888147E1,6.26586E0],"split_indices":[0,3,4,1,1,1,0,2,4,4,0,3,4,0,3,4,0,0,0,3,4,0,0,1,1,0,4,0,0,1,0,3,3,4,0,1,0,0,0,2,0,0,0,0,0,4,0,3,2,0,0,0,0,0,0,0,0,0,0,0,0,0,0,0,0,0,0,0,0,0,0],"split_type":[0,0,0,0,0,0,0,0,0,0,0,0,0,0,0,0,0,0,0,0,0,0,0,0,0,0,0,0,0,0,0,0,0,0,0,0,0,0,0,0,0,0,0,0,0,0,0,0,0,0,0,0,0,0,0,0,0,0,0,0,0,0,0,0,0,0,0,0,0,0,0],"sum_hessian":[3.67E2,5.5E1,3.12E2,4E1,1.5E1,2.14E2,9.8E1,2.1E1,1.9E1,1E1,5E0,2.06E2,8E0,4E0,9.4E1,2E1,1E0,1.1E1,8E0,5E0,5E0,1E0,4E0,1.41E2,6.5E1,3E0,5E0,3E0,1E0,4.3E1,5.1E1,1.5E1,5E0,5E0,3E0,2E0,3E0,3E0,2E0,5.3E1,8.8E1,6.1E1,4E0,1E0,4E0,3.3E1,1E1,4.5E1,6E0,1.4E1,1E0,4E0,1E0,4E0,1E0,1E0,1E0,5.1E1,2E0,5.1E1,3.7E1,4.4E1,1.7E1,4E0,2.9E1,8E0,2E0,4E1,5E0,5E0,1E0],"tree_param":{"num_deleted":"0","num_feature":"5","num_nodes":"71","size_leaf_vector":"1"}},{"base_weights":[9.410505E-1,-2.4245502E1,5.4442644E0,-4.0548904E1,-8.764259E0,3.571179E0,4.8394615E1,-4.641581E1,2.1858267E1,-1.7302206E1,7.5560317E0,5.446351E-1,2.991383E1,2.6597633E1,3.301397E1,-5.3186954E1,-7.6136265E0,7.766405E0,2.0698152E0,-2.2421055E1,1.9178284E1,-3.8273556E0,6.5944705E0,-1.3196181E1,1.1716867E1,-1.7960033E1,3.767144E1,-9.104496E0,5.046651E1,-2.5895601E1,-3.3804092E1,-4.269348E1,-1.1339853E1,7.395136E0,1.2350922E0,-3.3205252E0,4.3705444E0,-4.028184E1,2.0565436E0,-4.3193393E0,2.0782227E1,1.1885019E1,-4.2258408E1,6.014211E1,2.67996E1,2.0817993E1,5.596352E1,-1.1177569E1,-2.960901E0,-1.3814225E1,-3.888572E0,-5.3205457E0,7.318964E-1,2.2072937E0,-6.886139E-1,-1.8468699E1,-5.9949026E0,1.8429924E1,-8.3566844E-1,-1.0152475E1,2.279263E0,4.9965158E0,1.6383127E1,-1.5882719E1,-1.5309678E0,1.985463E1,2.6793275E0,1.0840161E1,-3.0080265E-1,8.485117E0,8.829804E-1,1.8588432E1,2.996402E0],"categories":[],"categories_nodes":[],"categories_segments":[],"categories_sizes":[],"default_left":[0,0,0,0,0,0,0,0,0,0,0,0,0,0,0,0,0,0,0,0,0,0,0,0,0,0,0,0,0,0,0,0,0,0,0,0,0,0,0,0,0,0,0,0,0,0,0,0,0,0,0,0,0,0,0,0,0,0,0,0,0,0,0,0,0,0,0,0,0,0,0,0,0],"id":6,"left_children":[1,3,5,7,9,11,13,15,17,19,21,23,25,-1,27,29,-1,-1,-1,31,33,35,-1,37,39,41,43,-1,45,-1,47,49,51,-1,-1,-1,53,55,57,59,61,-1,63,65,67,69,71,-1,-1,-1,-1,-1,-1,-1,-1,-1,-1,-1,-1,-1,-1,-1,-1,-1,-1,-1,-1,-1,-1,-1,-1,-1,-1],"loss_changes":[4.1870723E4,1.3778848E4,2.5007926E4,1.0900262E4,4.3109897E3,2.398159E4,5.1237754E3,2.2113047E3,2.2302246E0,4.16476E3,1.8904573E3,4.1757344E4,1.2189568E4,0E0,1.3695737E4,8.641449E3,0E0,0E0,0E0,3.5594316E3,1.457688E2,4.639055E2,0E0,5.0484703E4,2.1895865E4,8.669248E3,4.98425E3,0E0,3.017539E2,0E0,7.071211E2,1.4453125E0,1.1888804E3,0E0,0E0,0E0,9.653575E1,1.7776445E4,2.288421E4,1.9606836E4,1.2493488E4,0E0,1.3176841E3,1.8834336E3,5.226507E3,3.1709705E2,1.3114316E3,0E0,0E0,0E0,0E0,0E0,0E0,0E0,0E0,0E0,0E0,0E0,0E0,0E0,0E0,0E0,0E0,0E0,0E0,0E0,0E0,0E0,0E0,0E0,0E0,0E0,0E0],"parents":[2147483647,0,0,1,1,2,2,3,3,4,4,5,5,6,6,7,7,8,8,9,9,10,10,11,11,12,12,14,14,15,15,19,19,20,20,21,21,23,23,24,24,25,25,26,26,28,28,30,30,31,31,32,32,36,36,37,37,38,38,39,39,40,40,42,42,43,43,44,44,45,45,46,46],"right_children":[2,4,6,8,10,12,14,16,18,20,22,24,26,-1,28,30,-1,-1,-1,32,34,36,-1,38,40,42,44,-1,46,-1,48,50,52,-1,-1,-1,54,56,58,60,62,-1,64,66,68,70,72,-1,-1,-1,-1,-1,-1,-1,-1,-1,-1,-1,-1,-1,-1,-1,-1,-1,-1,-1,-1,-1,-1,-1,-1,-1,-1],"split_conditions":[9E1,2.51E2,4.31E2,2.2E2,5.4E1,3.6E2,4.35E2,1.31E2,7E1,5.24E2,6.6E1,2.5E1,2.02E2,2.6597633E1,4.48E2,1.5E1,-7.6136265E0,7.766405E0,2.0698152E0,1.62E2,1E0,3.22E2,6.5944705E0,1.62E2,2.43E2,1E0,2.42E2,-9.104496E0,2E0,-2.5895601E1,8.7E1,1E1,4.1E1,7.395136E0,1.2350922E0,-3.3205252E0,1E0,2.48E2,1.05E2,1.68E2,4.12E2,1.1885019E1,1.2E2,6E0,1E0,4.61E2,1.88E2,-1.1177569E1,-2.960901E0,-1.3814225E1,-3.888572E0,-5.3205457E0,7.318964E-1,2.2072937E0,-6.886139E-1,-1.8468699E1,-5.9949026E0,1.8429924E1,-8.3566844E-1,-1.0152475E1,2.279263E0,4.9965158E0,1.6383127E1,-1.5882719E1,-1.5309678E0,1.985463E1,2.6793275E0,1.0840161E1,-3.0080265E-1,8.485117E0,8.829804E-1,1.8588432E1,2.996402E0],"split_indices":[0,4,0,3,3,1,0,3,0,4,1,3,4,0,0,1,0,0,0,1,0,3,0,1,4,3,4,0,3,0,0,3,0,0,0,0,2,0,0,3,3,0,0,3,3,0,1,0,0,0,0,0,0,0,0,0,0,0,0,0,0,0,0,0,0,0,0,0,0,0,0,0,0],"split_type":[0,0,0,0,0,0,0,0,0,0,0,0,0,0,0,0,0,0,0,0,0,0,0,0,0,0,0,0,0,0,0,0,0,0,0,0,0,0,0,0,0,0,0,0,0,0,0,0,0,0,0,0,0,0,0,0,0,0,0,0,0,0,0,0,0,0,0,0,0,0,0,0,0],"sum_hessian":[3.67E2,5.5E1,3.12E2,2.6E1,2.9E1,3E2,1.2E1,2.4E1,2E0,1.9E1,1E1,2.7E2,3E1,2E0,1E1,1.7E1,7E0,1E0,1E0,1.7E1,2E0,6E0,4E0,1.21E2,1.49E2,4E0,2.6E1,2E0,8E0,5E0,1.2E1,5E0,1.2E1,1E0,1E0,3E0,3E0,4.3E1,7.8E1,5.4E1,9.5E1,1E0,3E0,7E0,1.9E1,2E0,6E0,1E1,2E0,4E0,1E0,8E0,4E0,2E0,1E0,2E1,2.3E1,5E0,7.3E1,1.5E1,3.9E1,8.6E1,9E0,2E0,1E0,6E0,1E0,1.4E1,5E0,1E0,1E0,5E0,1E0],"tree_param":{"num_deleted":"0","num_feature":"5","num_nodes":"73","size_leaf_vector":"1"}},{"base_weights":[7.5642157E-1,-6.8653765E0,1.2796771E1,-1.4198804E1,8.699188E0,9.131444E0,5.204896E1,-4.326005E1,-6.221591E0,-9.66483E-1,2.1113531E1,4.089774E0,2.689704E1,6.107527E1,4.611613E0,-6.3677944E1,-2.4863815E1,-9.531391E0,4.951532E1,-1.5358555E1,6.778073E0,1.3309143E1,1.4125513E1,-1.0962304E1,1.6216635E1,3.5394073E1,-2.0967535E1,5.6616764E0,6.9267E1,1.7081132E0,3.6711276E-1,-7.738229E1,-6.645424E0,-3.2876045E1,-9.737492E0,-8.102768E-1,-2.5464886E1,6.0305786E1,-2.2841218E0,-2.5220415E1,3.2495686E1,-4.7555733E0,2.0451939E1,6.0350614E0,2.8921444E1,5.6179004E0,-2.457008E1,9.993068E0,4.1899776E1,2.1862745E1,6.14153E1,-1.1343338E1,2.8652344E0,2.5570578E1,9.596977E0,-2.4105661E1,-6.706989E0,6.2858644E0,-6.8487463E0,-1.39824915E1,-6.055164E0,4.1660557E0,-5.9780245E0,-3.9765406E0,4.244011E0,-3.4982145E0,-1.4584421E1,2.23125E1,6.433472E0,-2.3468802E0,-1.544754E1,8.7310183E-1,1.3749958E1,5.6694446E0,-3.5003483E0,1.269165E1,3.7897832E0,4.806096E0,-2.9091625E0,1.2157078E1,5.4900393E0,-8.729837E0,3.7893417E0,-9.173813E0,9.508289E0,4.29778E0,-3.1123343E0,8.8597417E-1,1.5067927E1,1.2758409E1,3.1929524E0,8.490157E0,2.268722E1,-1.2575867E0,2.5469422E0],"categories":[],"categories_nodes":[],"categories_segments":[],"categories_sizes":[],"default_left":[0,0,0,0,0,0,0,0,0,0,0,0,0,0,0,0,0,0,0,0,0,0,0,0,0,0,0,0,0,0,0,0,0,0,0,0,0,0,0,0,0,0,0,0,0,0,0,0,0,0,0,0,0,0,0,0,0,0,0,0,0,0,0,0,0,0,0,0,0,0,0,0,0,0,0,0,0,0,0,0,0,0,0,0,0,0,0,0,0,0,0,0,0,0,0],"id":7,"left_children":[1,3,5,7,9,11,13,15,17,19,21,23,25,27,29,31,33,35,37,39,41,43,-1,45,47,49,51,-1,53,-1,-1,55,57,59,61,63,65,67,-1,69,71,73,75,77,79,81,83,85,87,89,91,-1,93,-1,-1,-1,-1,-1,-1,-1,-1,-1,-1,-1,-1,-1,-1,-1,-1,-1,-1,-1,-1,-1,-1,-1,-1,-1,-1,-1,-1,-1,-1,-1,-1,-1,-1,-1,-1,-1,-1,-1,-1,-1,-1],"loss_changes":[3.3858887E4,2.591952E4,2.0098428E4,3.543233E4,8.779891E3,1.171301E4,4.8565527E3,1.0811934E4,2.2978268E4,4.7854297E3,5.8594746E3,1.9161352E4,1.2536629E4,2.1499297E3,4.0306816E0,1.1209664E4,1.982585E3,1.6098478E4,4.774295E3,7.8985312E3,4.513128E3,2.7781514E3,0E0,1.074216E4,8.852055E3,7.459834E3,2.115485E3,0E0,2.035332E3,0E0,0E0,1.6465625E2,2.2649104E3,1.1507695E3,2.2024355E3,1.4333966E4,1.2535258E4,1.6854883E3,0E0,5.538909E3,1.0503938E3,2.836509E3,1.6870132E3,3.1400771E3,2.4425342E2,5.7241436E3,9.760027E3,4.3846084E3,3.4189023E3,3.7207666E3,1.6239609E3,0E0,1.5466994E2,0E0,0E0,0E0,0E0,0E0,0E0,0E0,0E0,0E0,0E0,0E0,0E0,0E0,0E0,0E0,0E0,0E0,0E0,0E0,0E0,0E0,0E0,0E0,0E0,0E0,0E0,0E0,0E0,0E0,0E0,0E0,0E0,0E0,0E0,0E0,0E0,0E0,0E0,0E0,0E0,0E0,0E0],"parents":[2147483647,0,0,1,1,2,2,3,3,4,4,5,5,6,6,7,7,8,8,9,9,10,10,11,11,12,12,13,13,14,14,15,15,16,16,17,17,18,18,19,19,20,20,21,21,23,23,24,24,25,25,26,26,28,28,31,31,32,32,33,33,34,34,35,35,36,36,37,37,39,39,40,40,41,41,42,42,43,43,44,44,45,45,46,46,47,47,48,48,49,49,50,50,52,52],"right_children":[2,4,6,8,10,12,14,16,18,20,22,24,26,28,30,32,34,36,38,40,42,44,-1,46,48,50,52,-1,54,-1,-1,56,58,60,62,64,66,68,-1,70,72,74,76,78,80,82,84,86,88,90,92,-1,94,-1,-1,-1,-1,-1,-1,-1,-1,-1,-1,-1,-1,-1,-1,-1,-1,-1,-1,-1,-1,-1,-1,-1,-1,-1,-1,-1,-1,-1,-1,-1,-1,-1,-1,-1,-1,-1,-1,-1,-1,-1,-1],"split_conditions":[2.22E2,2.24E2,5E0,1.6E1,8E0,2.3E2,4.39E2,4.6E1,4.33E2,1.33E2,4.08E2,3.1E1,3.43E2,1.86E2,3.38E2,3.93E2,1.08E2,1.5E2,5.11E2,3.62E2,2.54E2,4.9E1,1.4125513E1,2E0,3.53E2,2.88E2,2.48E2,5.6616764E0,2.91E2,1.7081132E0,3.6711276E-1,1.8E1,1E0,1.31E2,1.47E2,2.97E2,2.62E2,1E0,-2.2841218E0,1.25E2,1E0,1.72E2,2.59E2,2.65E2,2.6E2,2.37E2,4.31E2,3.17E2,3.21E2,2.64E2,2.82E2,-1.1343338E1,3.73E2,2.5570578E1,9.596977E0,-2.4105661E1,-6.706989E0,6.2858644E0,-6.8487463E0,-1.39824915E1,-6.055164E0,4.1660557E0,-5.9780245E0,-3.9765406E0,4.244011E0,-3.4982145E0,-1.4584421E1,2.23125E1,6.433472E0,-2.3468802E0,-1.544754E1,8.7310183E-1,1.3749958E1,5.6694446E0,-3.5003483E0,1.269165E1,3.7897832E0,4.806096E0,-2.9091625E0,1.2157078E1,5.4900393E0,-8.729837E0,3.7893417E0,-9.173813E0,9.508289E0,4.29778E0,-3.1123343E0,8.8597417E-1,1.5067927E1,1.2758409E1,3.1929524E0,8.490157E0,2.268722E1,-1.2575867E0,2.5469422E0],"split_indices":[0,3,2,1,1,1,4,3,1,0,3,3,0,4,0,4,0,0,1,4,4,1,0,3,0,0,1,0,4,0,0,2,0,3,0,1,4,3,0,0,0,4,4,4,3,4,0,0,4,1,4,0,0,0,0,0,0,0,0,0,0,0,0,0,0,0,0,0,0,0,0,0,0,0,0,0,0,0,0,0,0,0,0,0,0,0,0,0,0,0,0,0,0,0,0],"split_type":[0,0,0,0,0,0,0,0,0,0,0,0,0,0,0,0,0,0,0,0,0,0,0,0,0,0,0,0,0,0,0,0,0,0,0,0,0,0,0,0,0,0,0,0,0,0,0,0,0,0,0,0,0,0,0,0,0,0,0,0,0,0,0,0,0,0,0,0,0,0,0,0,0,0,0,0,0,0,0,0,0,0,0,0,0,0,0,0,0,0,0,0,0,0,0],"sum_hessian":[3.67E2,2.25E2,1.42E2,1.53E2,7.2E1,1.31E2,1.1E1,3.2E1,1.21E2,4.1E1,3.1E1,1.03E2,2.8E1,9E0,2E0,1.4E1,1.8E1,1.15E2,6E0,1.4E1,2.7E1,2.5E1,6E0,4.6E1,5.7E1,2.4E1,4E0,2E0,7E0,1E0,1E0,1.1E1,3E0,1.1E1,7E0,7.5E1,4E1,5E0,1E0,1.2E1,2E0,1.5E1,1.2E1,1.8E1,7E0,2.1E1,2.5E1,4.7E1,1E1,1.7E1,7E0,2E0,2E0,4E0,3E0,1E1,1E0,1E0,2E0,4E0,7E0,2E0,5E0,4.1E1,3.4E1,2.6E1,1.4E1,3E0,2E0,8E0,4E0,1E0,1E0,3E0,1.2E1,2E0,1E1,1.1E1,7E0,2E0,5E0,3E0,1.8E1,2.3E1,2E0,3.9E1,8E0,2E0,8E0,5E0,1.2E1,3E0,4E0,1E0,1E0],"tree_param":{"num_deleted":"0","num_feature":"5","num_nodes":"95","size_leaf_vector":"1"}},{"base_weights":[7.933039E-1,-4.7855434E0,9.604676E0,-1.0970934E1,5.603998E0,6.7678246E0,4.000965E1,-2.8133274E1,-4.3455967E-1,2.3473973E0,2.9793766E1,2.9833477E0,2.0106369E1,4.909619E1,9.562523E0,-3.264273E1,-1.1400166E1,-3.7079847E0,3.8440987E1,-4.0378194E-2,3.0211508E1,1.7711987E1,1.5624176E1,-9.175609E0,1.1368053E1,1.3902476E1,2.0771786E1,4.52934E0,5.665319E1,3.61698E0,3.120438E-1,-1.8123352E1,-4.926496E1,5.3429813E0,-1.5318501E1,4.903791E0,-1.3549572E1,8.295792E0,5.8975937E1,-1.0395291E1,6.5500293E0,3.996067E1,-2.7801454E0,9.3583375E-1,5.8053E0,3.707958E0,-2.1642103E1,-5.771877E0,1.6487448E1,1.9948141E1,-1.668808E1,1.9433643E1,7.267829E0,-9.00256E0,-4.0475383E-1,-1.6288126E1,-1.3040527E0,-8.879122E0,-1.3438752E0,-3.4267986E0,5.8996143E0,4.1740108E0,-8.344852E0,4.612653E0,-1.941504E0,2.1586744E1,3.0054476E0,-2.1906052E0,-1.4087055E1,6.6773534E0,-2.2653396E-1,7.4213564E-1,1.4614183E1,2.2661E0,-1.1557787E1,-1.0240972E1,1.3470864E0,3.513735E0,-8.228152E0,-9.713078E-1,5.814724E0,1.1915627E1,3.1901643E0,-9.074674E0,7.3063356E-1],"categories":[],"categories_nodes":[],"categories_segments":[],"categories_sizes":[],"default_left":[0,0,0,0,0,0,0,0,0,0,0,0,0,0,0,0,0,0,0,0,0,0,0,0,0,0,0,0,0,0,0,0,0,0,0,0,0,0,0,0,0,0,0,0,0,0,0,0,0,0,0,0,0,0,0,0,0,0,0,0,0,0,0,0,0,0,0,0,0,0,0,0,0,0,0,0,0,0,0,0,0,0,0,0,0],"id":8,"left_children":[1,3,5,7,9,11,13,15,17,19,21,23,25,27,29,31,33,35,37,39,41,43,-1,45,47,49,-1,-1,51,-1,-1,53,55,-1,57,59,61,63,65,67,69,71,-1,-1,-1,73,75,77,79,81,83,-1,-1,-1,-1,-1,-1,-1,-1,-1,-1,-1,-1,-1,-1,-1,-1,-1,-1,-1,-1,-1,-1,-1,-1,-1,-1,-1,-1,-1,-1,-1,-1,-1,-1],"loss_changes":[1.813585E4,1.4585004E4,1.20636E4,2.566547E4,6.6260586E3,6.6032983E3,2.8504258E3,3.7025586E3,1.146834E4,5.0577456E3,1.7701943E3,1.0707033E4,7.877046E3,1.4569941E3,7.248126E1,9.243625E3,1.7607366E3,7.1009883E3,3.843958E3,4.913349E3,2.6796245E3,1.3097461E2,0E0,6.9866025E3,5.53542E3,5.326283E3,0E0,0E0,2.7509375E2,0E0,0E0,4.7442515E3,4.0557773E3,0E0,1.7245879E3,1.1069829E4,1.5667327E4,5.177034E2,1.8209971E3,2.823778E3,5.0657114E3,1.5201577E3,0E0,0E0,0E0,3.8642368E3,7.33651E3,6.0006636E3,2.8037275E3,3.8130547E3,1.3703241E3,0E0,0E0,0E0,0E0,0E0,0E0,0E0,0E0,0E0,0E0,0E0,0E0,0E0,0E0,0E0,0E0,0E0,0E0,0E0,0E0,0E0,0E0,0E0,0E0,0E0,0E0,0E0,0E0,0E0,0E0,0E0,0E0,0E0,0E0],"parents":[2147483647,0,0,1,1,2,2,3,3,4,4,5,5,6,6,7,7,8,8,9,9,10,10,11,11,12,12,13,13,14,14,15,15,16,16,17,17,18,18,19,19,20,20,21,21,23,23,24,24,25,25,28,28,31,31,32,32,34,34,35,35,36,36,37,37,38,38,39,39,40,40,41,41,45,45,46,46,47,47,48,48,49,49,50,50],"right_children":[2,4,6,8,10,12,14,16,18,20,22,24,26,28,30,32,34,36,38,40,42,44,-1,46,48,50,-1,-1,52,-1,-1,54,56,-1,58,60,62,64,66,68,70,72,-1,-1,-1,74,76,78,80,82,84,-1,-1,-1,-1,-1,-1,-1,-1,-1,-1,-1,-1,-1,-1,-1,-1,-1,-1,-1,-1,-1,-1,-1,-1,-1,-1,-1,-1,-1,-1,-1,-1,-1,-1],"split_conditions":[2.22E2,1.76E2,5E0,2.02E2,6.6E1,2.3E2,4.09E2,3.43E2,4.33E2,3.74E2,1.84E2,2.5E1,3.23E2,1.86E2,1E0,1.83E2,1E0,1.23E2,1.34E2,1.33E2,4.58E2,8.4E1,1.5624176E1,2E0,2.43E2,3.43E2,2.0771786E1,4.52934E0,2.91E2,3.61698E0,3.120438E-1,1.08E2,1.02E2,5.3429813E0,1E1,9E1,2.62E2,1.22E2,1.39E2,3.55E2,1.59E2,1E0,-2.7801454E0,9.3583375E-1,5.8053E0,5.11E2,1.62E2,2.18E2,2.35E2,2.64E2,2.48E2,1.9433643E1,7.267829E0,-9.00256E0,-4.0475383E-1,-1.6288126E1,-1.3040527E0,-8.879122E0,-1.3438752E0,-3.4267986E0,5.8996143E0,4.1740108E0,-8.344852E0,4.612653E0,-1.941504E0,2.1586744E1,3.0054476E0,-2.1906052E0,-1.4087055E1,6.6773534E0,-2.2653396E-1,7.4213564E-1,1.4614183E1,2.2661E0,-1.1557787E1,-1.0240972E1,1.3470864E0,3.513735E0,-8.228152E0,-9.713078E-1,5.814724E0,1.1915627E1,3.1901643E0,-9.074674E0,7.3063356E-1],"split_indices":[0,3,2,1,1,1,4,4,1,4,0,3,4,4,1,4,0,0,0,0,4,1,0,3,4,0,0,0,4,0,0,0,3,0,3,0,1,0,0,4,0,0,0,0,0,4,1,4,0,1,1,0,0,0,0,0,0,0,0,0,0,0,0,0,0,0,0,0,0,0,0,0,0,0,0,0,0,0,0,0,0,0,0,0,0],"split_type":[0,0,0,0,0,0,0,0,0,0,0,0,0,0,0,0,0,0,0,0,0,0,0,0,0,0,0,0,0,0,0,0,0,0,0,0,0,0,0,0,0,0,0,0,0,0,0,0,0,0,0,0,0,0,0,0,0,0,0,0,0,0,0,0,0,0,0,0,0,0,0,0,0,0,0,0,0,0,0,0,0,0,0,0,0],"sum_hessian":[3.67E2,2.25E2,1.42E2,1.41E2,8.4E1,1.31E2,1.1E1,5.3E1,8.8E1,7.5E1,9E0,1.03E2,2.8E1,8E0,3E0,4.1E1,1.2E1,8.2E1,6E0,7E1,5E0,7E0,2E0,4.2E1,6.1E1,2.6E1,2E0,2E0,6E0,2E0,1E0,2.3E1,1.8E1,1E0,1.1E1,4.4E1,3.8E1,3E0,3E0,2.7E1,4.3E1,4E0,1E0,1E0,6E0,2.1E1,2.1E1,1.4E1,4.7E1,2.2E1,4E0,4E0,2E0,1.3E1,1E1,1.6E1,2E0,4E0,7E0,2.1E1,2.3E1,1.3E1,2.5E1,2E0,1E0,2E0,1E0,2.6E1,1E0,1.3E1,3E1,1E0,3E0,2E1,1E0,1.4E1,7E0,8E0,6E0,6E0,4.1E1,6E0,1.6E1,2E0,2E0],"tree_param":{"num_deleted":"0","num_feature":"5","num_nodes":"85","size_leaf_vector":"1"}},{"base_weights":[7.276987E-1,-4.89973E0,5.637293E0,-1.5860915E0,-2.3446081E1,4.155276E0,2.8138779E1,-3.0404842E0,3.309889E1,1.1613129E1,-3.0348352E1,-9.1200905E0,6.6655035E0,2.2846882E0,3.3081127E1,-5.815109E0,1.4175479E1,6.4748383E0,5.7564655E1,-3.1931152E0,1.0625716E1,-1.3443161E1,-3.4529694E1,1.998436E0,-1.5662313E1,5.3019276E0,3.512757E1,-3.5368654E-1,1.3817964E0,4.5530354E1,1.152583E1,-1.1517732E1,8.851993E0,2.1308779E1,-3.3349476E1,3.6901186E0,-1.6502748E0,2.1114496E1,4.7896E0,-1.5940034E0,4.7513583E-1,-5.8489733E0,2.5235872E0,-3.8057743E1,-5.379557E0,-5.3185334E0,7.716657E0,-9.538512E0,-7.6295514E0,1.6306531E0,1.7422989E1,4.14091E1,-3.8423768E-1,4.053406E0,1.4769566E1,7.830567E-1,4.9798584E0,-6.6534424E0,-1.8041179E-1,3.313291E1,-1.9553973E-1,6.958774E0,-1.6158783E0,-1.4360518E1,-6.467469E-1,-1.2039383E1,-4.9159546E0,-2.3631227E0,-5.7678226E-2,-5.85479E0,2.2197251E0,-5.207918E0,4.0070124E0,-2.565703E0,2.2990115E0,4.0330033E0,1.6617426E1,3.4728518E0,1.3518135E1],"categories":[],"categories_nodes":[],"categories_segments":[],"categories_sizes":[],"default_left":[0,0,0,0,0,0,0,0,0,0,0,0,0,0,0,0,0,0,0,0,0,0,0,0,0,0,0,0,0,0,0,0,0,0,0,0,0,0,0,0,0,0,0,0,0,0,0,0,0,0,0,0,0,0,0,0,0,0,0,0,0,0,0,0,0,0,0,0,0,0,0,0,0,0,0,0,0,0,0],"id":9,"left_children":[1,3,5,7,9,11,13,15,17,19,21,23,25,27,29,31,33,35,37,39,-1,41,43,45,47,49,51,-1,-1,53,55,57,59,61,63,-1,-1,-1,-1,-1,-1,-1,-1,65,67,69,-1,-1,71,73,75,77,-1,-1,-1,-1,-1,-1,-1,-1,-1,-1,-1,-1,-1,-1,-1,-1,-1,-1,-1,-1,-1,-1,-1,-1,-1,-1,-1],"loss_changes":[1.0194869E4,1.0533229E4,6.452549E3,7.5161377E3,6.644133E3,6.25909E3,1.4577793E3,6.865463E3,3.5355454E3,1.8754788E3,1.0909102E3,2.213496E3,5.9069556E3,2.9550713E1,2.1586924E3,1.0389791E4,7.490832E3,3.467252E2,4.7586816E2,4.89277E1,0E0,9.577931E2,1.5435977E3,2.219836E3,2.2196348E3,6.6910513E3,1.6539375E3,0E0,0E0,4.5926758E1,1.8284851E2,1.0343846E4,3.386449E4,1.031728E3,1.2554983E3,0E0,0E0,0E0,0E0,0E0,0E0,0E0,0E0,1.6427734E1,3.7351646E1,1.9499756E3,0E0,0E0,3.090668E3,7.2529844E3,4.543884E3,1.3195605E2,0E0,0E0,0E0,0E0,0E0,0E0,0E0,0E0,0E0,0E0,0E0,0E0,0E0,0E0,0E0,0E0,0E0,0E0,0E0,0E0,0E0,0E0,0E0,0E0,0E0,0E0,0E0],"parents":[2147483647,0,0,1,1,2,2,3,3,4,4,5,5,6,6,7,7,8,8,9,9,10,10,11,11,12,12,13,13,14,14,15,15,16,16,17,17,18,18,19,19,21,21,22,22,23,23,24,24,25,25,26,26,29,29,30,30,31,31,32,32,33,33,34,34,43,43,44,44,45,45,48,48,49,49,50,50,51,51],"right_children":[2,4,6,8,10,12,14,16,18,20,22,24,26,28,30,32,34,36,38,40,-1,42,44,46,48,50,52,-1,-1,54,56,58,60,62,64,-1,-1,-1,-1,-1,-1,-1,-1,66,68,70,-1,-1,72,74,76,78,-1,-1,-1,-1,-1,-1,-1,-1,-1,-1,-1,-1,-1,-1,-1,-1,-1,-1,-1,-1,-1,-1,-1,-1,-1,-1,-1],"split_conditions":[1.75E2,1.56E2,1E1,4.33E2,1.72E2,2.13E2,2.65E2,1.38E2,1.34E2,1.69E2,1.59E2,1.78E2,4.08E2,1.97E2,2.91E2,2.97E2,2.68E2,1.22E2,1.37E2,1.65E2,1.0625716E1,1.58E2,4.05E2,2.82E2,3E0,2.3E2,5.06E2,-3.5368654E-1,1.3817964E0,1.86E2,1E0,1.31E2,3.09E2,3.89E2,1.51E2,3.6901186E0,-1.6502748E0,2.1114496E1,4.7896E0,-1.5940034E0,4.7513583E-1,-5.8489733E0,2.5235872E0,2.99E2,1.68E2,2E0,7.716657E0,-9.538512E0,2.45E2,2.5E1,3.4E2,4.12E2,-3.8423768E-1,4.053406E0,1.4769566E1,7.830567E-1,4.9798584E0,-6.6534424E0,-1.8041179E-1,3.313291E1,-1.9553973E-1,6.958774E0,-1.6158783E0,-1.4360518E1,-6.467469E-1,-1.2039383E1,-4.9159546E0,-2.3631227E0,-5.7678226E-2,-5.85479E0,2.2197251E0,-5.207918E0,4.0070124E0,-2.565703E0,2.2990115E0,4.0330033E0,1.6617426E1,3.4728518E0,1.3518135E1],"split_indices":[0,0,2,1,4,4,0,0,0,0,0,4,3,0,4,1,1,0,0,0,0,0,3,1,3,1,3,0,0,4,3,3,1,3,0,0,0,0,0,0,0,0,0,4,0,3,0,0,0,3,4,3,0,0,0,0,0,0,0,0,0,0,0,0,0,0,0,0,0,0,0,0,0,0,0,0,0,0,0],"split_type":[0,0,0,0,0,0,0,0,0,0,0,0,0,0,0,0,0,0,0,0,0,0,0,0,0,0,0,0,0,0,0,0,0,0,0,0,0,0,0,0,0,0,0,0,0,0,0,0,0,0,0,0,0,0,0,0,0,0,0,0,0,0,0,0,0,0,0,0,0,0,0,0,0,0,0,0,0,0,0],"sum_hessian":[3.67E2,1.71E2,1.96E2,1.46E2,2.5E1,1.85E2,1.1E1,1.41E2,5E0,4E0,2.1E1,2.9E1,1.56E2,2E0,9E0,1.22E2,1.9E1,3E0,2E0,3E0,1E0,5E0,1.6E1,1.1E1,1.8E1,1.5E2,6E0,1E0,1E0,5E0,4E0,8.8E1,3.4E1,1.7E1,2E0,2E0,1E0,1E0,1E0,2E0,1E0,4E0,1E0,1.4E1,2E0,9E0,2E0,5E0,1.3E1,1.16E2,3.4E1,5E0,1E0,1E0,4E0,2E0,2E0,4.4E1,4.4E1,2E0,3.2E1,1.6E1,1E0,1E0,1E0,1.2E1,2E0,1E0,1E0,4E0,5E0,9E0,4E0,4.3E1,7.3E1,3.2E1,2E0,1E0,4E0],"tree_param":{"num_deleted":"0","num_feature":"5","num_nodes":"79","size_leaf_vector":"1"}},{"base_weights":[7.46169E-1,-1.0609318E-1,2.4027641E1,-2.650253E0,6.8119464E0,1.3184384E1,4.5128876E1,-1.2226602E1,7.200664E-1,1.1409003E2,3.3157105E0,3.1451223E1,-1.1372699E1,1.5526081E1,3.7882051E0,-1.4749938E1,1.6306192E1,3.0673618E1,-1.7800633E0,4.6402718E1,4.937796E0,-8.2578335E0,1.00116825E1,1.1389037E1,3.6853516E0,-7.98154E0,7.650635E0,-2.3046263E1,-2.0572352E0,2.1605951E1,-9.240503E0,6.9267265E1,-2.7518446E0,-2.0948238E1,-1.624913E-1,-1.9026249E1,1.696655E1,1.5021081E1,-2.511417E0,3.215726E0,2.2705995E-1,-4.3751645E0,-1.0131165E1,-1.750434E0,4.492623E0,1.9633805E0,-1.0857139E1,2.8834864E1,7.530453E0,2.5172758E0,-1.3784093E1,-3.662478E0,-1.4677624E1,2.6649642E-1,-1.0315947E1,-1.7158018E1,-1.9874383E0,-2.9907122E0,1.2322315E1,3.632994E0,1.0417035E1,-4.133889E0,5.149288E0],"categories":[],"categories_nodes":[],"categories_segments":[],"categories_sizes":[],"default_left":[0,0,0,0,0,0,0,0,0,0,0,0,0,0,0,0,0,0,0,0,0,0,0,0,0,0,0,0,0,0,0,0,0,0,0,0,0,0,0,0,0,0,0,0,0,0,0,0,0,0,0,0,0,0,0,0,0,0,0,0,0,0,0],"id":10,"left_children":[1,3,5,7,9,11,13,15,17,19,21,23,25,-1,-1,27,29,31,33,-1,-1,35,37,-1,-1,-1,39,41,43,-1,45,47,49,51,53,55,57,59,61,-1,-1,-1,-1,-1,-1,-1,-1,-1,-1,-1,-1,-1,-1,-1,-1,-1,-1,-1,-1,-1,-1,-1,-1],"loss_changes":[7.3043745E3,6.2838667E3,2.379484E3,8.432671E3,3.562838E4,4.843488E3,2.0774414E2,5.136368E3,1.4582828E4,9.341375E3,7.367311E3,2.825464E2,1.6524045E3,0E0,0E0,6.586662E3,9.205297E3,1.954077E4,5.5776587E3,0E0,0E0,9.829742E3,3.8017153E3,0E0,0E0,0E0,5.534665E1,2.9561074E3,1.7602592E3,0E0,2.3638914E3,5.8879688E3,4.7173555E3,2.8259849E3,6.036369E3,1.1454306E4,7.552418E3,2.04579E3,4.2272993E3,0E0,0E0,0E0,0E0,0E0,0E0,0E0,0E0,0E0,0E0,0E0,0E0,0E0,0E0,0E0,0E0,0E0,0E0,0E0,0E0,0E0,0E0,0E0,0E0],"parents":[2147483647,0,0,1,1,2,2,3,3,4,4,5,5,6,6,7,7,8,8,9,9,10,10,11,11,12,12,15,15,16,16,17,17,18,18,21,21,22,22,26,26,27,27,28,28,30,30,31,31,32,32,33,33,34,34,35,35,36,36,37,37,38,38],"right_children":[2,4,6,8,10,12,14,16,18,20,22,24,26,-1,-1,28,30,32,34,-1,-1,36,38,-1,-1,-1,40,42,44,-1,46,48,50,52,54,56,58,60,62,-1,-1,-1,-1,-1,-1,-1,-1,-1,-1,-1,-1,-1,-1,-1,-1,-1,-1,-1,-1,-1,-1,-1,-1],"split_conditions":[4.31E2,3.24E2,4.4E2,1.13E2,3.36E2,3.37E2,5.35E2,4.02E2,1.23E2,1.05E2,1.8E1,1.88E2,4.48E2,1.5526081E1,3.7882051E0,1.31E2,4.12E2,1E0,1.38E2,4.6402718E1,4.937796E0,3.27E2,4.58E2,1.1389037E1,3.6853516E0,-7.98154E0,4.62E2,3E0,6.6E1,2.1605951E1,1.07E2,2.34E2,2.56E2,1.37E2,3.83E2,3.51E2,1.34E2,3.34E2,5.59E2,3.215726E0,2.2705995E-1,-4.3751645E0,-1.0131165E1,-1.750434E0,4.492623E0,1.9633805E0,-1.0857139E1,2.8834864E1,7.530453E0,2.5172758E0,-1.3784093E1,-3.662478E0,-1.4677624E1,2.6649642E-1,-1.0315947E1,-1.7158018E1,-1.9874383E0,-2.9907122E0,1.2322315E1,3.632994E0,1.0417035E1,-4.133889E0,5.149288E0],"split_indices":[0,4,4,0,4,4,4,1,0,0,3,1,0,0,0,3,1,3,0,0,0,1,4,0,0,0,0,3,1,0,0,4,1,0,0,4,0,0,4,0,0,0,0,0,0,0,0,0,0,0,0,0,0,0,0,0,0,0,0,0,0,0,0],"split_type":[0,0,0,0,0,0,0,0,0,0,0,0,0,0,0,0,0,0,0,0,0,0,0,0,0,0,0,0,0,0,0,0,0,0,0,0,0,0,0,0,0,0,0,0,0,0,0,0,0,0,0,0,0,0,0,0,0,0,0,0,0,0,0],"sum_hessian":[3.67E2,3.55E2,1.2E1,2.6E2,9.5E1,9E0,3E0,6.7E1,1.93E2,2E0,9.3E1,5E0,4E0,2E0,1E0,6.2E1,5E0,1.4E1,1.79E2,1E0,1E0,3.4E1,5.9E1,3E0,2E0,2E0,2E0,3.7E1,2.5E1,1E0,4E0,6E0,8E0,1.3E1,1.66E2,2.4E1,1E1,4.2E1,1.7E1,1E0,1E0,2.2E1,1.5E1,2.1E1,4E0,3E0,1E0,3E0,3E0,7E0,1E0,1.1E1,2E0,1.62E2,4E0,5E0,1.9E1,5E0,5E0,3.8E1,4E0,1.1E1,6E0],"tree_param":{"num_deleted":"0","num_feature":"5","num_nodes":"63","size_leaf_vector":"1"}},{"base_weights":[7.508475E-1,-5.015568E-1,1.1968345E1,1.3343635E-1,-3.0002445E1,4.4540905E1,4.2271748E0,-6.8765295E-1,2.9130432E1,-3.7517673E1,2.2633393E0,1.4935292E1,1.9620758E0,-6.1820564E0,1.91155E1,-1.2493382E0,2.4445696E1,3.2392136E1,4.5552066E-1,-1.3005786E1,-1.2514435E0,-2.2728779E1,1.4728611E1,1.226023E1,1.1445382E1,-3.8801117E0,5.182322E0,6.0468597E0,3.673311E1,1.0794447E1,1.0899994E0,-3.7950905E1,1.3397667E1,2.0504639E1,-1.0974976E0,-6.385233E0,2.1083504E1,-4.1001782E0,-6.5145496E-4,9.298255E-1,7.144654E0,-1.9319458E-1,3.917908E0,1.6098972E1,3.9605958E0,-1.771146E1,-4.0472665E0,4.4589388E-1,5.0618043E0,8.607376E0,2.1575594E0,2.4785829E0,7.0699587E0],"categories":[],"categories_nodes":[],"categories_segments":[],"categories_sizes":[],"default_left":[0,0,0,0,0,0,0,0,0,0,0,0,0,0,0,0,0,0,0,0,0,0,0,0,0,0,0,0,0,0,0,0,0,0,0,0,0,0,0,0,0,0,0,0,0,0,0,0,0,0,0,0,0],"id":11,"left_children":[1,3,5,7,9,11,13,15,17,19,-1,-1,-1,21,23,25,27,29,-1,-1,-1,31,33,-1,35,37,39,41,43,-1,-1,45,47,49,-1,-1,51,-1,-1,-1,-1,-1,-1,-1,-1,-1,-1,-1,-1,-1,-1,-1,-1],"loss_changes":[5.1759766E3,6.2233145E3,9.14126E3,7.7818057E3,2.2582666E3,1.069166E3,4.9224297E3,4.519757E3,7.6137646E2,9.865947E2,0E0,0E0,0E0,6.9088203E3,1.7011753E3,5.2992236E3,1.3603984E3,6.950713E2,0E0,0E0,0E0,6.557588E3,1.0308439E3,0E0,3.9187021E3,8.425753E3,3.458E3,1.9609723E2,8.850786E2,0E0,0E0,3.3298877E3,1.4049042E2,5.5656226E2,0E0,0E0,9.1821045E1,0E0,0E0,0E0,0E0,0E0,0E0,0E0,0E0,0E0,0E0,0E0,0E0,0E0,0E0,0E0,0E0],"parents":[2147483647,0,0,1,1,2,2,3,3,4,4,5,5,6,6,7,7,8,8,9,9,13,13,14,14,15,15,16,16,17,17,21,21,22,22,24,24,25,25,26,26,27,27,28,28,31,31,32,32,33,33,36,36],"right_children":[2,4,6,8,10,12,14,16,18,20,-1,-1,-1,22,24,26,28,30,-1,-1,-1,32,34,-1,36,38,40,42,44,-1,-1,46,48,50,-1,-1,52,-1,-1,-1,-1,-1,-1,-1,-1,-1,-1,-1,-1,-1,-1,-1,-1],"split_conditions":[3.46E2,3.42E2,3.64E2,3.3E2,2.42E2,5.75E2,4.31E2,4.34E2,8E0,5.44E2,2.2633393E0,1.4935292E1,1.9620758E0,3.1E1,4.35E2,2.24E2,1.34E2,1E0,4.5552066E-1,-1.3005786E1,-1.2514435E0,1E0,1.99E2,1.226023E1,4.48E2,3.5E1,6.6E1,1E0,1.37E2,1.0794447E1,1.0899994E0,1.04E2,3.76E2,3.97E2,-1.0974976E0,-6.385233E0,2E0,-4.1001782E0,-6.5145496E-4,9.298255E-1,7.144654E0,-1.9319458E-1,3.917908E0,1.6098972E1,3.9605958E0,-1.771146E1,-4.0472665E0,4.4589388E-1,5.0618043E0,8.607376E0,2.1575594E0,2.4785829E0,7.0699587E0],"split_indices":[0,0,0,0,1,4,0,1,3,4,0,0,0,3,0,3,0,2,0,0,0,2,3,0,0,1,1,3,0,0,0,1,0,0,0,0,3,0,0,0,0,0,0,0,0,0,0,0,0,0,0,0,0],"split_type":[0,0,0,0,0,0,0,0,0,0,0,0,0,0,0,0,0,0,0,0,0,0,0,0,0,0,0,0,0,0,0,0,0,0,0,0,0,0,0,0,0,0,0,0,0,0,0,0,0,0,0,0,0],"sum_hessian":[3.67E2,3.31E2,3.6E1,3.25E2,6E0,6E0,3E1,3.17E2,8E0,5E0,1E0,5E0,1E0,1.8E1,1.2E1,3.11E2,6E0,7E0,1E0,4E0,1E0,1E1,8E0,2E0,1E1,2.21E2,9E1,3E0,3E0,6E0,1E0,7E0,3E0,6E0,2E0,2E0,8E0,6.2E1,1.59E2,8.2E1,8E0,2E0,1E0,1E0,2E0,3E0,4E0,1E0,2E0,3E0,3E0,2E0,6E0],"tree_param":{"num_deleted":"0","num_feature":"5","num_nodes":"53","size_leaf_vector":"1"}},{"base_weights":[6.71904E-1,-1.4704998E0,6.124453E0,-8.116335E0,8.193351E-1,9.33786E1,3.498111E0,-4.088332E0,-2.3360895E1,2.3232592E1,-1.0122855E0,3.9442413E1,2.5779603E0,-4.8025002E0,8.296959E0,-7.211283E0,2.8583435E1,-3.4472958E1,1.3037506E1,5.3682713E1,-3.0322351E0,-5.467739E0,4.018137E0,-3.2019485E1,2.3761578E0,4.0640287E0,1.6385685E1,-2.674428E0,-2.3465809E1,1.8365158E1,1.5362092E0,-9.78878E0,-4.2505928E1,1.1198273E0,4.468451E0,7.578441E1,5.448102E0,9.646478E0,-3.1605154E1,-1.9722343E1,-3.1585652E-1,6.2654095E0,-1.3912402E1,-4.9626198E1,1.3684122E1,8.332628E0,-1.9236403E1,6.4239755E0,-2.1141434E1,2.459347E1,5.9421306E0,-4.3018155E0,1.1715469E0,-9.55182E0,9.040512E0,-6.6965885E0,5.4888004E-1,-1.3593019E1,-3.4315522E0,5.061228E0,2.6939613E1,3.5811074E0,-6.145203E-1,-2.5059357E0,-1.1716384E1,-8.060395E0,7.888701E0,-1.0595208E0,4.897753E0,1.1140477E-2,4.0592093E0,-6.476441E0,3.3581054E0,-4.3940153E0,-2.1659739E1,6.139107E0,-3.3569765E-1,-8.096139E0,4.090192E0,-3.6410089E0,2.4626036E0,-7.3181033E0,-1.7077057E0,2.37125E0,1.1989624E1,-2.0334153E0,5.301587E0],"categories":[],"categories_nodes":[],"categories_segments":[],"categories_sizes":[],"default_left":[0,0,0,0,0,0,0,0,0,0,0,0,0,0,0,0,0,0,0,0,0,0,0,0,0,0,0,0,0,0,0,0,0,0,0,0,0,0,0,0,0,0,0,0,0,0,0,0,0,0,0,0,0,0,0,0,0,0,0,0,0,0,0,0,0,0,0,0,0,0,0,0,0,0,0,0,0,0,0,0,0,0,0,0,0,0,0],"id":12,"left_children":[1,3,5,7,9,11,13,15,17,19,21,-1,-1,23,25,27,29,31,33,35,37,39,41,43,45,47,49,51,53,-1,-1,55,57,-1,-1,59,-1,61,63,65,67,69,71,73,-1,75,77,79,81,83,85,-1,-1,-1,-1,-1,-1,-1,-1,-1,-1,-1,-1,-1,-1,-1,-1,-1,-1,-1,-1,-1,-1,-1,-1,-1,-1,-1,-1,-1,-1,-1,-1,-1,-1,-1,-1],"loss_changes":[4.3078213E3,4.0393848E3,2.3505914E4,4.080041E3,8.151929E3,8.560193E3,4.1028506E3,5.8179014E3,6.1119004E3,1.2159284E4,4.145928E3,0E0,0E0,7.500578E3,2.1589443E3,3.6982083E3,3.5149119E3,1.7650791E3,1.3529114E1,4.119463E3,3.565289E3,7.190699E3,3.5928154E3,1.31985625E4,4.151062E3,2.7530881E3,1.739668E3,3.2027705E3,5.896628E3,0E0,0E0,6.233013E2,1.7865723E2,0E0,0E0,1.7875605E3,0E0,2.1196545E2,1.9341748E2,9.256044E3,3.96445E3,3.529014E3,2.168727E3,4.4696445E3,0E0,2.8893535E3,2.1513264E3,1.4577628E3,6.2119385E1,2.7626714E3,1.7610419E3,0E0,0E0,0E0,0E0,0E0,0E0,0E0,0E0,0E0,0E0,0E0,0E0,0E0,0E0,0E0,0E0,0E0,0E0,0E0,0E0,0E0,0E0,0E0,0E0,0E0,0E0,0E0,0E0,0E0,0E0,0E0,0E0,0E0,0E0,0E0,0E0],"parents":[2147483647,0,0,1,1,2,2,3,3,4,4,5,5,6,6,7,7,8,8,9,9,10,10,13,13,14,14,15,15,16,16,17,17,18,18,19,19,20,20,21,21,22,22,23,23,24,24,25,25,26,26,27,27,28,28,31,31,32,32,35,35,37,37,38,38,39,39,40,40,41,41,42,42,43,43,45,45,46,46,47,47,48,48,49,49,50,50],"right_children":[2,4,6,8,10,12,14,16,18,20,22,-1,-1,24,26,28,30,32,34,36,38,40,42,44,46,48,50,52,54,-1,-1,56,58,-1,-1,60,-1,62,64,66,68,70,72,74,-1,76,78,80,82,84,86,-1,-1,-1,-1,-1,-1,-1,-1,-1,-1,-1,-1,-1,-1,-1,-1,-1,-1,-1,-1,-1,-1,-1,-1,-1,-1,-1,-1,-1,-1,-1,-1,-1,-1,-1,-1],"split_conditions":[3.24E2,1.13E2,3.36E2,1.07E2,1.23E2,1.05E2,1.7E1,3.96E2,2.85E2,1E0,2.22E2,3.9442413E1,2.5779603E0,3.51E2,1.4E1,2.96E2,4.12E2,1.71E2,1.12E2,3.41E2,1.41E2,1E0,3.06E2,4.12E2,8E0,2E0,8.3E1,2E0,9.4E1,1.8365158E1,1.5362092E0,1E0,2.49E2,1.1198273E0,4.468451E0,1.17E2,5.448102E0,1.21E2,1.17E2,3.54E2,2.32E2,2.45E2,4.31E2,3.43E2,1.3684122E1,3.79E2,1.62E2,2.5E1,4.7E1,1E2,3.64E2,-4.3018155E0,1.1715469E0,-9.55182E0,9.040512E0,-6.6965885E0,5.4888004E-1,-1.3593019E1,-3.4315522E0,5.061228E0,2.6939613E1,3.5811074E0,-6.145203E-1,-2.5059357E0,-1.1716384E1,-8.060395E0,7.888701E0,-1.0595208E0,4.897753E0,1.1140477E-2,4.0592093E0,-6.476441E0,3.3581054E0,-4.3940153E0,-2.1659739E1,6.139107E0,-3.3569765E-1,-8.096139E0,4.090192E0,-3.6410089E0,2.4626036E0,-7.3181033E0,-1.7077057E0,2.37125E0,1.1989624E1,-2.0334153E0,5.301587E0],"split_indices":[4,0,4,0,0,0,3,1,3,3,0,0,0,4,1,1,1,4,0,1,1,3,4,1,3,1,3,1,0,0,0,3,4,0,0,0,0,0,0,1,1,4,0,4,0,4,1,3,3,0,4,0,0,0,0,0,0,0,0,0,0,0,0,0,0,0,0,0,0,0,0,0,0,0,0,0,0,0,0,0,0,0,0,0,0,0,0],"split_type":[0,0,0,0,0,0,0,0,0,0,0,0,0,0,0,0,0,0,0,0,0,0,0,0,0,0,0,0,0,0,0,0,0,0,0,0,0,0,0,0,0,0,0,0,0,0,0,0,0,0,0,0,0,0,0,0,0,0,0,0,0,0,0,0,0,0,0,0,0,0,0,0,0,0,0,0,0,0,0,0,0,0,0,0,0,0,0],"sum_hessian":[3.67E2,2.64E2,1.03E2,6.7E1,1.97E2,2E0,1.01E2,5.4E1,1.3E1,1.4E1,1.83E2,1E0,1E0,3.7E1,6.4E1,5E1,4E0,1E1,3E0,6E0,8E0,9.7E1,8.6E1,7E0,3E1,4.3E1,2.1E1,4E1,1E1,1E0,3E0,3E0,7E0,1E0,2E0,3E0,3E0,6E0,2E0,2.5E1,7.2E1,7.7E1,9E0,6E0,1E0,2.4E1,6E0,4E1,3E0,1.1E1,1E1,1.4E1,2.6E1,9E0,1E0,1E0,2E0,6E0,1E0,1E0,2E0,5E0,1E0,1E0,1E0,2.2E1,3E0,6.1E1,1.1E1,4.2E1,3.5E1,7E0,2E0,3E0,3E0,1E1,1.4E1,5E0,1E0,3E0,3.7E1,2E0,1E0,6E0,5E0,5E0,5E0],"tree_param":{"num_deleted":"0","num_feature":"5","num_nodes":"87","size_leaf_vector":"1"}},{"base_weights":[6.5609306E-1,-8.500955E-2,1.2315479E1,-4.5051607E-1,2.0763031E1,8.002429E0,8.917081E0,-2.9377813E0,2.4306622E0,7.4267583E0,8.5182495E0,7.306569E-1,1.7909782E1,-1.2546797E1,-9.500901E-2,1.5047934E0,1.9718334E1,3.4038484E0,4.2936403E-1,4.7750244E0,-3.898236E0,6.7399416E0,8.218391E0,-2.7338198E1,-4.174732E0,-2.545469E0,8.4845705E0,-1.4744496E-1,1.0322875E1,7.7455506E0,2.975473E1,-8.324821E0,2.761621E0,-3.4833374E0,1.4716573E1,-2.2204459E0,-1.1942086E1,6.194095E0,-2.063463E0,-4.3965945E-1,-9.401221E0,9.17777E0,1.2701081E0,5.0192255E-1,-3.4400804E0,5.3842154E0,-1.3136383E0,-4.1754457E-1,3.113354E0,1.7490876E0,1.0735834E1,-3.6398804E0,-1.08401E0,-2.8309938E-1,-1.2844025E0,5.629047E0,9.934113E-1],"categories":[],"categories_nodes":[],"categories_segments":[],"categories_sizes":[],"default_left":[0,0,0,0,0,0,0,0,0,0,0,0,0,0,0,0,0,0,0,0,0,0,0,0,0,0,0,0,0,0,0,0,0,0,0,0,0,0,0,0,0,0,0,0,0,0,0,0,0,0,0,0,0,0,0,0,0],"id":13,"left_children":[1,3,5,7,9,11,-1,13,15,-1,17,19,21,23,25,27,29,-1,-1,-1,31,33,-1,35,37,39,41,43,45,47,49,51,-1,53,55,-1,-1,-1,-1,-1,-1,-1,-1,-1,-1,-1,-1,-1,-1,-1,-1,-1,-1,-1,-1,-1,-1],"loss_changes":[3.1808618E3,2.653527E3,1.4139458E3,2.4579995E3,8.247119E1,1.3557504E3,0E0,5.024997E3,2.5153003E3,0E0,4.3885757E1,9.055848E2,6.6291626E2,5.0869224E3,3.0280176E3,2.216097E3,7.3084204E2,0E0,0E0,0E0,6.566771E2,4.5899948E2,0E0,3.4341582E3,2.0209529E3,3.436545E3,2.8777878E3,2.6775344E3,2.76882E3,1.3470526E2,3.6854614E2,9.96933E1,0E0,2.039856E0,7.633478E1,0E0,0E0,0E0,0E0,0E0,0E0,0E0,0E0,0E0,0E0,0E0,0E0,0E0,0E0,0E0,0E0,0E0,0E0,0E0,0E0,0E0,0E0],"parents":[2147483647,0,0,1,1,2,2,3,3,4,4,5,5,7,7,8,8,10,10,11,11,12,12,13,13,14,14,15,15,16,16,20,20,21,21,23,23,24,24,25,25,26,26,27,27,28,28,29,29,30,30,31,31,33,33,34,34],"right_children":[2,4,6,8,10,12,-1,14,16,-1,18,20,22,24,26,28,30,-1,-1,-1,32,34,-1,36,38,40,42,44,46,48,50,52,-1,54,56,-1,-1,-1,-1,-1,-1,-1,-1,-1,-1,-1,-1,-1,-1,-1,-1,-1,-1,-1,-1,-1,-1],"split_conditions":[4.12E2,8.3E1,3.3E1,1.2E2,2E0,2.01E2,8.917081E0,2.5E1,5.4E1,7.4267583E0,3.11E2,4.22E2,1.93E2,2.63E2,3.64E2,2.72E2,1.52E2,3.4038484E0,4.2936403E-1,4.7750244E0,5.31E2,2.45E2,8.218391E0,1.67E2,3.05E2,3.53E2,3.73E2,3.45E2,3.43E2,1E0,6E1,2.3E2,2.761621E0,2.26E2,2.56E2,-2.2204459E0,-1.1942086E1,6.194095E0,-2.063463E0,-4.3965945E-1,-9.401221E0,9.17777E0,1.2701081E0,5.0192255E-1,-3.4400804E0,5.3842154E0,-1.3136383E0,-4.1754457E-1,3.113354E0,1.7490876E0,1.0735834E1,-3.6398804E0,-1.08401E0,-2.8309938E-1,-1.2844025E0,5.629047E0,9.934113E-1],"split_indices":[3,2,1,1,1,0,0,3,3,0,0,3,4,4,4,0,1,0,0,0,3,0,0,4,4,4,4,4,0,0,0,4,0,0,0,0,0,0,0,0,0,0,0,0,0,0,0,0,0,0,0,0,0,0,0,0,0],"split_type":[0,0,0,0,0,0,0,0,0,0,0,0,0,0,0,0,0,0,0,0,0,0,0,0,0,0,0,0,0,0,0,0,0,0,0,0,0,0,0,0,0,0,0,0,0,0,0,0,0,0,0,0,0,0,0,0,0],"sum_hessian":[3.67E2,3.46E2,2.1E1,3.41E2,5E0,1.8E1,3E0,1.83E2,1.58E2,3E0,2E0,1.1E1,7E0,4.1E1,1.42E2,1.51E2,7E0,1E0,1E0,2E0,9E0,4E0,3E0,1.4E1,2.7E1,1.11E2,3.1E1,1.28E2,2.3E1,4E0,3E0,7E0,2E0,2E0,2E0,6E0,8E0,2E0,2.5E1,1.08E2,3E0,4E0,2.7E1,1.11E2,1.7E1,1.5E1,8E0,1E0,3E0,1E0,2E0,3E0,4E0,1E0,1E0,1E0,1E0],"tree_param":{"num_deleted":"0","num_feature":"5","num_nodes":"57","size_leaf_vector":"1"}},{"base_weights":[5.765277E-1,-3.462519E-1,7.747299E0,-2.2829416E0,4.478553E0,2.3988616E0,1.8272827E1,-1.3622681E0,-1.6653362E1,7.740977E1,2.0516808E0,-1.22722435E1,8.572247E0,6.2260866E0,2.2468914E1,-2.046223E0,1.4976027E1,-2.1886604E1,9.8307295E0,3.345076E1,1.3836365E0,1.0399666E-1,1.3879608E1,-4.147476E0,-1.1590558E1,2.6715405E1,2.7317739E0,4.1733766E0,8.269806E-1,2.5478899E1,1.1584213E1,-9.792419E0,-2.5372833E-1,1.5535099E1,3.9021149E0,-1.850647E0,-2.8359629E1,-4.696106E-1,4.893439E0,1.2448529E0,-1.3503549E1,3.1322418E1,5.5145235E0,5.134369E0,-1.0743457E1,1.044229E1,-8.4802556E-1,-1.5731105E1,1.1735565E1,9.1120607E-1,-9.2226154E-1,8.838835E0,3.1038392E0,4.5716496E0,9.3054205E-2,-1.6596603E0,-1.1552253E1,1.3814248E0,-1.4207065E0,-7.2648015E0,3.4135256E0,-1.8287842E0,4.7893068E-1,-2.0097475E0,-9.068938E0,-5.792116E-1,2.7181773E0,1.3619617E1,-1.6359742E0,-9.717069E0,3.9975233E0,1.6210328E-1,2.8374665E0,1.0178009E0,-4.537697E0,-6.561253E0,-6.90326E-1,1.6376221E0,5.8294115E0,-4.5639956E-1,4.1381836E-2],"categories":[],"categories_nodes":[],"categories_segments":[],"categories_sizes":[],"default_left":[0,0,0,0,0,0,0,0,0,0,0,0,0,0,0,0,0,0,0,0,0,0,0,0,0,0,0,0,0,0,0,0,0,0,0,0,0,0,0,0,0,0,0,0,0,0,0,0,0,0,0,0,0,0,0,0,0,0,0,0,0,0,0,0,0,0,0,0,0,0,0,0,0,0,0,0,0,0,0,0,0],"id":14,"left_children":[1,3,5,7,9,11,13,15,17,19,21,23,25,27,29,31,33,35,37,-1,-1,39,41,43,-1,45,47,-1,49,51,53,55,57,-1,59,61,63,-1,-1,65,-1,67,69,71,73,-1,-1,75,77,-1,79,-1,-1,-1,-1,-1,-1,-1,-1,-1,-1,-1,-1,-1,-1,-1,-1,-1,-1,-1,-1,-1,-1,-1,-1,-1,-1,-1,-1,-1,-1],"loss_changes":[2.4377537E3,3.0657612E3,2.3205613E3,3.0732422E3,1.6478684E4,2.731742E3,5.677954E2,2.5002432E3,2.1555286E3,6.9313535E3,2.1179668E3,1.767497E3,2.1522769E3,1.9596085E2,3.247461E1,2.9550237E3,3.466375E3,1.5038354E3,2.4709866E2,0E0,0E0,4.1736865E3,1.7241094E3,5.449438E2,0E0,1.2937017E3,3.0106235E3,0E0,1.8267143E1,1.1718457E2,1.6008228E2,4.6802705E3,3.8107441E3,0E0,1.9572964E3,6.826739E1,1.6206348E2,0E0,0E0,1.9782205E3,0E0,2.3182324E3,3.392173E3,7.434485E1,3.6105298E2,0E0,0E0,4.4441418E2,4.7359192E2,0E0,2.1152563E0,0E0,0E0,0E0,0E0,0E0,0E0,0E0,0E0,0E0,0E0,0E0,0E0,0E0,0E0,0E0,0E0,0E0,0E0,0E0,0E0,0E0,0E0,0E0,0E0,0E0,0E0,0E0,0E0,0E0,0E0],"parents":[2147483647,0,0,1,1,2,2,3,3,4,4,5,5,6,6,7,7,8,8,9,9,10,10,11,11,12,12,13,13,14,14,15,15,16,16,17,17,18,18,21,21,22,22,23,23,25,25,26,26,28,28,29,29,30,30,31,31,32,32,34,34,35,35,36,36,39,39,41,41,42,42,43,43,44,44,47,47,48,48,50,50],"right_children":[2,4,6,8,10,12,14,16,18,20,22,24,26,28,30,32,34,36,38,-1,-1,40,42,44,-1,46,48,-1,50,52,54,56,58,-1,60,62,64,-1,-1,66,-1,68,70,72,74,-1,-1,76,78,-1,80,-1,-1,-1,-1,-1,-1,-1,-1,-1,-1,-1,-1,-1,-1,-1,-1,-1,-1,-1,-1,-1,-1,-1,-1,-1,-1,-1,-1,-1,-1],"split_conditions":[3.48E2,3.24E2,1E0,3.06E2,3.36E2,1.32E2,3.86E2,4.1E2,4.31E2,1.05E2,3.27E2,1.29E2,1.55E2,2.3E1,4.27E2,9.7E1,4.12E2,1E0,4.57E2,3.345076E1,1.3836365E0,3.19E2,3.45E2,8.8E1,-1.1590558E1,4.08E2,1.92E2,4.1733766E0,6.8E1,1.89E2,1.32E2,9E1,5E0,1.5535099E1,4.16E2,2.35E2,3.09E2,-4.696106E-1,4.893439E0,3.45E2,-1.3503549E1,1.37E2,3.46E2,8E1,3.82E2,1.044229E1,-8.4802556E-1,2.92E2,2.45E2,9.1120607E-1,1.23E2,8.838835E0,3.1038392E0,4.5716496E0,9.3054205E-2,-1.6596603E0,-1.1552253E1,1.3814248E0,-1.4207065E0,-7.2648015E0,3.4135256E0,-1.8287842E0,4.7893068E-1,-2.0097475E0,-9.068938E0,-5.792116E-1,2.7181773E0,1.3619617E1,-1.6359742E0,-9.717069E0,3.9975233E0,1.6210328E-1,2.8374665E0,1.0178009E0,-4.537697E0,-6.561253E0,-6.90326E-1,1.6376221E0,5.8294115E0,-4.5639956E-1,4.1381836E-2],"split_indices":[3,4,1,4,4,0,3,1,0,0,1,0,0,1,3,0,1,1,0,0,0,1,4,0,0,3,0,0,0,0,0,0,3,0,1,0,4,0,0,0,0,0,4,0,3,0,0,4,0,0,0,0,0,0,0,0,0,0,0,0,0,0,0,0,0,0,0,0,0,0,0,0,0,0,0,0,0,0,0,0,0],"split_type":[0,0,0,0,0,0,0,0,0,0,0,0,0,0,0,0,0,0,0,0,0,0,0,0,0,0,0,0,0,0,0,0,0,0,0,0,0,0,0,0,0,0,0,0,0,0,0,0,0,0,0,0,0,0,0,0,0,0,0,0,0,0,0,0,0,0,0,0,0,0,0,0,0,0,0,0,0,0,0,0,0],"sum_hessian":[3.67E2,3.26E2,4.1E1,2.33E2,9.3E1,2.8E1,1.3E1,2.2E2,1.3E1,2E0,9.1E1,8E0,2E1,4E0,9E0,2.12E2,8E0,1.1E1,2E0,1E0,1E0,7.9E1,1.2E1,7E0,1E0,4E0,1.6E1,1E0,3E0,6E0,3E0,3.9E1,1.73E2,1E0,7E0,3E0,8E0,1E0,1E0,7.8E1,1E0,3E0,9E0,3E0,4E0,3E0,1E0,5E0,1.1E1,1E0,2E0,4E0,2E0,2E0,1E0,3.5E1,4E0,8.3E1,9E1,1E0,6E0,1E0,2E0,1E0,7E0,5.6E1,2.2E1,2E0,1E0,1E0,8E0,2E0,1E0,1E0,3E0,3E0,2E0,7E0,4E0,1E0,1E0],"tree_param":{"num_deleted":"0","num_feature":"5","num_nodes":"81","size_leaf_vector":"1"}},{"base_weights":[5.099251E-1,-1.82125E1,7.657004E-1,-6.9905076E0,-7.052475E0,5.5776525E-1,5.8021274E0,1.914528E-1,-3.3650668E0,-6.173521E-1,4.0004168E0,-3.1337562E0,2.602066E0,3.5826245E-1,7.479963E0,-1.9349513E0,-2.4470375E1,2.2583858E1,1.1515625E0,3.5329864E0,-1.7834198E1,3.6084553E1,3.9798954E0,-2.7685843E0,3.3862847E-1,-1.027437E1,6.595844E0,-2.3500092E0,1.0208548E1,4.0789504E0,-5.104941E-1,-5.5547263E-2,5.528612E0,-6.869486E0,-1.0347962E0,1.3130262E1,8.0289006E-1,-1.5703256E-1,3.4835978E0],"categories":[],"categories_nodes":[],"categories_segments":[],"categories_sizes":[],"default_left":[0,0,0,0,0,0,0,0,0,0,0,0,0,0,0,0,0,0,0,0,0,0,0,0,0,0,0,0,0,0,0,0,0,0,0,0,0,0,0],"id":15,"left_children":[1,3,5,-1,7,9,-1,-1,-1,11,13,15,17,19,21,23,25,27,29,31,33,35,37,-1,-1,-1,-1,-1,-1,-1,-1,-1,-1,-1,-1,-1,-1,-1,-1],"loss_changes":[1.7761992E3,1.19642944E2,1.3951036E3,0E0,1.0323952E2,1.4629023E3,0E0,0E0,0E0,2.1955208E3,1.1632404E3,3.8405742E3,3.423049E3,2.719786E3,4.5619336E3,3.2505415E3,4.386817E3,3.05147E3,4.000034E3,2.2187896E3,4.309402E2,1.1662407E3,1.4839841E3,0E0,0E0,0E0,0E0,0E0,0E0,0E0,0E0,0E0,0E0,0E0,0E0,0E0,0E0,0E0,0E0],"parents":[2147483647,0,0,1,1,2,2,4,4,5,5,9,9,10,10,11,11,12,12,13,13,14,14,15,15,16,16,17,17,18,18,19,19,20,20,21,21,22,22],"right_children":[2,4,6,-1,8,10,-1,-1,-1,12,14,16,18,20,22,24,26,28,30,32,34,36,38,-1,-1,-1,-1,-1,-1,-1,-1,-1,-1,-1,-1,-1,-1,-1,-1],"split_conditions":[9.1E1,1.6E1,1.76E2,-6.9905076E0,1E0,2.24E2,5.8021274E0,1.914528E-1,-3.3650668E0,2.81E2,1.69E2,2.71E2,2.87E2,1.55E2,1.82E2,9.4E1,3.96E2,1.23E2,1.05E2,1.41E2,4.05E2,3.28E2,3.86E2,-2.7685843E0,3.3862847E-1,-1.027437E1,6.595844E0,-2.3500092E0,1.0208548E1,4.0789504E0,-5.104941E-1,-5.5547263E-2,5.528612E0,-6.869486E0,-1.0347962E0,1.3130262E1,8.0289006E-1,-1.5703256E-1,3.4835978E0],"split_indices":[4,1,2,0,0,3,0,0,0,4,0,4,4,0,0,1,1,1,0,0,3,3,3,0,0,0,0,0,0,0,0,0,0,0,0,0,0,0,0],"split_type":[0,0,0,0,0,0,0,0,0,0,0,0,0,0,0,0,0,0,0,0,0,0,0,0,0,0,0,0,0,0,0,0,0,0,0,0,0,0,0],"sum_hessian":[3.67E2,4E0,3.63E2,2E0,2E0,3.6E2,3E0,1E0,1E0,2.69E2,9.1E1,1.51E2,1.18E2,4.5E1,4.6E1,1.44E2,7E0,7E0,1.11E2,3.9E1,6E0,4E0,4.2E1,4.2E1,1.02E2,6E0,1E0,2E0,5E0,2E1,9.1E1,3.2E1,7E0,4E0,2E0,3E0,1E0,2.7E1,1.5E1],"tree_param":{"num_deleted":"0","num_feature":"5","num_nodes":"39","size_leaf_vector":"1"}},{"base_weights":[3.9984465E-1,1.4452082E-1,1.3546614E1,-1.0926558E0,2.951944E0,3.3096313E0,1.697948E1,-6.061561E-1,-1.8033552E1,1.6195978E0,1.0761526E1,2.6106172E0,-1.121283E0,7.8182375E-1,5.976393E0,-3.1633875E0,2.5842698E0,7.201462E-1,-9.683659E0,5.7184677E0,-7.204029E-1,1.916336E0,1.4607855E1,-1.8384235E0,-2.429863E1,1.640404E1,1.0382526E0,-2.5967562E-1,1.5372518E0,3.495979E0,2.8259684E1,-1.0675736E1,1.3993871E0,-8.7987673E-1,3.4727721E0,4.6316476E0,9.4472355E-1,-7.886204E-1,9.748298E0,-1.508318E1,-4.021479E0,1.0649161E1,1.2678877E-1,1.4073846E0,-9.050793E-1,5.5649877E-1,1.3526459E-1,2.6060352E-1,3.9391284E0,1.074408E1,1.9727784E0,-6.214905E0,3.4324953E-1,3.618766E0,-1.5821534E-1,1.6900796E0,-7.7557987E-1],"categories":[],"categories_nodes":[],"categories_segments":[],"categories_sizes":[],"default_left":[0,0,0,0,0,0,0,0,0,0,0,0,0,0,0,0,0,0,0,0,0,0,0,0,0,0,0,0,0,0,0,0,0,0,0,0,0,0,0,0,0,0,0,0,0,0,0,0,0,0,0,0,0,0,0,0,0],"id":16,"left_children":[1,3,5,7,9,11,13,15,17,19,21,-1,-1,-1,-1,23,25,27,-1,29,31,33,35,37,39,41,43,-1,45,47,49,51,53,-1,55,-1,-1,-1,-1,-1,-1,-1,-1,-1,-1,-1,-1,-1,-1,-1,-1,-1,-1,-1,-1,-1,-1],"loss_changes":[1.2333018E3,1.2605522E3,1.8979944E2,2.0659875E3,1.1375333E3,1.4653006E2,1.5950403E2,2.0152047E3,1.893311E3,9.2488995E2,5.1635046E2,0E0,0E0,0E0,0E0,3.7917993E3,2.3331846E3,6.513463E0,0E0,1.6546206E3,1.323339E3,5.5470734E1,5.6123047E1,3.6127808E3,1.590065E3,3.341491E3,1.4955237E3,0E0,1.9917774E-1,8.239096E2,2.5588403E2,1.3291725E3,1.0747267E3,0E0,8.001619E1,0E0,0E0,0E0,0E0,0E0,0E0,0E0,0E0,0E0,0E0,0E0,0E0,0E0,0E0,0E0,0E0,0E0,0E0,0E0,0E0,0E0,0E0],"parents":[2147483647,0,0,1,1,2,2,3,3,4,4,5,5,6,6,7,7,8,8,9,9,10,10,15,15,16,16,17,17,19,19,20,20,21,21,22,22,23,23,24,24,25,25,26,26,28,28,29,29,30,30,31,31,32,32,34,34],"right_children":[2,4,6,8,10,12,14,16,18,20,22,-1,-1,-1,-1,24,26,28,-1,30,32,34,36,38,40,42,44,-1,46,48,50,52,54,-1,56,-1,-1,-1,-1,-1,-1,-1,-1,-1,-1,-1,-1,-1,-1,-1,-1,-1,-1,-1,-1,-1,-1],"split_conditions":[4.57E2,1.68E2,2E0,1.42E2,4.9E1,4.61E2,4.62E2,2.22E2,1.15E2,2.28E2,7.8E1,2.6106172E0,-1.121283E0,7.8182375E-1,5.976393E0,2.13E2,2.31E2,1.5E2,-9.683659E0,2.25E2,2.5E2,1E0,1E0,2.06E2,2.25E2,2.43E2,7.1E1,-2.5967562E-1,1.2E1,2E1,1.82E2,1.9E2,2.6E2,-8.7987673E-1,7E1,4.6316476E0,9.4472355E-1,-7.886204E-1,9.748298E0,-1.508318E1,-4.021479E0,1.0649161E1,1.2678877E-1,1.4073846E0,-9.050793E-1,5.5649877E-1,1.3526459E-1,2.6060352E-1,3.9391284E0,1.074408E1,1.9727784E0,-6.214905E0,3.4324953E-1,3.618766E0,-1.5821534E-1,1.6900796E0,-7.7557987E-1],"split_indices":[0,3,3,3,1,0,0,0,0,4,0,0,0,0,0,0,0,3,0,4,4,0,2,0,4,4,1,0,0,1,0,0,4,0,0,0,0,0,0,0,0,0,0,0,0,0,0,0,0,0,0,0,0,0,0,0,0],"split_type":[0,0,0,0,0,0,0,0,0,0,0,0,0,0,0,0,0,0,0,0,0,0,0,0,0,0,0,0,0,0,0,0,0,0,0,0,0,0,0,0,0,0,0,0,0,0,0,0,0,0,0,0,0,0,0,0,0],"sum_hessian":[3.67E2,3.61E2,6E0,2.51E2,1.1E2,2E0,4E0,2.45E2,6E0,9.5E1,1.5E1,1E0,1E0,1E0,3E0,1.36E2,1.09E2,3E0,3E0,3.4E1,6.1E1,5E0,1E1,1.29E2,7E0,1E1,9.9E1,1E0,2E0,3.2E1,2E0,1E1,5.1E1,1E0,4E0,9E0,1E0,1.27E2,2E0,1E0,6E0,4E0,6E0,5.2E1,4.7E1,1E0,1E0,2.6E1,6E0,1E0,1E0,5E0,5E0,7E0,4.4E1,3E0,1E0],"tree_param":{"num_deleted":"0","num_feature":"5","num_nodes":"57","size_leaf_vector":"1"}},{"base_weights":[3.3490926E-1,-1.4150678E1,5.3296703E-1,-5.434682E0,-5.468857E0,3.2479098E-1,1.2900004E1,2.81028E-1,-2.7420137E0,1.0215496E0,-4.5597363E0,2.7978516E-1,2.5426962E1,4.738013E-1,1.3047158E1,-2.1757315E1,2.353241E0,-1.5684937E0,2.5206118E0,9.708142E0,1.7339906E0,7.588257E-1,-1.7178461E1,-2.7616877E1,6.980184E0,1.2445333E1,-4.828885E0,6.780778E-2,1.6455439E1,-9.3896055E0,8.003754E-1,-1.7710266E0,-9.535847E0,4.891544E0,-1.7504609E0,2.0589904E-1,5.6705556E0,3.7725003E0,-4.550255E0],"categories":[],"categories_nodes":[],"categories_segments":[],"categories_sizes":[],"default_left":[0,0,0,0,0,0,0,0,0,0,0,0,0,0,0,0,0,0,0,0,0,0,0,0,0,0,0,0,0,0,0,0,0,0,0,0,0,0,0],"id":17,"left_children":[1,3,5,-1,7,9,11,-1,-1,13,15,17,19,21,-1,23,25,-1,-1,-1,-1,27,29,31,33,35,37,-1,-1,-1,-1,-1,-1,-1,-1,-1,-1,-1,-1],"loss_changes":[1.0633276E3,7.304224E1,9.329357E2,0E0,7.91107E1,1.2264557E3,9.4144366E2,0E0,0E0,7.30702E3,5.4010913E3,2.2288112E2,2.2162537E2,1.5828088E3,0E0,2.3818296E3,2.452025E3,0E0,0E0,0E0,0E0,8.864329E3,1.484679E3,8.0817676E2,4.53638E2,1.0499387E3,3.7893787E3,0E0,0E0,0E0,0E0,0E0,0E0,0E0,0E0,0E0,0E0,0E0,0E0],"parents":[2147483647,0,0,1,1,2,2,4,4,5,5,6,6,9,9,10,10,11,11,12,12,13,13,15,15,16,16,21,21,22,22,23,23,24,24,25,25,26,26],"right_children":[2,4,6,-1,8,10,12,-1,-1,14,16,18,20,22,-1,24,26,-1,-1,-1,-1,28,30,32,34,36,38,-1,-1,-1,-1,-1,-1,-1,-1,-1,-1,-1,-1],"split_conditions":[9.1E1,1.6E1,4.63E2,-5.434682E0,1E0,3.42E2,1.34E2,2.81028E-1,-2.7420137E0,3.39E2,3.6E2,1E0,1.37E2,3.33E2,1.3047158E1,2.51E2,3.9E2,-1.5684937E0,2.5206118E0,9.708142E0,1.7339906E0,3.27E2,1E0,2.34E2,3E2,1.09E2,1.07E2,6.780778E-2,1.6455439E1,-9.3896055E0,8.003754E-1,-1.7710266E0,-9.535847E0,4.891544E0,-1.7504609E0,2.0589904E-1,5.6705556E0,3.7725003E0,-4.550255E0],"split_indices":[4,1,1,0,0,1,0,0,0,1,1,3,0,1,0,0,1,0,0,0,0,1,3,4,0,0,0,0,0,0,0,0,0,0,0,0,0,0,0],"split_type":[0,0,0,0,0,0,0,0,0,0,0,0,0,0,0,0,0,0,0,0,0,0,0,0,0,0,0,0,0,0,0,0,0,0,0,0,0,0,0],"sum_hessian":[3.67E2,4E0,3.63E2,2E0,2E0,3.58E2,5E0,1E0,1E0,3.14E2,4.4E1,3E0,2E0,3.11E2,3E0,1.2E1,3.2E1,2E0,1E0,1E0,1E0,3.07E2,4E0,1E1,2E0,1.3E1,1.9E1,3.05E2,2E0,2E0,2E0,2E0,8E0,1E0,1E0,5E0,8E0,7E0,1.2E1],"tree_param":{"num_deleted":"0","num_feature":"5","num_nodes":"39","size_leaf_vector":"1"}},{"base_weights":[2.95338E-1,-8.415968E-2,7.2705407E0,-2.4623888E0,1.4755479E0,9.275605E0,-4.323093E0,-1.31669E1,-1.13909185E-1,3.152287E-1,1.1482159E1,1.338656E1,2.4635906E0,-2.0400703E1,8.348699E0,-6.101714E0,1.1347367E0,1.4411417E0,-1.2991561E1,4.2919807E0,2.627654E1,6.4337313E-1,1.4296301E1,6.69973E0,-2.0489657E0,-1.3122424E1,-1.0194972E1,7.7608037E0,-3.8334289E0,-9.6492815E-1,-2.1319086E1,1.9871223E0,-1.4776105E1,1.6518576E-2,3.6036774E1,-3.279465E1,1.8945007E-1,-6.2671328E0,8.333946E0,9.275299E0,-2.3552857E-1,1.7685144E1,9.089549E0,2.714383E0,3.99397E0,-2.6070867E0,-7.9430485E0,-5.838911E0,8.80275E0,-3.5904398E0,1.1100453E0,-2.3089601E-1,-7.8792095E0,9.5005834E-1,-1.8425126E0,-4.9864864E0,-1.1091065E0,2.564251E-1,-3.0710914E0,2.0369083E1,-1.4497765E0,-1.3603897E1,-1.538263E0,-2.9628649E0,3.669108E0,-2.0720925E0,-5.5616456E-1,2.7541962E-1,4.049956E0,1.4533265E0,5.905266E0,3.3472269E0,-1.8747254E-1,1.3188E0,-6.018128E-1],"categories":[],"categories_nodes":[],"categories_segments":[],"categories_sizes":[],"default_left":[0,0,0,0,0,0,0,0,0,0,0,0,0,0,0,0,0,0,0,0,0,0,0,0,0,0,0,0,0,0,0,0,0,0,0,0,0,0,0,0,0,0,0,0,0,0,0,0,0,0,0,0,0,0,0,0,0,0,0,0,0,0,0,0,0,0,0,0,0,0,0,0,0,0,0],"id":18,"left_children":[1,3,5,7,9,11,-1,13,15,17,19,21,23,25,27,29,31,33,35,37,39,-1,41,43,-1,45,-1,-1,47,49,51,53,55,57,59,61,63,65,67,-1,-1,69,71,73,-1,-1,-1,-1,-1,-1,-1,-1,-1,-1,-1,-1,-1,-1,-1,-1,-1,-1,-1,-1,-1,-1,-1,-1,-1,-1,-1,-1,-1,-1,-1],"loss_changes":[9.747348E2,1.3019031E3,9.5962286E2,3.4928665E3,2.4578833E3,4.7109094E2,0E0,4.06131E3,8.6673834E2,2.8803398E3,2.227455E3,8.18407E1,3.6070602E2,1.4323501E3,1.5932395E3,1.5427963E3,1.3313303E3,8.722981E3,3.9215845E3,7.35103E2,9.0344824E2,0E0,1.5698608E1,1.2200543E2,0E0,5.9854834E2,0E0,0E0,3.1637278E3,8.655769E2,4.87865E2,9.0172046E2,4.0782715E1,1.478461E3,9.442851E3,1.8510947E3,1.3327874E3,1.314209E0,4.4732306E2,0E0,0E0,3.298938E1,1.2750195E2,4.8508305E1,0E0,0E0,0E0,0E0,0E0,0E0,0E0,0E0,0E0,0E0,0E0,0E0,0E0,0E0,0E0,0E0,0E0,0E0,0E0,0E0,0E0,0E0,0E0,0E0,0E0,0E0,0E0,0E0,0E0,0E0,0E0],"parents":[2147483647,0,0,1,1,2,2,3,3,4,4,5,5,7,7,8,8,9,9,10,10,11,11,12,12,13,13,14,14,15,15,16,16,17,17,18,18,19,19,20,20,22,22,23,23,25,25,28,28,29,29,30,30,31,31,32,32,33,33,34,34,35,35,36,36,37,37,38,38,41,41,42,42,43,43],"right_children":[2,4,6,8,10,12,-1,14,16,18,20,22,24,26,28,30,32,34,36,38,40,-1,42,44,-1,46,-1,-1,48,50,52,54,56,58,60,62,64,66,68,-1,-1,70,72,74,-1,-1,-1,-1,-1,-1,-1,-1,-1,-1,-1,-1,-1,-1,-1,-1,-1,-1,-1,-1,-1,-1,-1,-1,-1,-1,-1,-1,-1,-1,-1],"split_conditions":[1E1,2E1,2.92E2,2.5E1,3.68E2,2.7E1,-4.323093E0,3.45E2,1.08E2,3.45E2,2.02E2,1.37E2,2.02E2,1E0,3.58E2,9.4E1,1E0,3.33E2,3.51E2,4E0,8.3E1,6.4337313E-1,3.11E2,2.65E2,-2.0489657E0,5.18E2,-1.0194972E1,7.7608037E0,4.67E2,1.31E2,1.71E2,4.51E2,2.99E2,3.06E2,1.37E2,1.24E2,1.62E2,3.53E2,6.7E1,9.275299E0,-2.3552857E-1,1.8E1,2E0,1.65E2,3.99397E0,-2.6070867E0,-7.9430485E0,-5.838911E0,8.80275E0,-3.5904398E0,1.1100453E0,-2.3089601E-1,-7.8792095E0,9.5005834E-1,-1.8425126E0,-4.9864864E0,-1.1091065E0,2.564251E-1,-3.0710914E0,2.0369083E1,-1.4497765E0,-1.3603897E1,-1.538263E0,-2.9628649E0,3.669108E0,-2.0720925E0,-5.5616456E-1,2.7541962E-1,4.049956E0,1.4533265E0,5.905266E0,3.3472269E0,-1.8747254E-1,1.3188E0,-6.018128E-1],"split_indices":[2,1,1,3,4,3,0,0,0,4,0,4,4,1,0,0,2,4,4,3,3,0,0,0,0,4,0,0,4,3,4,4,0,4,0,0,1,1,0,0,0,2,1,0,0,0,0,0,0,0,0,0,0,0,0,0,0,0,0,0,0,0,0,0,0,0,0,0,0,0,0,0,0,0,0],"split_type":[0,0,0,0,0,0,0,0,0,0,0,0,0,0,0,0,0,0,0,0,0,0,0,0,0,0,0,0,0,0,0,0,0,0,0,0,0,0,0,0,0,0,0,0,0,0,0,0,0,0,0,0,0,0,0,0,0,0,0,0,0,0,0,0,0,0,0,0,0,0,0,0,0,0,0],"sum_hessian":[3.67E2,3.49E2,1.8E1,1.38E2,2.11E2,1.7E1,1E0,2.4E1,1.14E2,1.9E2,2.1E1,1E1,7E0,1.8E1,6E0,1.9E1,9.5E1,1.76E2,1.4E1,1.5E1,6E0,1E0,9E0,5E0,2E0,1.3E1,5E0,2E0,4E0,1.5E1,4E0,9.1E1,4E0,1.7E2,6E0,5E0,9E0,4E0,1.1E1,5E0,1E0,4E0,5E0,4E0,1E0,1.1E1,2E0,3E0,1E0,4E0,1.1E1,1E0,3E0,8E1,1.1E1,3E0,1E0,1.58E2,1.2E1,3E0,3E0,3E0,2E0,5E0,4E0,3E0,1E0,5E0,6E0,1E0,3E0,4E0,1E0,3E0,1E0],"tree_param":{"num_deleted":"0","num_feature":"5","num_nodes":"75","size_leaf_vector":"1"}},{"base_weights":[1.9126485E-1,-4.187105E-2,9.495449E0,3.0080518E-1,-9.211829E0,5.4849243E0,4.7064576E0,-1.5436508E-1,9.172318E0,7.9185996E0,-2.0908173E1,6.9755554E0,-5.1882935E-1,2.509364E-1,-1.9007782E1,1.9822239E1,-2.4967482E0,1.5233423E1,-4.298328E0,-8.487879E0,8.307292E-1,7.6881714E0,5.1187134E-1,-1.4238475E-1,1.4120402E1,-2.229046E1,1.0324402E-1,2.525524E1,6.7171783E0,5.1996026E0,-1.962265E1,6.1839023E0,-9.4273686E-1,5.740265E-1,-2.0019837E-1,3.5270793E0,2.785962E0,-8.031958E-1,3.3594012E-1,5.0116196E0,-9.839356E-1,-7.4625387E0,-1.405069E0,1.9898988E0,8.295927E0,2.8177857E0,-1.9637147E-1,-5.3439334E-2,5.6199007E0,-8.021636E0,-8.0855715E-1,1.323523E0,2.6366273E-1],"categories":[],"categories_nodes":[],"categories_segments":[],"categories_sizes":[],"default_left":[0,0,0,0,0,0,0,0,0,0,0,0,0,0,0,0,0,0,0,0,0,0,0,0,0,0,0,0,0,0,0,0,0,0,0,0,0,0,0,0,0,0,0,0,0,0,0,0,0,0,0,0,0],"id":19,"left_children":[1,3,5,7,9,11,-1,13,15,17,19,21,-1,23,25,27,29,31,-1,-1,33,35,-1,37,39,41,-1,43,45,47,49,-1,-1,-1,-1,51,-1,-1,-1,-1,-1,-1,-1,-1,-1,-1,-1,-1,-1,-1,-1,-1,-1],"loss_changes":[7.986409E2,1.1340088E3,1.374768E2,1.406657E3,2.770287E3,8.7341324E1,0E0,2.541687E3,2.1621597E3,1.1946299E3,1.3077959E3,9.41217E0,0E0,1.7803907E3,4.5235425E2,4.7115454E2,1.2882925E3,5.5904834E2,0E0,0E0,6.142685E0,5.0042725E-1,0E0,1.02045685E3,4.5960486E2,1.565437E2,0E0,8.4496826E1,8.503885E1,5.1279004E2,2.893081E2,0E0,0E0,0E0,0E0,3.1509361E0,0E0,0E0,0E0,0E0,0E0,0E0,0E0,0E0,0E0,0E0,0E0,0E0,0E0,0E0,0E0,0E0,0E0],"parents":[2147483647,0,0,1,1,2,2,3,3,4,4,5,5,7,7,8,8,9,9,10,10,11,11,13,13,14,14,15,15,16,16,17,17,20,20,21,21,23,23,24,24,25,25,27,27,28,28,29,29,30,30,35,35],"right_children":[2,4,6,8,10,12,-1,14,16,18,20,22,-1,24,26,28,30,32,-1,-1,34,36,-1,38,40,42,-1,44,46,48,50,-1,-1,-1,-1,52,-1,-1,-1,-1,-1,-1,-1,-1,-1,-1,-1,-1,-1,-1,-1,-1,-1],"split_conditions":[4.48E2,3.97E2,5.21E2,3.46E2,2E0,4.67E2,4.7064576E0,3.42E2,3.71E2,4.35E2,3.1E1,6.5E1,-5.1882935E-1,3.3E2,2.42E2,3.2E1,4.5E2,1.4E1,-4.298328E0,-8.487879E0,4.24E2,4.57E2,5.1187134E-1,8E0,2.31E2,5.44E2,1.0324402E-1,3.05E2,3.53E2,3.83E2,3.76E2,6.1839023E0,-9.4273686E-1,5.740265E-1,-2.0019837E-1,4.52E2,2.785962E0,-8.031958E-1,3.3594012E-1,5.0116196E0,-9.839356E-1,-7.4625387E0,-1.405069E0,1.9898988E0,8.295927E0,2.8177857E0,-1.9637147E-1,-5.3439334E-2,5.6199007E0,-8.021636E0,-8.0855715E-1,1.323523E0,2.6366273E-1],"split_indices":[0,0,0,0,1,0,0,0,0,0,3,3,0,0,1,3,4,3,0,0,0,0,0,1,1,4,0,4,0,0,0,0,0,0,0,0,0,0,0,0,0,0,0,0,0,0,0,0,0,0,0,0,0],"split_type":[0,0,0,0,0,0,0,0,0,0,0,0,0,0,0,0,0,0,0,0,0,0,0,0,0,0,0,0,0,0,0,0,0,0,0,0,0,0,0,0,0,0,0,0,0,0,0,0,0,0,0,0,0],"sum_hessian":[3.67E2,3.59E2,8E0,3.47E2,1.2E1,6E0,2E0,3.31E2,1.6E1,5E0,7E0,5E0,1E0,3.25E2,6E0,8E0,8E0,4E0,1E0,5E0,2E0,4E0,1E0,3.17E2,8E0,5E0,1E0,5E0,3E0,6E0,2E0,3E0,1E0,1E0,1E0,2E0,2E0,1.05E2,2.12E2,7E0,1E0,4E0,1E0,1E0,4E0,2E0,1E0,5E0,1E0,1E0,1E0,1E0,1E0],"tree_param":{"num_deleted":"0","num_feature":"5","num_nodes":"53","size_leaf_vector":"1"}},{"base_weights":[1.5112205E-1,-3.697799E-1,4.203118E0,-3.264753E0,5.967143E-1,4.517612E-1,1.1673562E1,1.8731289E0,-1.1351229E1,2.2727245E1,-4.3732193E-1,7.9640536E0,-1.4283077E0,3.99183E0,1.6935883E1,-1.5880259E0,1.02857685E1,-2.3689138E1,-4.3901402E-1,7.245551E0,1.8478973E1,-2.4385338E1,-2.4320284E-2,-5.555402E0,7.901713E0,2.5410037E0,5.065552E-1,6.8253784E0,1.1205546E1,2.6915246E-1,-1.6977036E1,2.4800707E1,-2.146491E0,-3.2106304E1,-5.712336E0,-1.031908E1,6.7863994E0,1.2406132E1,-5.105864E0,-3.8032734E0,-1.291973E1,3.6183653E0,-2.6032705E0,-2.1437917E0,-1.8665894E1,2.1667583E0,4.3586154E0,1.6091766E0,-5.8558965E-1,3.9703896E0,1.5901795E-1,5.885001E-1,-3.874537E0,-6.134516E0,-9.8444825E-1,1.884018E-1,8.617447E0,-3.8576906E0,4.337654E0,-1.176916E1,-5.1407905E0,-8.988077E0,4.1705065E0,-3.7634807E0,7.892853E-1,5.024378E0,2.8720093E-1,6.383942E0,-2.842978E0,-3.0997744E0,1.3883011E0,2.6536717E0,-1.2154633E0,-3.5486367E0,6.1905198E-2,1.0518779E0,-2.266693E0,-9.852109E0,-8.982849E-1,-2.0075502E0,2.4807038E0,6.141846E-1,4.4229127E-2],"categories":[],"categories_nodes":[],"categories_segments":[],"categories_sizes":[],"default_left":[0,0,0,0,0,0,0,0,0,0,0,0,0,0,0,0,0,0,0,0,0,0,0,0,0,0,0,0,0,0,0,0,0,0,0,0,0,0,0,0,0,0,0,0,0,0,0,0,0,0,0,0,0,0,0,0,0,0,0,0,0,0,0,0,0,0,0,0,0,0,0,0,0,0,0,0,0,0,0,0,0,0,0],"id":20,"left_children":[1,3,5,7,9,11,13,15,17,19,21,-1,23,25,27,29,31,33,35,37,-1,39,41,43,45,-1,47,-1,49,51,53,55,57,59,61,63,65,67,-1,69,-1,71,73,75,77,79,-1,81,-1,-1,-1,-1,-1,-1,-1,-1,-1,-1,-1,-1,-1,-1,-1,-1,-1,-1,-1,-1,-1,-1,-1,-1,-1,-1,-1,-1,-1,-1,-1,-1,-1,-1,-1],"loss_changes":[7.7828906E2,9.168858E2,1.171747E3,3.4281453E3,5.6393467E3,1.460673E3,4.9832727E2,1.501324E3,4.2978853E3,6.1730933E3,2.3335815E3,0E0,1.1220616E3,1.0496332E2,1.1652344E1,1.0620343E3,2.7600366E3,2.0863047E3,1.3550055E3,1.3381448E3,0E0,1.3741362E3,2.1982927E3,8.545419E2,3.105699E2,0E0,1.6695143E1,0E0,1.22953735E2,7.8403076E2,1.2306677E2,6.4595605E2,1.7868845E3,3.9426758E2,3.2700938E3,2.6360406E2,6.2269653E2,1.7551013E3,0E0,2.1296043E2,0E0,3.9247822E3,3.5535095E3,5.463052E2,7.902136E2,3.796791E2,0E0,2.2597628E0,0E0,0E0,0E0,0E0,0E0,0E0,0E0,0E0,0E0,0E0,0E0,0E0,0E0,0E0,0E0,0E0,0E0,0E0,0E0,0E0,0E0,0E0,0E0,0E0,0E0,0E0,0E0,0E0,0E0,0E0,0E0,0E0,0E0,0E0,0E0],"parents":[2147483647,0,0,1,1,2,2,3,3,4,4,5,5,6,6,7,7,8,8,9,9,10,10,12,12,13,13,14,14,15,15,16,16,17,17,18,18,19,19,21,21,22,22,23,23,24,24,26,26,28,28,29,29,30,30,31,31,32,32,33,33,34,34,35,35,36,36,37,37,39,39,41,41,42,42,43,43,44,44,45,45,47,47],"right_children":[2,4,6,8,10,12,14,16,18,20,22,-1,24,26,28,30,32,34,36,38,-1,40,42,44,46,-1,48,-1,50,52,54,56,58,60,62,64,66,68,-1,70,-1,72,74,76,78,80,-1,82,-1,-1,-1,-1,-1,-1,-1,-1,-1,-1,-1,-1,-1,-1,-1,-1,-1,-1,-1,-1,-1,-1,-1,-1,-1,-1,-1,-1,-1,-1,-1,-1,-1,-1,-1],"split_conditions":[3.48E2,2.17E2,1E0,1.86E2,2.23E2,3.54E2,4.08E2,1.71E2,7E0,3.19E2,2.25E2,7.9640536E0,2.02E2,2.51E2,1.28E2,2.36E2,1.74E2,3.35E2,2E1,2.71E2,1.8478973E1,2.02E2,4E0,3.38E2,1.93E2,2.5410037E0,3.17E2,6.8253784E0,4.35E2,2.08E2,2.53E2,3.3E1,2.18E2,1.7E2,2.02E2,2.01E2,1.39E2,2.5E2,-5.105864E0,1.68E2,-1.291973E1,3.09E2,2.5E1,1.45E2,4.12E2,2.45E2,4.3586154E0,3.12E2,-5.8558965E-1,3.9703896E0,1.5901795E-1,5.885001E-1,-3.874537E0,-6.134516E0,-9.8444825E-1,1.884018E-1,8.617447E0,-3.8576906E0,4.337654E0,-1.176916E1,-5.1407905E0,-8.988077E0,4.1705065E0,-3.7634807E0,7.892853E-1,5.024378E0,2.8720093E-1,6.383942E0,-2.842978E0,-3.0997744E0,1.3883011E0,2.6536717E0,-1.2154633E0,-3.5486367E0,6.1905198E-2,1.0518779E0,-2.266693E0,-9.852109E0,-8.982849E-1,-2.0075502E0,2.4807038E0,6.141846E-1,4.4229127E-2],"split_indices":[3,4,1,4,4,3,3,4,3,1,4,0,0,4,0,0,0,1,1,0,0,0,3,4,4,0,4,0,3,3,0,0,1,0,4,0,0,1,0,0,0,1,3,0,3,0,0,4,0,0,0,0,0,0,0,0,0,0,0,0,0,0,0,0,0,0,0,0,0,0,0,0,0,0,0,0,0,0,0,0,0,0,0],"split_type":[0,0,0,0,0,0,0,0,0,0,0,0,0,0,0,0,0,0,0,0,0,0,0,0,0,0,0,0,0,0,0,0,0,0,0,0,0,0,0,0,0,0,0,0,0,0,0,0,0,0,0,0,0,0,0,0,0,0,0,0,0,0,0,0,0,0,0,0,0,0,0,0,0,0,0,0,0,0,0,0,0,0,0],"sum_hessian":[3.67E2,3.26E2,4.1E1,8.1E1,2.45E2,2.8E1,1.3E1,5E1,3.1E1,1E1,2.35E2,1E0,2.7E1,6E0,7E0,3.6E1,1.4E1,1.4E1,1.7E1,8E0,2E0,3E0,2.32E2,1.9E1,8E0,2E0,4E0,2E0,5E0,3.3E1,3E0,6E0,8E0,9E0,5E0,7E0,1E1,7E0,1E0,2E0,1E0,9.6E1,1.36E2,1.6E1,3E0,5E0,3E0,3E0,1E0,4E0,1E0,3E1,3E0,2E0,1E0,1E0,5E0,5E0,3E0,5E0,4E0,2E0,3E0,6E0,1E0,3E0,7E0,5E0,2E0,1E0,1E0,5.7E1,3.9E1,3.1E1,1.05E2,8E0,8E0,1E0,2E0,2E0,3E0,2E0,1E0],"tree_param":{"num_deleted":"0","num_feature":"5","num_nodes":"83","size_leaf_vector":"1"}},{"base_weights":[8.98163E-2,-8.1916267E-1,2.0966933E0,-4.8955825E-1,-6.3891153E0,-5.375257E0,4.23196E0,-3.296808E0,1.0730469E0,-1.5413107E0,-1.0276524E1,2.7764807E1,2.5210302E0,-3.919243E0,4.8180666E0,1.0043382E1,3.530664E-1,1.994985E0,-1.9721535E1,1.4783179E1,4.6892624E0,1.0696712E1,-3.1391637E0,-8.900708E-1,-7.215716E0,-9.117429E0,2.0763466E1,-2.5783041E1,8.7692714E-1,5.7030964E0,-8.22581E0,-1.047226E0,-7.1904635E0,-7.5812683E0,6.2251287E0,-6.773761E0,1.7004713E1,-2.6869022E1,6.219069E-1,-7.115079E-1,6.4892855E0,-2.5620499E0,3.8546572E0,-7.025422E-1,-3.8561723E0,1.2172806E0,8.99264E0,-8.841019E-1,-1.07182665E1,1.0539789E0,-1.5926795E-1,3.831835E-1,7.336765E0,1.1740265E0,-3.4309022E0,-2.7516816E0,-6.598892E-1,-5.2549624E0,7.2394714E0,6.425502E0,-3.8312837E-1,-1.4130494E1,2.4256898E-2,8.205899E0,-5.8161557E-1],"categories":[],"categories_nodes":[],"categories_segments":[],"categories_sizes":[],"default_left":[0,0,0,0,0,0,0,0,0,0,0,0,0,0,0,0,0,0,0,0,0,0,0,0,0,0,0,0,0,0,0,0,0,0,0,0,0,0,0,0,0,0,0,0,0,0,0,0,0,0,0,0,0,0,0,0,0,0,0,0,0,0,0,0,0],"id":21,"left_children":[1,3,5,7,-1,9,11,13,15,17,-1,19,21,23,-1,25,27,29,31,-1,33,35,37,39,41,43,45,47,49,51,53,-1,-1,55,-1,57,59,61,63,-1,-1,-1,-1,-1,-1,-1,-1,-1,-1,-1,-1,-1,-1,-1,-1,-1,-1,-1,-1,-1,-1,-1,-1,-1,-1],"loss_changes":[6.730264E2,1.7039729E3,1.8575277E3,1.1045801E3,0E0,2.826018E3,3.5536787E3,1.1473082E3,1.0427256E3,1.5823196E3,0E0,2.7473955E3,3.967034E3,8.7230896E2,0E0,2.6541753E3,2.0900537E3,8.4280927E2,1.920404E2,0E0,9.456307E2,3.9723174E3,4.5684434E3,1.6195813E3,1.2258613E3,9.648346E1,1.1095264E3,5.7599036E2,5.548767E2,1.2967058E3,2.785955E2,0E0,0E0,5.511017E0,0E0,3.7427935E3,2.125268E3,3.8206768E3,3.1332039E3,0E0,0E0,0E0,0E0,0E0,0E0,0E0,0E0,0E0,0E0,0E0,0E0,0E0,0E0,0E0,0E0,0E0,0E0,0E0,0E0,0E0,0E0,0E0,0E0,0E0,0E0],"parents":[2147483647,0,0,1,1,2,2,3,3,5,5,6,6,7,7,8,8,9,9,11,11,12,12,13,13,15,15,16,16,17,17,18,18,20,20,21,21,22,22,23,23,24,24,25,25,26,26,27,27,28,28,29,29,30,30,33,33,35,35,36,36,37,37,38,38],"right_children":[2,4,6,8,-1,10,12,14,16,18,-1,20,22,24,-1,26,28,30,32,-1,34,36,38,40,42,44,46,48,50,52,54,-1,-1,56,-1,58,60,62,64,-1,-1,-1,-1,-1,-1,-1,-1,-1,-1,-1,-1,-1,-1,-1,-1,-1,-1,-1,-1,-1,-1,-1,-1,-1,-1],"split_conditions":[2.3E2,2.22E2,2.16E2,3.9E1,-6.3891153E0,2.14E2,2.22E2,5.48E2,5.2E1,3.89E2,-1.0276524E1,1.23E2,3.18E2,3E0,4.8180666E0,2.01E2,5.7E1,2.49E2,1.07E2,1.4783179E1,1.6E2,2.41E2,3.34E2,2.18E2,4.31E2,1E0,4.3E1,6.7E1,2.33E2,2.37E2,2.33E2,-1.047226E0,-7.1904635E0,1.57E2,6.2251287E0,2.45E2,3.36E2,1E0,3.41E2,-7.115079E-1,6.4892855E0,-2.5620499E0,3.8546572E0,-7.025422E-1,-3.8561723E0,1.2172806E0,8.99264E0,-8.841019E-1,-1.07182665E1,1.0539789E0,-1.5926795E-1,3.831835E-1,7.336765E0,1.1740265E0,-3.4309022E0,-2.7516816E0,-6.598892E-1,-5.2549624E0,7.2394714E0,6.425502E0,-3.8312837E-1,-1.4130494E1,2.4256898E-2,8.205899E0,-5.8161557E-1],"split_indices":[1,1,4,3,0,4,4,4,3,1,0,0,1,3,0,0,3,0,0,0,0,4,1,1,0,1,3,0,4,0,1,0,0,0,0,0,4,3,1,0,0,0,0,0,0,0,0,0,0,0,0,0,0,0,0,0,0,0,0,0,0,0,0,0,0],"split_type":[0,0,0,0,0,0,0,0,0,0,0,0,0,0,0,0,0,0,0,0,0,0,0,0,0,0,0,0,0,0,0,0,0,0,0,0,0,0,0,0,0,0,0,0,0,0,0,0,0,0,0,0,0,0,0,0,0,0,0,0,0,0,0,0,0],"sum_hessian":[3.67E2,2.53E2,1.14E2,2.5E2,3E0,2.5E1,8.9E1,8.9E1,1.61E2,2.3E1,2E0,5E0,8.4E1,8.7E1,2E0,1.1E1,1.5E2,2E1,3E0,2E0,3E0,3.4E1,5E1,4.6E1,4.1E1,4E0,7E0,2E0,1.48E2,1.5E1,5E0,1E0,2E0,2E0,1E0,9E0,2.5E1,6E0,4.4E1,4.4E1,2E0,3.9E1,2E0,2E0,2E0,3E0,4E0,1E0,1E0,5.1E1,9.7E1,1.3E1,2E0,1E0,4E0,1E0,1E0,7E0,2E0,2E1,5E0,3E0,3E0,3E0,4.1E1],"tree_param":{"num_deleted":"0","num_feature":"5","num_nodes":"65","size_leaf_vector":"1"}},{"base_weights":[8.062081E-2,-8.351201E-1,2.3519344E0,1.02273E0,-2.4998405E0,3.5047802E1,7.261375E-1,1.0392074E-1,1.922846E1,-1.573017E1,-1.125871E0,2.34618E1,4.7067566E0,-2.5431073E0,2.4719088E0,-5.3837466E0,1.9929626E0,-4.190847E0,3.1985825E1,-2.1874401E1,1.2042064E1,7.585597E-1,-7.2441487E0,-4.3796083E-1,2.1746767E0,-1.1255961E1,2.282318E0,2.470701E1,-1.2018322E-1,7.131249E0,-1.3663283E1,-9.677665E-1,8.583426E0,-3.451584E-1,-1.5407227E0,1.1448829E1,2.0182526E0,3.7517638E0,-3.705389E1,-2.1351242E0,7.554053E0,-1.831094E0,1.6427275E1,-2.14061E1,3.3863797E0,-8.772831E-1,-2.3218206E1,-9.721796E-1,1.8797852E1,9.600841E0,4.311686E0,-1.3562855E0,9.609218E0,-9.9096113E-1,5.9565935E0,-1.2338251E0,-6.554247E0,8.0890536E-1,-2.2372134E0,6.0347447E0,8.894042E-1,-2.4634142E0,2.6386185E0,-1.1995729E1,-2.919397E0,-4.2788053E0,-1.5977508E-1,9.100623E0,1.5989797E0,-8.859786E0,-7.4914306E-1,-1.9764092E0,2.6767764E0,-2.6319993E0,2.7636292E0,-8.921875E0,1.4083009E0,1.9891557E0,-2.99946E0,-7.6538086E-2,7.570166E0,2.0958252E0,-1.5556641E-1,1.4855502E0,-1.3676802E0,5.9631658E0,4.5797244E-1],"categories":[],"categories_nodes":[],"categories_segments":[],"categories_sizes":[],"default_left":[0,0,0,0,0,0,0,0,0,0,0,0,0,0,0,0,0,0,0,0,0,0,0,0,0,0,0,0,0,0,0,0,0,0,0,0,0,0,0,0,0,0,0,0,0,0,0,0,0,0,0,0,0,0,0,0,0,0,0,0,0,0,0,0,0,0,0,0,0,0,0,0,0,0,0,0,0,0,0,0,0,0,0,0,0,0,0],"id":22,"left_children":[1,3,5,7,9,11,13,15,17,19,21,-1,23,25,27,29,31,33,35,37,39,41,43,-1,-1,45,47,49,51,53,55,57,59,-1,-1,-1,-1,61,63,-1,-1,65,67,69,71,73,75,77,79,-1,81,83,85,-1,-1,-1,-1,-1,-1,-1,-1,-1,-1,-1,-1,-1,-1,-1,-1,-1,-1,-1,-1,-1,-1,-1,-1,-1,-1,-1,-1,-1,-1,-1,-1,-1,-1],"loss_changes":[7.673801E2,8.159633E2,5.6091753E3,2.088951E3,2.5090417E3,6.1792266E3,5.884364E2,1.2547017E3,1.9266594E3,2.4817195E3,1.4697378E3,0E0,7.32888E1,1.5392458E3,3.8645427E3,3.3096057E3,1.764439E3,2.7095337E0,3.673357E2,4.417931E3,9.343544E2,4.0065813E3,4.58896E3,0E0,0E0,1.5936108E3,1.3082693E3,9.0361426E2,7.466515E2,1.7915781E3,1.3952534E3,1.5181656E3,1.7546943E3,0E0,0E0,0E0,0E0,3.7391074E2,1.7162988E2,0E0,0E0,1.3645206E3,1.9991208E3,1.9238848E3,1.0527495E3,7.1815063E2,1.2317771E3,1.5073575E3,4.969403E2,0E0,4.2376625E1,1.1337228E3,5.50604E2,0E0,0E0,0E0,0E0,0E0,0E0,0E0,0E0,0E0,0E0,0E0,0E0,0E0,0E0,0E0,0E0,0E0,0E0,0E0,0E0,0E0,0E0,0E0,0E0,0E0,0E0,0E0,0E0,0E0,0E0,0E0,0E0,0E0,0E0],"parents":[2147483647,0,0,1,1,2,2,3,3,4,4,5,5,6,6,7,7,8,8,9,9,10,10,12,12,13,13,14,14,15,15,16,16,17,17,18,18,19,19,20,20,21,21,22,22,25,25,26,26,27,27,28,28,29,29,30,30,31,31,32,32,37,37,38,38,41,41,42,42,43,43,44,44,45,45,46,46,47,47,48,48,50,50,51,51,52,52],"right_children":[2,4,6,8,10,12,14,16,18,20,22,-1,24,26,28,30,32,34,36,38,40,42,44,-1,-1,46,48,50,52,54,56,58,60,-1,-1,-1,-1,62,64,-1,-1,66,68,70,72,74,76,78,80,-1,82,84,86,-1,-1,-1,-1,-1,-1,-1,-1,-1,-1,-1,-1,-1,-1,-1,-1,-1,-1,-1,-1,-1,-1,-1,-1,-1,-1,-1,-1,-1,-1,-1,-1,-1,-1],"split_conditions":[3.23E2,2.35E2,3.36E2,2.33E2,2.4E2,1.05E2,3.68E2,1E0,1.12E2,2.6E2,2.96E2,2.34618E1,1.09E2,1.34E2,3.73E2,1.27E2,2.13E2,8.7E1,3.41E2,1E0,1.09E2,2.48E2,3.54E2,-4.3796083E-1,2.1746767E0,1.22E2,1.2E2,8.3E1,4.04E2,1.53E2,2.5E2,1.86E2,8E0,-3.451584E-1,-1.5407227E0,1.1448829E1,2.0182526E0,8.4E1,2.61E2,-2.1351242E0,7.554053E0,2.45E2,2.64E2,1.91E2,9.4E1,2.97E2,4.12E2,1E0,3.4E2,9.600841E0,2E2,1.29E2,1.4E1,-9.9096113E-1,5.9565935E0,-1.2338251E0,-6.554247E0,8.0890536E-1,-2.2372134E0,6.0347447E0,8.894042E-1,-2.4634142E0,2.6386185E0,-1.1995729E1,-2.919397E0,-4.2788053E0,-1.5977508E-1,9.100623E0,1.5989797E0,-8.859786E0,-7.4914306E-1,-1.9764092E0,2.6767764E0,-2.6319993E0,2.7636292E0,-8.921875E0,1.4083009E0,1.9891557E0,-2.99946E0,-7.6538086E-2,7.570166E0,2.0958252E0,-1.5556641E-1,1.4855502E0,-1.3676802E0,5.9631658E0,4.5797244E-1],"split_indices":[4,4,4,4,4,0,4,3,0,3,1,0,0,0,4,0,4,0,1,3,0,1,1,0,0,0,1,3,0,4,1,4,3,0,0,0,0,0,1,0,0,4,1,0,0,1,3,1,4,0,0,0,3,0,0,0,0,0,0,0,0,0,0,0,0,0,0,0,0,0,0,0,0,0,0,0,0,0,0,0,0,0,0,0,0,0,0],"split_type":[0,0,0,0,0,0,0,0,0,0,0,0,0,0,0,0,0,0,0,0,0,0,0,0,0,0,0,0,0,0,0,0,0,0,0,0,0,0,0,0,0,0,0,0,0,0,0,0,0,0,0,0,0,0,0,0,0,0,0,0,0,0,0,0,0,0,0,0,0,0,0,0,0,0,0,0,0,0,0,0,0,0,0,0,0,0,0],"sum_hessian":[3.67E2,2.62E2,1.05E2,1.24E2,1.38E2,4E0,1.01E2,1.19E2,5E0,1.2E1,1.26E2,1E0,3E0,3.5E1,6.6E1,3E1,8.9E1,2E0,3E0,1E1,2E0,9.7E1,2.9E1,1E0,2E0,1.2E1,2.3E1,6E0,6E1,1.2E1,1.8E1,6.2E1,2.7E1,1E0,1E0,2E0,1E0,4E0,6E0,1E0,1E0,8.4E1,1.3E1,1.2E1,1.7E1,7E0,5E0,2E1,3E0,4E0,2E0,5.4E1,6E0,7E0,5E0,9E0,9E0,4E1,2.2E1,8E0,1.9E1,1E0,3E0,5E0,1E0,7E0,7.7E1,5E0,8E0,8E0,4E0,6E0,1.1E1,4E0,3E0,4E0,1E0,1.1E1,9E0,1E0,2E0,1E0,1E0,1.8E1,3.6E1,2E0,4E0],"tree_param":{"num_deleted":"0","num_feature":"5","num_nodes":"87","size_leaf_vector":"1"}},{"base_weights":[1.7781416E-1,-5.758855E-1,2.046165E0,-1.649478E0,1.4714483E0,2.7110312E1,5.3694683E-1,-5.4616694E0,-3.465095E-1,2.9785223E0,-2.8599052E0,1.994253E1,5.942334E0,-2.279456E0,2.0001879E0,-4.637683E-1,-1.1435962E1,1.1640068E1,-1.7778392E0,1.2413566E0,1.098185E1,-5.8213177E0,5.163714E0,-3.722626E-1,2.4145067E0,-5.1835628E0,6.6861367E0,1.8943644E1,2.3067037E-2,-4.9206815E0,4.028819E0,-2.6130136E1,5.376663E-1,2.0963795E1,-9.335401E0,-2.8380848E1,-8.288052E-1,1.9717854E0,-5.949399E0,5.769357E0,4.4532814E0,5.0069985E0,-7.487795E0,3.1810915E-1,5.670878E0,-2.076296E1,-6.990197E-1,7.944743E-3,1.5031891E1,7.296642E0,3.6649373E0,-1.7977474E0,5.7267475E0,-3.5580197E-1,-2.7240405E0,3.7135215E0,-1.4688938E0,-2.5944839E0,-1.1515791E1,-1.0390828E0,6.682755E0,8.660422E0,2.1857705E0,-3.0199358E-1,-6.3975635E0,-4.1347048E-1,-1.1076693E1,6.475258E0,-5.52013E-1,-3.541919E-1,1.6204352E0,-5.748596E-1,3.3905435E0,2.3814974E0,-1.2834778E-1,-4.0908194E0,-7.3056793E-1,7.8974766E-1,2.34953E0,1.4592819E0,-8.058379E0,1.2256229E0,-2.8747342E0,2.1418169E0,-2.8509889E0,-6.5057375E-2,6.0561285E0,1.7814515E0,-1.3222963E-1,-1.7675941E0,1.2072198E0,-1.235415E0,2.5593352E0],"categories":[],"categories_nodes":[],"categories_segments":[],"categories_sizes":[],"default_left":[0,0,0,0,0,0,0,0,0,0,0,0,0,0,0,0,0,0,0,0,0,0,0,0,0,0,0,0,0,0,0,0,0,0,0,0,0,0,0,0,0,0,0,0,0,0,0,0,0,0,0,0,0,0,0,0,0,0,0,0,0,0,0,0,0,0,0,0,0,0,0,0,0,0,0,0,0,0,0,0,0,0,0,0,0,0,0,0,0,0,0,0,0],"id":23,"left_children":[1,3,5,7,9,11,13,15,17,19,21,-1,23,25,27,29,31,33,35,37,39,41,43,-1,-1,45,47,49,51,53,55,57,59,61,63,65,67,69,-1,-1,71,73,75,-1,77,79,81,83,85,-1,87,89,91,-1,-1,-1,-1,-1,-1,-1,-1,-1,-1,-1,-1,-1,-1,-1,-1,-1,-1,-1,-1,-1,-1,-1,-1,-1,-1,-1,-1,-1,-1,-1,-1,-1,-1,-1,-1,-1,-1,-1,-1],"loss_changes":[5.193869E2,5.8050165E2,3.9951338E3,8.574271E2,6.0253625E2,4.6046196E3,4.2078802E2,1.3084889E3,2.251071E3,9.317789E2,6.003295E2,0E0,8.562692E1,9.4595435E2,2.2440134E3,5.204013E2,3.5329014E3,2.9336792E3,2.9303955E3,9.1645264E2,5.606345E2,3.6230396E2,8.554306E0,0E0,0E0,1.8718811E3,5.0149152E2,4.8609595E2,6.438012E2,1.9117554E2,1.0293835E3,1.5963193E3,1.1209203E3,8.708096E2,4.778341E2,8.716792E2,2.6235117E3,6.1183594E2,0E0,0E0,3.7062912E2,5.118994E1,4.6382587E2,0E0,1.8776627E1,1.068356E3,9.7419507E2,4.7482104E2,3.1881915E2,0E0,3.0617008E1,1.1439952E3,4.4925836E2,0E0,0E0,0E0,0E0,0E0,0E0,0E0,0E0,0E0,0E0,0E0,0E0,0E0,0E0,0E0,0E0,0E0,0E0,0E0,0E0,0E0,0E0,0E0,0E0,0E0,0E0,0E0,0E0,0E0,0E0,0E0,0E0,0E0,0E0,0E0,0E0,0E0,0E0,0E0,0E0],"parents":[2147483647,0,0,1,1,2,2,3,3,4,4,5,5,6,6,7,7,8,8,9,9,10,10,12,12,13,13,14,14,15,15,16,16,17,17,18,18,19,19,20,20,21,21,22,22,25,25,26,26,27,27,28,28,29,29,30,30,31,31,32,32,33,33,34,34,35,35,36,36,37,37,40,40,41,41,42,42,44,44,45,45,46,46,47,47,48,48,50,50,51,51,52,52],"right_children":[2,4,6,8,10,12,14,16,18,20,22,-1,24,26,28,30,32,34,36,38,40,42,44,-1,-1,46,48,50,52,54,56,58,60,62,64,66,68,70,-1,-1,72,74,76,-1,78,80,82,84,86,-1,88,90,92,-1,-1,-1,-1,-1,-1,-1,-1,-1,-1,-1,-1,-1,-1,-1,-1,-1,-1,-1,-1,-1,-1,-1,-1,-1,-1,-1,-1,-1,-1,-1,-1,-1,-1,-1,-1,-1,-1,-1,-1],"split_conditions":[3.23E2,1.68E2,3.37E2,1.13E2,2.68E2,1.05E2,3.68E2,2.35E2,1.27E2,2.54E2,3.88E2,1.994253E1,1.09E2,3.27E2,3.73E2,8.7E1,2.5E2,4E0,1.38E2,2.53E2,2.6E2,2.58E2,8E1,-3.722626E-1,2.4145067E0,1E0,1.34E2,8.3E1,7.5E1,1.83E2,1.05E2,9E1,9.4E1,3.41E2,1.17E2,1.3E2,1.42E2,1.69E2,-5.949399E0,5.769357E0,3.3E1,1.5E2,3.15E2,3.1810915E-1,4.11E2,1.4E1,3.55E2,1.22E2,3.4E2,7.296642E0,2E2,4.77E2,3.96E2,-3.5580197E-1,-2.7240405E0,3.7135215E0,-1.4688938E0,-2.5944839E0,-1.1515791E1,-1.0390828E0,6.682755E0,8.660422E0,2.1857705E0,-3.0199358E-1,-6.3975635E0,-4.1347048E-1,-1.1076693E1,6.475258E0,-5.52013E-1,-3.541919E-1,1.6204352E0,-5.748596E-1,3.3905435E0,2.3814974E0,-1.2834778E-1,-4.0908194E0,-7.3056793E-1,7.8974766E-1,2.34953E0,1.4592819E0,-8.058379E0,1.2256229E0,-2.8747342E0,2.1418169E0,-2.8509889E0,-6.5057375E-2,6.0561285E0,1.7814515E0,-1.3222963E-1,-1.7675941E0,1.2072198E0,-1.235415E0,2.5593352E0],"split_indices":[4,3,4,0,4,0,4,4,0,4,3,0,0,1,4,0,4,3,0,4,4,3,0,0,0,3,0,3,3,1,0,0,0,1,0,0,0,0,0,0,1,0,3,0,3,0,4,0,4,0,0,4,4,0,0,0,0,0,0,0,0,0,0,0,0,0,0,0,0,0,0,0,0,0,0,0,0,0,0,0,0,0,0,0,0,0,0,0,0,0,0,0,0],"split_type":[0,0,0,0,0,0,0,0,0,0,0,0,0,0,0,0,0,0,0,0,0,0,0,0,0,0,0,0,0,0,0,0,0,0,0,0,0,0,0,0,0,0,0,0,0,0,0,0,0,0,0,0,0,0,0,0,0,0,0,0,0,0,0,0,0,0,0,0,0,0,0,0,0,0,0,0,0,0,0,0,0,0,0,0,0,0,0,0,0,0,0,0,0],"sum_hessian":[3.67E2,2.62E2,1.05E2,1.72E2,9E1,5E0,1E2,4.3E1,1.29E2,6.7E1,2.3E1,1E0,4E0,3.4E1,6.6E1,2.4E1,1.9E1,1.3E1,1.16E2,5.6E1,1.1E1,1.7E1,6E0,1E0,3E0,2.6E1,8E0,6E0,6E1,1.2E1,1.2E1,8E0,1.1E1,9E0,4E0,3E0,1.13E2,5.5E1,1E0,4E0,7E0,2E0,1.5E1,1E0,5E0,5E0,2.1E1,5E0,3E0,4E0,2E0,4.6E1,1.4E1,7E0,5E0,6E0,6E0,4E0,4E0,1E1,1E0,5E0,4E0,3E0,1E0,1E0,2E0,4E0,1.09E2,2.9E1,2.6E1,4E0,3E0,1E0,1E0,6E0,9E0,3E0,2E0,1E0,4E0,1.4E1,7E0,3E0,2E0,1E0,2E0,1E0,1E0,2.7E1,1.9E1,3E0,1.1E1],"tree_param":{"num_deleted":"0","num_feature":"5","num_nodes":"93","size_leaf_vector":"1"}},{"base_weights":[1.8641584E-1,-2.6968145E0,3.1194487E-1,1.5172967E-1,5.96839E0,2.5611672E-1,-3.6545167E0,6.131983E0,2.0893352E0,-3.324955E-1,1.6685873E0,-2.3135805E0,5.9914026E0,3.8541564E-1,-7.7901845E0,7.6642084E0,4.0893483E-1,7.06192E0,-6.475525E-2,-5.5587087E-2,1.9075673E0,1.3836653E0,-3.818805E0,9.4725764E-1,5.6250243E0,-4.1431403E0,3.7817955E-1,7.792374E-1,3.1981692E0],"categories":[],"categories_nodes":[],"categories_segments":[],"categories_sizes":[],"default_left":[0,0,0,0,0,0,0,0,0,0,0,0,0,0,0,0,0,0,0,0,0,0,0,0,0,0,0,0,0],"id":24,"left_children":[1,-1,3,5,7,9,-1,-1,11,13,15,-1,17,19,21,23,25,27,-1,-1,-1,-1,-1,-1,-1,-1,-1,-1,-1],"loss_changes":[4.2667725E2,0E0,3.2896884E2,4.6016562E2,5.1865356E2,2.9403812E2,0E0,0E0,3.9041223E2,1.3414921E3,7.8231537E2,0E0,4.8039124E1,7.8181793E2,1.4063757E3,8.400852E2,1.0709922E3,6.870566E1,0E0,0E0,0E0,0E0,0E0,0E0,0E0,0E0,0E0,0E0,0E0],"parents":[2147483647,0,0,2,2,3,3,4,4,5,5,8,8,9,9,10,10,12,12,13,13,14,14,15,15,16,16,17,17],"right_children":[2,-1,4,6,8,10,-1,-1,12,14,16,-1,18,20,22,24,26,28,-1,-1,-1,-1,-1,-1,-1,-1,-1,-1,-1],"split_conditions":[9.1E1,-2.6968145E0,4.23E2,4.12E2,4.28E2,2.3E2,-3.6545167E0,6.131983E0,4.34E2,1.87E2,2.51E2,-2.3135805E0,5.11E2,1.33E2,1.17E2,2.48E2,2.61E2,3.06E2,-6.475525E-2,-5.5587087E-2,1.9075673E0,1.3836653E0,-3.818805E0,9.4725764E-1,5.6250243E0,-4.1431403E0,3.7817955E-1,7.792374E-1,3.1981692E0],"split_indices":[4,0,1,1,1,1,0,0,1,1,1,0,1,1,0,1,1,4,0,0,0,0,0,0,0,0,0,0,0],"split_type":[0,0,0,0,0,0,0,0,0,0,0,0,0,0,0,0,0,0,0,0,0,0,0,0,0,0,0,0,0],"sum_hessian":[3.67E2,4E0,3.63E2,3.54E2,9E0,3.52E2,2E0,1E0,8E0,2.49E2,1.03E2,2E0,6E0,2.28E2,2.1E1,1.7E1,8.6E1,5E0,1E0,2.09E2,1.9E1,6E0,1.5E1,1.3E1,4E0,4E0,8.2E1,3E0,2E0],"tree_param":{"num_deleted":"0","num_feature":"5","num_nodes":"29","size_leaf_vector":"1"}},{"base_weights":[1.4028713E-1,2.6740588E-2,8.378418E0,2.9997006E-1,-5.5680003E0,1.5714112E-1,3.0633364E0,-4.771637E-2,7.0724363E0,3.1853104E0,-1.2013849E1,1.9808574E-1,-1.14882555E1,1.3505283E1,-1.4623684E-1,9.75697E0,-5.825592E0,-1.544529E1,1.141276E0,-5.5825982E-2,9.147624E0,-1.5520221E1,-9.388936E-1,5.272794E0,4.0229187E0,-9.349554E0,9.0863285E0,1.3909805E1,-1.0281556E0,-3.0261843E0,-1.0426025E0,-1.8349382E1,7.325043E-1,6.176331E-1,-1.0405884E-1,7.516293E-2,-1.4670882E0,3.602266E0,-2.0597718E0,-5.2464366E0,-1.1472931E0,-1.2405396E-2,-4.1009676E-1,2.2611787E0,1.01715095E-1,-7.945038E-1,-5.4231586E0,3.828914E0,-8.430817E-1,4.837683E0,1.0893586E0,-4.7461855E-1,5.4473877E-3,-5.906806E0,-1.5464356E0],"categories":[],"categories_nodes":[],"categories_segments":[],"categories_sizes":[],"default_left":[0,0,0,0,0,0,0,0,0,0,0,0,0,0,0,0,0,0,0,0,0,0,0,0,0,0,0,0,0,0,0,0,0,0,0,0,0,0,0,0,0,0,0,0,0,0,0,0,0,0,0,0,0,0,0],"id":25,"left_children":[1,3,5,7,9,-1,-1,11,13,15,17,19,21,23,25,27,29,31,33,35,37,39,41,-1,43,45,47,49,-1,-1,51,53,-1,-1,-1,-1,-1,-1,-1,-1,-1,-1,-1,-1,-1,-1,-1,-1,-1,-1,-1,-1,-1,-1,-1],"loss_changes":[3.4400732E2,5.5809814E2,6.662723E1,8.197712E2,9.974507E2,0E0,0E0,9.358956E2,7.9139746E2,5.305728E2,4.6903772E2,7.4131067E2,2.831709E2,2.7669165E2,8.4968524E2,3.214296E2,7.101741E1,4.603667E2,4.810219E0,4.7222504E2,4.946209E2,4.8201904E1,1.0961745E0,0E0,4.9230003E1,2.4455396E2,2.5456992E2,3.2546387E1,0E0,0E0,1.7454383E0,2.2267822E1,0E0,0E0,0E0,0E0,0E0,0E0,0E0,0E0,0E0,0E0,0E0,0E0,0E0,0E0,0E0,0E0,0E0,0E0,0E0,0E0,0E0,0E0,0E0],"parents":[2147483647,0,0,1,1,2,2,3,3,4,4,7,7,8,8,9,9,10,10,11,11,12,12,13,13,14,14,15,15,16,16,17,17,18,18,19,19,20,20,21,21,22,22,24,24,25,25,26,26,27,27,30,30,31,31],"right_children":[2,4,6,8,10,-1,-1,12,14,16,18,20,22,24,26,28,30,32,34,36,38,40,42,-1,44,46,48,50,-1,-1,52,54,-1,-1,-1,-1,-1,-1,-1,-1,-1,-1,-1,-1,-1,-1,-1,-1,-1,-1,-1,-1,-1,-1,-1],"split_conditions":[4.62E2,3.97E2,2E0,3.46E2,2E0,1.5714112E-1,3.0633364E0,3.42E2,3.71E2,4.35E2,3.1E1,3.3E2,7.2E1,3.2E1,3.76E2,1.4E1,4.48E2,4.57E2,4.24E2,3.08E2,2.31E2,5.44E2,3.43E2,5.272794E0,3.48E2,4.5E2,9.2E1,4.34E2,-1.0281556E0,-3.0261843E0,4.52E2,4.45E2,7.325043E-1,6.176331E-1,-1.0405884E-1,7.516293E-2,-1.4670882E0,3.602266E0,-2.0597718E0,-5.2464366E0,-1.1472931E0,-1.2405396E-2,-4.1009676E-1,2.2611787E0,1.01715095E-1,-7.945038E-1,-5.4231586E0,3.828914E0,-8.430817E-1,4.837683E0,1.0893586E0,-4.7461855E-1,5.4473877E-3,-5.906806E0,-1.5464356E0],"split_indices":[0,0,3,0,1,0,0,0,0,0,3,0,1,3,0,3,0,0,0,0,1,4,0,0,0,4,3,0,0,0,0,0,0,0,0,0,0,0,0,0,0,0,0,0,0,0,0,0,0,0,0,0,0,0,0],"split_type":[0,0,0,0,0,0,0,0,0,0,0,0,0,0,0,0,0,0,0,0,0,0,0,0,0,0,0,0,0,0,0,0,0,0,0,0,0,0,0,0,0,0,0,0,0,0,0,0,0,0,0,0,0,0,0],"sum_hessian":[3.67E2,3.63E2,4E0,3.47E2,1.6E1,1E0,3E0,3.31E2,1.6E1,7E0,9E0,3.25E2,6E0,8E0,8E0,4E0,3E0,7E0,2E0,3.17E2,8E0,4E0,2E0,5E0,3E0,4E0,4E0,3E0,1E0,1E0,2E0,6E0,1E0,1E0,1E0,2.99E2,1.8E1,7E0,1E0,3E0,1E0,1E0,1E0,1E0,2E0,3E0,1E0,3E0,1E0,2E0,1E0,1E0,1E0,5E0,1E0],"tree_param":{"num_deleted":"0","num_feature":"5","num_nodes":"55","size_leaf_vector":"1"}},{"base_weights":[8.776165E-2,-2.373631E0,4.6438813E-1,-1.5121425E0,-1.5079071E1,7.5439625E0,-1.6114853E-1,-4.407021E0,1.4457417E0,-6.3535542E0,-4.320282E-1,3.4253032E0,3.797858E1,-9.172504E0,2.5337008E-1,-1.3526492E0,-9.347346E0,6.499276E0,-5.998408E-1,1.5826707E-1,1.9720917E1,2.0720445E-1,1.6883158E1,-1.2994834E1,-4.039817E0,7.0686407E0,-1.00952715E-1,1.8866163E0,-8.856357E0,-1.3015985E1,6.9857794E-1,2.367836E0,-2.792679E-1,-2.5054522E0,3.628957E0,8.779402E0,-3.8754802E0,7.806928E0,1.2215882E-1,-1.966324E0,-5.819177E0,-7.05506E0,6.996583E-1,2.581866E0,2.2659525E1,-4.6091247E0,4.3969992E-1,-1.0177245E0,2.9867232E0,-3.2953115E0,-5.16449E-2,-1.4141266E0,-4.6182375E0,1.7934094E-1,-1.8676652E0,2.0156114E0,-5.1010746E-1,6.0289312E-2,6.0450993E0,-2.1635377E0,2.1306977E0,-4.070099E-1,-3.12052E0,-1.0637137E0,4.7170353E0,8.060642E0,2.136145E0,-5.4535584E0,1.6041288E-1,3.3574142E0,-5.0974656E-2],"categories":[],"categories_nodes":[],"categories_segments":[],"categories_sizes":[],"default_left":[0,0,0,0,0,0,0,0,0,0,0,0,0,0,0,0,0,0,0,0,0,0,0,0,0,0,0,0,0,0,0,0,0,0,0,0,0,0,0,0,0,0,0,0,0,0,0,0,0,0,0,0,0,0,0,0,0,0,0,0,0,0,0,0,0,0,0,0,0,0,0],"id":26,"left_children":[1,3,5,7,9,11,13,15,17,-1,-1,19,21,23,25,27,29,31,33,35,37,-1,-1,39,41,43,45,47,49,51,-1,-1,-1,53,55,57,59,-1,-1,-1,-1,61,-1,63,65,67,69,-1,-1,-1,-1,-1,-1,-1,-1,-1,-1,-1,-1,-1,-1,-1,-1,-1,-1,-1,-1,-1,-1,-1,-1],"loss_changes":[3.422477E2,5.135321E2,1.4183463E3,4.08819E2,2.1907141E2,3.1290076E3,1.1042596E3,3.4950644E2,2.5199666E2,0E0,0E0,1.2745994E3,2.0080806E3,2.0254797E2,6.8410364E2,4.0561255E2,4.158222E2,7.982547E1,1.541442E2,7.6430945E2,4.7627734E2,0E0,0E0,1.6150256E2,1.5094589E2,9.208352E2,6.601124E2,5.449401E2,9.050964E1,6.5642944E1,0E0,0E0,0E0,1.5379904E2,1.10221634E2,6.78764E2,6.006012E2,0E0,0E0,0E0,0E0,8.124074E1,0E0,1.0220638E3,4.9056396E0,2.033884E3,1.588064E3,0E0,0E0,0E0,0E0,0E0,0E0,0E0,0E0,0E0,0E0,0E0,0E0,0E0,0E0,0E0,0E0,0E0,0E0,0E0,0E0,0E0,0E0,0E0,0E0],"parents":[2147483647,0,0,1,1,2,2,3,3,4,4,5,5,6,6,7,7,8,8,11,11,12,12,13,13,14,14,15,15,16,16,17,17,18,18,19,19,20,20,23,23,24,24,25,25,26,26,27,27,28,28,29,29,33,33,34,34,35,35,36,36,41,41,43,43,44,44,45,45,46,46],"right_children":[2,4,6,8,10,12,14,16,18,-1,-1,20,22,24,26,28,30,32,34,36,38,-1,-1,40,42,44,46,48,50,52,-1,-1,-1,54,56,58,60,-1,-1,-1,-1,62,-1,64,66,68,70,-1,-1,-1,-1,-1,-1,-1,-1,-1,-1,-1,-1,-1,-1,-1,-1,-1,-1,-1,-1,-1,-1,-1,-1],"split_conditions":[8.4E1,3.95E2,1.05E2,2.63E2,4.1E1,1.04E2,1.12E2,1.83E2,1E0,-6.3535542E0,-4.320282E-1,3.88E2,1.47E2,5E0,1.19E2,7E1,3.43E2,2.71E2,2.22E2,1.99E2,4.12E2,2.0720445E-1,1.6883158E1,2.34E2,1.09E2,1.17E2,1.38E2,3.3E1,2E0,1E1,6.9857794E-1,2.367836E0,-2.792679E-1,3.76E2,4.79E2,1.65E2,3.88E2,7.806928E0,1.2215882E-1,-1.966324E0,-5.819177E0,1.5E2,6.996583E-1,2.39E2,1.18E2,1E0,1.5E2,-1.0177245E0,2.9867232E0,-3.2953115E0,-5.16449E-2,-1.4141266E0,-4.6182375E0,1.7934094E-1,-1.8676652E0,2.0156114E0,-5.1010746E-1,6.0289312E-2,6.0450993E0,-2.1635377E0,2.1306977E0,-4.070099E-1,-3.12052E0,-1.0637137E0,4.7170353E0,8.060642E0,2.136145E0,-5.4535584E0,1.6041288E-1,3.3574142E0,-5.0974656E-2],"split_indices":[0,1,0,4,0,0,0,1,3,0,0,1,1,3,0,0,1,1,1,4,1,0,0,4,0,0,0,0,1,0,0,0,0,4,4,4,3,0,0,0,0,3,0,4,0,1,0,0,0,0,0,0,0,0,0,0,0,0,0,0,0,0,0,0,0,0,0,0,0,0,0],"split_type":[0,0,0,0,0,0,0,0,0,0,0,0,0,0,0,0,0,0,0,0,0,0,0,0,0,0,0,0,0,0,0,0,0,0,0,0,0,0,0,0,0,0,0,0,0,0,0,0,0,0,0,0,0,0,0,0,0,0,0,0,0,0,0,0,0,0,0,0,0,0,0],"sum_hessian":[3.67E2,4.8E1,3.19E2,4.6E1,2E0,2.5E1,2.94E2,2.3E1,2.3E1,1E0,1E0,2.3E1,2E0,1.2E1,2.82E2,1.5E1,8E0,6E0,1.7E1,2E1,3E0,1E0,1E0,6E0,6E0,1.3E1,2.69E2,1.1E1,4E0,6E0,2E0,5E0,1E0,1.2E1,5E0,6E0,1.4E1,2E0,1E0,4E0,2E0,4E0,2E0,1.1E1,2E0,2.8E1,2.41E2,7E0,4E0,3E0,1E0,2E0,4E0,7E0,5E0,3E0,2E0,4E0,2E0,1.1E1,3E0,2E0,2E0,8E0,3E0,1E0,1E0,7E0,2.1E1,1.2E1,2.29E2],"tree_param":{"num_deleted":"0","num_feature":"5","num_nodes":"71","size_leaf_vector":"1"}},{"base_weights":[1.17814146E-1,-2.1882732E-1,2.7360034E0,-1.1366397E0,1.0785168E0,1.9352248E-1,7.807142E0,-7.755289E-1,-1.7914963E1,1.9293654E0,-3.9528732E0,6.535785E0,-1.3557053E0,5.3184814E0,5.680265E0,6.126286E-1,-2.215053E0,-7.7698913E0,9.058594E-1,3.2553968E0,-2.024639E0,-1.4180878E1,1.443477E0,-4.578655E0,3.323115E0,3.836743E0,3.2250922E0,-2.0579927E0,4.4697137E0,-8.9124155E0,-9.153634E-1,1.8406708E0,1.5469028E1,-5.649563E0,2.5216718E0,-6.9493256E0,-8.635529E0,7.601633E0,-2.3437593E0,-2.0838296E0,-1.2165878E1,6.255165E0,-2.032788E0,1.3678894E0,4.5447793E0,-8.2066E-1,2.3318071E0,5.696139E0,-1.07252404E-1,-5.25763E0,1.0303999E0,2.2356622E0,-7.135597E-1,2.0712767E0,7.777169E-2,5.5118594E0,-1.1642487E0,-2.9115255E0,1.8074121E0,2.1947598E0,-5.9653705E-1,-4.7168887E-1,-3.540677E0,-3.689341E0,1.0340048E0,8.2241726E-1,-2.6923065E0,-5.765808E0,-1.0224793E0,